{"layers":[{"weights":[[0.8959445246489123,-2.2478828504458024,-0.33242648386920304,1.6842400582185795,0.4718754931138079,-1.313587108038596,0.14500892417896746,0.35839643071241045,2.0057670626425557],[0.9627923948757274,-1.7081517644489066,0.17806257264735795,0.6125776302953375,-0.6018574955398691,-0.9926389972431755,0.0321892635189543,1.297155930757647,1.8844367834114235],[0.9005393831074616,-3.0761202657687563,-1.100294089723586,0.6915892282433085,-2.067719424203934,-2.0073422892441473,-1.4848828271323489,1.9791416604313952,2.6106446278006277],[1.3403834586171413,-2.901097096555258,0.6774052159022158,1.2435573297084734,-1.1273591990295166,-2.450905288546312,-0.7775382670470916,0.8906546712182435,2.3960909448256316],[1.1002051405019113,-1.3730539431330664,-1.8178082478734636,0.7824137548439654,-2.816064640045798,-0.8543991385842487,-1.8182138377759784,0.9204092973029594,1.8737078346659626],[1.2935156672056853,-1.52763683559569,-2.3856804002211236,0.6125769854516311,1.3003610775435224,2.3079406647826395,0.6588854517674309,1.0901877353767173,-2.0537385346390975],[0.15229882171608572,-0.8765860277478014,-0.20334877461670192,-0.43275135227241024,1.1635195549199455,0.8873936921614123,0.34762241617990464,-0.5002018364470743,0.45320163592475565],[-1.2262196888541839,1.1029276552643605,1.1351800579384685,1.0735055563290612,0.48539647145059217,0.6442502983218548,1.0039569022244874,-1.309394844831201,-1.7413417541260034],[2.214301492358059,-2.501082452167486,-0.35238299618501007,1.402971471800134,-0.2071927054225053,-1.9374735499189593,-0.9087358399958754,-0.11043769998379978,1.813971765835251],[-0.6690067418428673,-0.5068852658637825,-0.16283804082453637,-0.17697860011780533,0.04856646379336666,0.03548890868440198,-0.4062335511964975,-0.36514856786903105,-0.025156807404584817],[0.7980673538159192,2.216823994009316,-0.04297748476450886,0.7205112026037666,0.9263104173017742,2.2500068228608585,0.4799289461399201,0.402778528140555,-0.8998691348424446],[-2.3458235318092036,0.18586111745943934,1.6856799827371578,0.06812042228336003,2.3995799182181665,0.008357385210081477,1.050506859566641,-2.249830954185091,-0.3039714826959487],[1.3624399829984524,-1.7801433248183667,-1.758385411287954,0.8711968898071599,-1.2584166353709119,-0.7808146054803172,-1.5431764573002271,1.1049908027640911,2.608966146365765],[1.270301048462791,-0.5953330641937961,0.06921914771329829,0.9736515072131499,-2.347108843641745,-0.2960410406316283,-0.9291425955468061,0.6904623051222213,1.994129065861424],[0.809660224267294,-1.7833941688189672,-0.7231389460259514,0.5945540257293058,-1.8881452699419745,-0.7840392898367563,-1.4817357701178873,0.8178082258519046,2.7170895649521802],[-1.3631275799965707,-0.22058797097339217,0.09153665626888496,-0.49376115679768723,-0.28492908273995954,-0.8056208354356365,0.6650371960830357,-0.6028787069264805,-0.6568690374501149],[-0.5880029232669906,0.4954240301769078,0.6780688340300114,-0.33334275752034226,-0.07157600239522036,0.031904230910104484,-0.1086841759910589,0.6724686017398275,0.1832408800612047],[1.4921148313571784,-1.5083205206189614,-2.615251409057911,0.8791550887226885,-2.162487773191367,-1.276566691180462,-2.166407464909341,0.7304828503985019,1.8534971630859434],[0.6397744653042178,1.5696786296046015,-1.68034001037305,0.9446046456598967,0.9940362093204286,2.1999105819591933,1.1655266045024182,0.5067672795932207,-1.3885348736967495],[0.8340467730365475,-2.0163934946946895,0.054415494190049624,1.561327264747735,-0.5944374741957353,-1.6215392431571503,-1.2074547642816327,0.8863576578230331,2.3321491857117254],[-0.7151400814498725,0.6905839094182716,0.9084449902500131,-0.9826941461733198,1.3759768778606367,-0.13214678007939207,0.5772088495205921,-0.19914768122592474,0.42868193742266075],[1.4774426388603819,-1.1457939711084053,0.21890473088667659,0.7189742872987229,-0.46547416670864733,-1.071787709523737,-0.80016120685621,0.7294624026165953,2.0753633060889456],[-0.5695313017689168,2.338478044570722,-0.4867941121786279,0.9382813898657976,1.8148420649325434,-1.0588323142087241,-1.0345711522147183,0.019319606111487007,-0.4108639303944214],[-1.1075894902007384,-0.5842892535720451,0.35639781806218623,-0.5885774024141629,-0.673127652740812,-0.07211553026765023,-0.1949900987255156,0.1616075775489297,0.07039908994048161],[1.3454606965467528,-1.2933752265448237,-2.1671119573013526,0.5942178407380412,-2.265686769920619,-0.6122901891462722,-1.5401846332667068,1.2539129559523854,2.065270896369531],[1.576212518023815,-1.6390871101228512,-1.291592516639892,0.698253729887408,-0.6308897568367121,-0.9495140440220456,-0.9712745533782017,1.1290170547709477,2.5341773918181625],[-0.08664505397412839,0.6044442872777082,-0.019572364835530764,-0.5035810277729404,0.36275645080405616,-0.479121343190875,-0.2394752989102965,-0.9976545608192297,0.32057206438332175]],"bias":[0.7997908483809795,0.7447673919143587,1.0857727625665206,1.1725420942158111,0.8251839001321589,0.5303759004782279,-0.14504416780113277,0.7241600807082571,0.8240220798861853,0,-0.006968188242087867,0.9573643867921933,0.8928172863327474,0.5594730548885423,1.019848765026159,-0.31485615168752673,0.040975778753565985,0.9187583680968823,0.43187194672404267,0.7276794578601177,-0.16410134804252302,0.8406172412748186,0.3770227527477718,-0.1401745439767278,0.8028259252554502,0.8823879878508178,-0.14195544883009592],"neuron_size":27,"input_size":9},{"weights":[[1.232217920369044,0.8955383079354201,0.6711951425924617,1.0352072579739249,0.6692911030920319,-1.0329234702925,-0.37776570171219254,0.4417500789111099,0.9515507335049167,-0.5431544690614523,-0.22110876531245627,-1.210732829688787,0.6837656835820364,0.797962915038481,0.9157380716930545,-0.37725412671439845,-0.5361199204607854,0.44592329490356086,-1.052028238183603,0.7985860746764815,-1.1946998443340218,0.714518446218768,-0.3561146813013999,-0.06665202832366326,0.43301497557762464,0.8235330395525129,-0.6249682083909207],[-0.9777527985789786,-0.2647630410338829,-0.9166643299123582,-1.5161323332544112,0.8663576201982226,0.8195027672869007,-0.9688610523306673,1.8707099535296958,-0.8943365765839141,0.09685886085250739,0.7225611870915315,0.07561169047449236,-0.3044990660007214,0.5022466468434662,-0.5983346308757932,-2.3629641806684933,0.2620996938259101,0.4560646431801462,1.5731957079805539,-0.2685015393476612,0.4519398593325295,-0.021306223003458233,1.1003059698383155,0.06157092416369547,0.2311929222502699,-0.03921844650677996,-0.33110963394666665],[0.24551879961941825,0.6051721449878236,0.4657967173799496,0.4961248708328567,-0.20345037900587185,-1.0548939882113157,0.5000010749633462,-0.2725694700437619,-0.40034660965267715,-0.23614171850917556,-0.7026764683236043,1.0176974302681996,-0.3448391261919113,-0.44833266038324315,0.93585182691652,0.36066938911107077,1.152287355414054,-0.27646910941138836,-1.058985798476121,0.2732562349164404,0.7061122526538599,0.348167589624663,-0.6274477340301184,0.34718515203064615,-0.972616881594601,-0.14520442050073998,0.14167177835626807],[0.7554116097772055,0.5268285499944778,1.0493695724696575,0.8871685174173949,1.0391476888974318,-0.6053730035045619,0.3662911779676416,0.07765291080202691,0.4467047452921548,0.1984651507248759,-0.4397501588508509,-0.4802393931343445,1.449832638046237,0.4511214722807585,0.23781561819785116,-0.014451102232667148,-0.9166114192599483,0.8196749506668612,-0.8456371785960446,0.5535292281238732,-0.06617526359131588,0.6716587309154193,-0.7964896305569789,-0.2911087769730856,0.8212729851566034,0.8061009735007678,0.22452633968219948],[0.39141551533600905,-0.2595422361504145,0.6705124551677618,-0.5203300572159266,-0.34391918545325584,-0.06646888233439428,-0.25263030019158256,-0.45843854396949085,-0.015508264178616185,0.43912354983211166,-0.32630134172907194,0.28270814693662805,0.056240093259531866,-0.12542046533737222,0.10681103296811965,-0.1690043621921844,-0.11155585682764,-0.366485576586397,-0.4474507325314774,-0.18629548491039127,0.29346144329443014,-0.3110178152827397,-0.37625518461902485,0.049618495479901235,0.15810649084573591,0.11591652886258637,0.013732019577896212],[0.4418784525939784,0.37098423647005035,0.859758971163108,1.3671628650160874,0.8692568899312403,-0.9861856417331214,-0.7087969979839313,0.278331329163324,0.6959464977124228,-0.07018516733746012,-0.012915795011020647,0.4706669539678981,1.1830592699440068,0.9124771018728749,0.9488800112283567,-0.653416770715999,-0.546585731950149,0.45251858658579636,-0.4994198135693777,0.7155858728526302,-0.29089409475522043,-0.059965021652253085,-0.5602714989613277,-0.8223749848135955,0.5938123169393515,0.8595109825268461,0.14800622182479634],[0.6077275305191181,0.332643457503168,0.8107505208855831,-0.15568599252135534,-0.361923354952487,-0.9687319380709665,0.16700942322459345,-0.28825377755777587,-0.40918940240562324,0.4619228913903627,-0.08921784158515048,0.2958651121596715,-0.5321548327805093,-0.008312579604985949,0.11706497041432921,0.3781297282960569,0.4875274731447202,-0.2626695049314643,-0.21965793740458697,0.3318517069781423,0.2672541923664565,0.4895638142143832,-0.9353846099324704,0.08651899626654444,-0.18941392225704481,-0.576333588470924,0.04300953213218687],[-0.13343430486079458,0.23310587048767553,-0.1241815987199783,0.017316865154942226,-0.1271544611341097,-0.011382828331722526,0.201220172891845,0.0132569904838155,-0.12867860140235912,-0.1794177637088783,-0.20393458904525477,-0.32408139897317173,-0.21030613904950743,-0.01270797592898825,0.37886498293110826,-0.23211884238457722,0.1519836416016592,-0.4026416556634499,0.2469973045823632,-0.27232279661926945,-0.23574515501797239,-0.08044717417205503,-0.1908413311710829,0.2675447467237056,-0.12711491237167552,-0.36565371002355757,-0.4171553267879813],[0.0959860354039419,0.6277436999933562,-1.243599303424503,0.45700637641539055,-0.3464095473460179,-0.07806661031257008,0.7027261392059768,1.5648361358499407,0.863467897989363,0.28647083781776483,-0.06015231725320533,0.6548493661204365,-0.3093843996970103,-0.2880566347109546,-0.8150052466634476,-0.5296327275521918,-0.8137539883973116,-0.17255102558988242,-0.0832868502465706,-0.11048309244255973,-0.6723837551079934,-0.09398543214950325,0.33400960830862186,-0.15500687995354434,-0.41696190966707675,-0.09258169432761994,0.1570937071000146],[-0.4576810883723533,0.04570507443320228,-0.3587095482255821,0.14254032205999137,0.09364852684663084,-0.2657748576180216,-0.31413748339212694,-0.2173775339333891,-0.20712476917264835,0.2945455995739607,-0.1699916594036583,-0.0035826071530334425,0.14017826426907726,-0.036897212834896664,-0.14539046709935602,-0.10331790930258333,-0.3965256419614705,-0.0014385293259799856,-0.23254446523732936,-0.006591560301713296,0.08501848162242559,0.15673363123558592,-0.03308444398101911,0.1082010692333825,0.04133559615446438,0.26872591909055393,-0.034873892043453716],[-0.7389600237809602,-0.07768076646690551,0.6846728054488599,-0.26316727164623327,0.2048042867513855,0.5550401905215295,0.9405775709375815,-1.0394869915992961,-0.2903288920970585,0.6061082191836022,0.9999112226712896,1.510778502839938,0.20422675934286408,-0.31230009952356813,-0.06203628664940969,0.895856017216666,1.005290922226154,0.5037261593107013,0.8925996716393289,0.014635468145103369,0.814245368717493,0.36256537555021157,1.4384118363996754,-0.13121914906108403,0.4850658682769309,-0.22106460151748944,0.18020705603170828],[0.13721841734547188,0.36055861139802675,-0.3240091724381382,0.2010456005487588,-0.2935247250250977,1.4950869000096798,0.3446446432272042,-1.1644738640878591,0.22625930546654408,-0.1120181437091764,1.2005518689275558,0.21619927692875432,-0.3117772944260223,0.22158318591128406,0.12449705036666835,0.3745220127176179,1.0895429242445756,0.5603079696269753,1.0378782506725104,0.36399898483488363,0.6176159178739642,0.8541046093615438,1.2891104099346244,-0.03106406131320594,-0.15701544303345574,-0.12518577119698332,-0.23925589885191464],[0.33440568305363094,0.8344752673861757,1.4933541351654305,0.8674907337235418,1.022790134765066,-0.8733245097333474,-0.05535765252050079,-0.18183166655873242,0.6927824916284342,0.16880473067051566,-0.22154101033183868,-0.41349249563761054,0.7904096100981202,0.5663034743361995,0.4604813396490409,-0.4535000232788608,-0.37593717116256076,0.645536514857442,-0.804106214394017,0.5664882589171004,-0.0879636645678963,0.8147365849177187,-0.3282689855967811,-0.29102438110923967,0.8375310070910844,0.9605617442021908,0.09897712903888295],[0.7794988267360395,0.029589367946322758,-2.049247402895118,0.345184008578,0.060089084453193005,-0.08174231385108807,-0.24114085023763482,2.102391098530048,1.1058323715741523,-0.13260927417302593,0.2373378656940115,0.8004816025081057,-1.7795381871249196,0.2693721251090177,-0.8443783195711414,-0.5497647152949011,-0.6862135363638849,-0.34227726675923625,0.6437673746135331,0.26819074402718185,0.198814723711726,0.4151751714712903,0.5322879128305537,-0.10787592204760722,-0.5111468342205407,-0.22710744258861634,0.010101678095401743],[0.9830880442121114,0.7307801383499685,1.0509845439368721,0.7086470818146061,0.4945242858526963,-0.7286425710329401,-0.29735944674046116,0.6953525353735165,0.1070800106157148,0.037300904575095634,-0.7169695005830355,0.47429396107424304,0.7088324602041713,0.7779217530452823,0.8675189261217164,-0.607388340986818,-0.2977743321396554,1.0342504096098848,-0.053636304022455256,0.7831388855131696,-0.7719524331013485,0.5189347630752178,-0.7616091366319327,-0.4671137185737153,0.873847689635153,0.6283028602501018,0.3388643215589096],[0.3223437190137474,0.7868976965100183,1.0922919547914778,0.9445551036911332,0.661321760162395,-0.6964799321394265,-0.6749862608405561,0.7821196372271124,0.23429954901260971,-0.7481480041535866,0.007128363624976967,0.12296885668795227,0.6263750268067131,0.8152034536360349,0.289145630440482,0.1572389291796615,-0.811721188992927,0.5742618165417164,-0.9367209710350465,0.7567560024842398,-0.3849456202905355,0.3222365120669379,-0.627678269900857,0.4634424466340964,0.7097712994998568,0.5659376734633849,-0.1721468516654407],[0.4931894848488959,0.8449204692634973,-0.7230320282085556,0.2282091531438009,0.06980742717387908,-1.0487295088841646,1.9762658466852905,0.5821355069269674,-0.08192462078354273,-0.14114907695231546,-1.3500331897725737,2.8294748035096977,0.2401936580687335,-0.7822207629144274,0.4315696101536007,2.377324584058988,0.9817889209349587,0.29454052494187904,-0.46105786832626755,-0.2788942072822353,2.0343976694190635,0.5173398797090919,-0.012126329711373495,1.255254700863593,-0.04094694004256283,-0.5923110795524987,0.0019959331864016243],[-0.07612428397496843,0.05070123605677286,0.386712070423059,-0.23071444457200058,-0.4007014319456829,-0.1364618693305385,-0.5531238245934375,-0.3314313386768309,-0.14800062122583837,0.008073207587321192,-0.06677015714256376,0.14432976241457063,0.3972632456719762,-0.21738103688169141,-0.36795204342309096,0.04721052630722251,0.1714944179284673,0.12538607359740345,0.17001660771695565,-0.41552507079188755,-0.10923489811516437,0.14298445780757627,-0.04357160685287222,-0.1416565863390388,-0.07878521778876349,0.19935658244819557,-0.045917073789900724]],"bias":[0.41002696463187754,0.7055577278036423,0.13959910234042808,0.10088769008915577,-0.022367502484109427,0.1793369833041631,0.0988678946692501,-0.03134618214223973,0.3080576945495614,0,0.4240939565150628,0.642970456674664,0.04729016229723554,0.9086422858451623,0.09574937707151714,0.032516143881798375,0.33211459956139183,-0.04234631227676558],"neuron_size":18,"input_size":27},{"weights":[[-0.980802782613476,-1.042041925577665,0.13402899090291215,-0.3952140977972906,0.227155593059482,-0.8714420101490736,-0.22601476569573728,-0.036327120708731675,-0.35395738934279664,0.5622925031339223,0.10272788229404359,0.11354740360235717,-0.31258044010036823,-0.21423285770142425,0.3047275820927337,-0.0005247338977350345,0.2885813043848329,-0.4888875360379502],[-0.3434445228367524,-0.1082343483475584,-0.5043746111619154,-0.6734990312585297,-0.3833179160513016,0.03474717896646368,0.47204377947866744,0.7121824450573364,-0.5222532066614521,-0.10735236654158165,0.1450325329710041,0.17149474425346428,-0.4227315586120839,-0.6958196064501104,-0.12647931061730583,-0.19730190317212348,-0.6690950619495857,-0.09348693924133214],[0.4337611480262603,0.24072783935671963,-0.04779456666405713,-0.8441599545995977,0.10219269018661672,-0.29532685776538875,0.23317294473803887,-0.2509248295308609,0.34287141493456597,-0.8271046251260264,0.3243365522837849,0.2960651224499431,-0.10795978269755765,1.0509481373729799,0.07131239245738087,0.14860125690183107,0.1887579534213153,0.25002908879704355],[-0.07880882884545538,-0.14795706193800517,0.6053543971488156,-0.41898147710862194,-0.5110205566649381,0.06975348187167482,0.3836704316601794,-0.05680353833959626,-0.6203601052869092,0.1610089424249496,0.8365261751528608,0.5487660052152307,-0.037040275293522384,-0.3481798175952401,-0.13075810028895063,0.3794533209380497,1.5052077178941894,0.21657597914829088],[0.14434815330566042,0.21091267552525408,0.07118710463856086,-0.024764351554941926,-0.5355944997140998,-0.23752463922330214,0.428307548828381,0.6787965162481584,-0.17656712680261832,-0.22406270607647216,-0.023593914673805116,-0.01765205576991036,-0.354491720968096,-0.2633561296410318,-0.4927663994868543,-0.2638549491592952,-0.265551333687178,0.09524371245660301],[-0.32144019320470296,-0.19194865446868078,0.40837986819038624,-0.3666648007455443,0.1995638516225256,-0.029352261086605873,0.917494732268245,-0.2770072772051917,-0.31112590532265605,0.30043532621357083,-0.055409791603235704,-0.10104798469926621,-0.1168865081047243,0.06213885884876261,-0.32111829123868496,-0.2191777144886101,0.9418501086330636,-0.030568801749618846],[-0.4183908082648917,-0.38546044311161376,0.22226183247443962,-0.288154111651816,0.018591473705997588,-0.19354269845962851,0.29963610453329453,0.18574215734923383,0.11258218255153621,0.0382876915898768,-0.3073758796809355,0.5586932397207778,0.19007396303729876,-0.3266308532224766,0.2898802870617852,0.11341704349143752,-0.06090418450290867,0.5662127886460774],[-0.44589521983450436,-0.4635030308634069,0.3754302644348588,-0.2840884985067805,0.21565080293823,-0.25092903869338096,-0.3381590837361364,0.10640779121252644,0.2819761723374167,0.02953441544000514,-0.05310927009763546,0.3039612271886986,0.294452168242132,0.2242195935745344,0.2478387722240492,0.31165548493908635,-0.13541853278736532,-0.03719648408913295],[0.027042110709587657,-0.49102225239765024,0.05403421781697336,0.3302936791294756,-0.010393729578947464,-0.34405605419712293,-0.14946563495356702,0.3277776112167781,0.20933159825526257,0.21591645917835578,0.01452664225508471,-0.0001757600308452832,-0.13331003087660254,-0.3920730666942222,-0.3753179622512352,-0.4047087030339789,0.0876418919435602,-0.03761125565323056]],"bias":[-0.005453445193203615,0,0.2245185995382305,0.3593335185558617,-0.09041785875610348,0.07268650764136107,0.3611946963172499,0.05087470017111351,-0.050199906131847535],"neuron_size":9,"input_size":18},{"weights":[[0.26621833753842844,-0.1149736560176119,1.5181648985180596,-1.6980327685223542,0.13885939917600643,-0.409904859130389,-2.231869281549605,-0.7379997944314598,-0.1556422964383378],[-0.49445678193359865,-0.32986705120303,-1.9796956203180656,0.9012328941174577,0.035589323928341035,0.9956110958651296,2.8355161016036465,0.8356401481129664,0.35943515893108346]],"bias":[4.491404442778576,-4.491404442778779],"neuron_size":2,"input_size":9}]}