{"layers":[{"weights":[[-1.4223102087083475,1.5781442622929933,0.8788798031354798,0.3183161061112249,-2.0685370724750776,0.5110483339850043,0.9380730289100142,-0.3993808480853945,0.882356849589202],[0.2362584051787277,-0.1928765130474556,-0.9576823529494661,0.14066651608266145,0.39728033083909814,-0.7404581397013986,-1.3050688098256527,1.2100493590926589,1.7126856512851243],[-0.5783825882284918,0.7931358339230404,-0.4134075865167453,0.5148909498757203,0.5097919035575559,-0.486803653952283,-0.6281804202837888,-0.006038372204766909,0.4654914601479215],[-0.6238793582077897,0.4850446338600289,0.7610534849288573,0.7160383228041481,-1.1686882502043818,0.0820722054324693,-0.1749717598696347,0.317086196937086,-1.7894023254430724],[2.112338149169312,0.07920231107941349,-0.7902070420731959,-0.41370951453834987,1.6627516970913592,-2.0955109454875274,1.1928032630480274,0.22871744967730714,-1.3525044229555376],[0.2728689810739453,0.09294741457013492,-0.3449836292558565,0.5772705115161868,0.7951052694552236,-0.3324802063470722,-1.1335988891885906,0.32119632515730845,0.2641790600241154],[-0.9504496359555764,1.430806210309126,0.5113275067082573,0.47946376268286284,-1.1652927860060194,0.8372176525022339,0.7493332013568761,0.4985362949528892,0.6258607667018014],[1.0625539176710679,0.7623105345977028,-0.8893698354197069,-0.7965316993061721,2.2689937106192968,0.9619391075711755,1.3059505491565986,-0.0995246714672613,0.42844407547687047],[2.078903872550743,1.2432760523341224,-1.7731334996363892,-1.0105714620190827,1.2666103521923264,1.6942246096162135,1.8987208623705396,-0.985661843388763,1.3456807248436506],[1.3917171480976682,1.6497809600685107,-1.9102313673753506,-0.11165407145190565,1.0954531743468383,1.2019217168754646,2.2142441984675703,-0.263458097688767,1.1245317227096217],[-0.13298310629291724,0.8306190685120419,-0.41105050976729784,0.42671635851020834,-0.4407792594170029,-0.7972866958094219,-0.8333345504804375,-0.22509715017692997,0.6613919308488797],[0.7720192906345233,1.3463402257829382,-1.0830335462845453,-0.006392660915935477,1.0268687331671151,0.7850181737392232,1.7981504189111748,-0.22250476086799667,1.1409026288783182],[-1.2136695481809598,-0.3685823794192785,0.45800618849233804,-0.3933138653881394,0.4652622056006768,-0.36322532112448735,0.6892699068448603,0.1841008905590106,-0.01882589485674668],[0.15784991775760449,-1.2665509813569185,0.6107357167724689,0.8043445535716923,-0.434136745212944,-1.0422840239813533,-1.0006491735636764,0.3475008405734965,0.08776837735116791],[0.5213327941469112,1.2642048325969173,-1.0121019665569562,-0.6179335760221918,1.076474921811608,1.6321712275484126,0.6998228856990112,-0.5291932487835902,0.5740536189935946],[1.5217828732481407,1.580896186765073,1.0729273731464946,-0.37182734708130144,-0.31510621484939605,1.6116171628821645,0.9375678665953537,0.4677020944035357,0.48540332757977395],[1.3073008672936262,1.0151941729697396,-1.4958376816096355,-0.6395493132051282,1.5080595455307886,1.7717806332452697,1.2296325033677635,1.3072813175218874,-0.18122232156247273],[1.8963061026289065,1.8232462644283447,-0.12345702898022445,0.31928640435663447,1.055372261911876,1.5790087546858258,1.7670453394582528,-0.6877553501147798,0.7032588391399713],[0.5492522876412801,-1.2402514957835322,-0.25178462204535373,-0.18018745659101942,-1.1700811962793471,0.7429959085166477,0.6204519136376118,0.29987753803957795,-0.18855776766494342],[0.9916047374499897,1.1437153506862334,0.4357031679600658,0.9441416052765119,1.336407961087994,0.5890970159984167,1.4245078266460378,-0.5195795820768245,0.062340650997579794],[0.5139423225598507,-0.5256038974161382,-0.49862238097376715,-0.6430661445229693,-0.8016711377811323,0.08157173843161428,-0.4138538691294049,-0.49198029443353664,-0.1443652664312847],[-0.18686829565497115,-0.007345603102668257,-0.45228348959914394,-0.40018552033624305,-0.9174662047612226,-0.2333991635103728,0.9082382854982627,0.31936166175417413,-0.45628526684271226],[-0.05401569333979592,1.0649366884230627,-1.288882263776284,-0.6216541135634437,0.5940694114098256,2.4206015354176182,1.7991013577579296,1.0625757663096955,1.229881433610711],[-0.17819462517922083,-0.4050401106992475,-0.6418877568262477,-0.8892550568092381,0.06602497698122886,-0.14008820898734203,0.04406444856592741,-0.5205374777135408,-0.9635654634491553],[-0.5543866961920958,0.11530413700983612,-0.4955799175909833,0.0841100219879601,0.17345259761668666,-0.24563954690708353,-0.05150957796237242,-0.12548100257160336,-0.04635477698181466],[0.4643047804670168,-0.19307591252567857,0.3892907137286351,-0.044641472303408654,-0.04630584771004551,-0.18874375000320548,-0.5559979021134651,0.4325323741191829,0.9318319223176934],[-0.532347934099059,-0.2756075021701274,1.8493267867555607,-1.4749330857218945,0.4429181317187325,-0.8548593393287847,0.3644718339175607,-0.22453833576786378,0.7443494638977969]],"bias":[1.2811701751630824,0.5184239964844202,-0.060892424052337454,0.39118627375947723,1.0520974768154334,-0.10942088737236033,0.9741105073324676,1.2489092006742704,1.6868543252301091,1.5777524623284906,0.060836419796019274,1.3494037703407098,0.01212472348954979,0.6495385530616496,1.2021467052888037,1.540944189191399,1.7223621372366054,1.6373168895481256,0.03801635841615728,1.3208983274837018,-0.037294925430775366,-0.2112082520425094,1.4435834688651206,0,-0.07393315642619289,-0.02889359704243024,-0.3185451267681122],"neuron_size":27,"input_size":9},{"weights":[[-0.11377116300798681,-1.5601218778091468,0.6155234156467944,0.7391043490494817,0.42725558874490727,-0.8433521063475785,0.748167907296321,-0.4299107976143804,-0.29311156252754345,0.2889737920071896,-0.20392774641960823,0.2416496213271632,0.539924440962137,0.013782657648948397,0.5678497825878102,-0.011232679908694839,0.4863685104833979,0.2132006790805315,-1.51482353384137,0.3138034672501064,0.4198213435866284,-0.26577000576655707,0.6823209669056176,0.11633219814213688,-0.5704661748122927,-1.4281794448101546,-0.36047164827229583],[0.5518050236830593,0.307799001884598,0.410513605676099,0.05730173667290817,0.5773432149185922,-0.09268894301732904,0.3745193778867938,0.6167730349865069,-1.009980630732864,-0.5935499625559945,0.44858002885515735,0.18965514497889607,0.13568237186445284,-0.06549830047789164,0.46826228312157253,-0.24022478542666728,0.031869285331121835,-0.5179874750925579,-0.6180253260436053,0.542469198458446,-0.0932281207748741,-0.20197648573146235,0.5939053029980706,0.16024193376333282,0.015340793314971539,-0.24817507343512352,0.8756123847342875],[1.5924002573466218,-2.1670318343129984,-0.33902675851513603,0.5387834361778192,0.90309599306473,-0.5883137868992618,0.24702097137316034,0.46300761751886615,0.2433043259804406,0.20399781386710678,-0.6905864408355354,0.7003870759806929,-0.6478031264957717,0.27924292279022483,0.5982222346028513,0.33307280707175624,0.7054920271542735,-0.12361490199843354,-1.4911040121632224,0.3234527429154183,0.1283480469257481,-0.03767134717817329,0.17202062987618227,-0.031009175114488453,-0.0013197298236818117,-1.5565692918704928,0.3831425920428976],[-0.5480104576349153,0.17716048579440297,-0.6253252845787507,0.46642378120610367,0.8987401942460405,0.9105596244367218,-0.3085588366863546,-0.044876794564581275,-0.4959685815825378,-0.20627384050377892,-1.074421269397632,-0.6880046649330378,-0.8856988148817868,0.3946634347925267,-0.29710533847834314,0.11971218787466338,0.6899397967546577,0.05485959774768665,0.3814894379302229,0.4619984411805692,-0.5814297535652043,-0.3650585870791774,-0.4353408907485669,0.39567504733244874,0.140835496097372,-0.13652807335176115,-1.072165235117881],[1.1028960980742588,-1.7227644743745845,-0.6422511560867786,0.47559692381198143,0.4896002207795187,-0.27865702429188416,0.5516398040323356,-0.25830141209655966,-0.25125523730905036,-0.07748238937348793,-0.9184185507337712,0.3746262714678884,0.4445128775880546,0.4500484732230365,0.6376168371564199,0.4394713247948247,0.1535412635016294,0.42924238659274466,-1.6839804051953042,0.280453624074716,-0.0011150628317039152,-0.060619364261028166,0.5454756403771229,-0.2626582614150843,-0.23359378496887617,-1.041807475859773,-0.16446124439372808],[-0.5936883228374377,-0.5380799476199815,-0.34201521416086095,-0.6993587121641379,-1.2154749143131744,-1.2953129693326655,-0.6049173293173811,0.347405227413527,0.9118837406575798,0.5606070527961128,-1.1303725943131275,-0.12205525145046792,0.7889794542842319,-1.1533409991352819,0.7756798483089167,0.4259132058616547,0.5604683393840302,0.4466761849376304,1.6773134953684652,0.022114052841459408,-0.18714931285600153,0.2353078056838927,0.5581722309480961,-0.0033930497976382384,-0.5229159657230624,0.21849396486635123,0.6510181110308544],[1.25801190187653,-2.1125215406264704,-0.658594091221509,0.1457906730625542,1.0995545368368742,-0.47014968290365444,1.1051898265079418,0.2809893628476756,0.3421665645292667,0.5011243971607049,-0.5201687258160574,0.7042037649394862,-0.20241165744878684,0.7102284628417992,0.7260317491467434,-0.37522412993746457,0.35671914596405835,0.33583707425425563,-1.3826166234301303,0.5113549083560426,0.16161659530099365,-0.4084074556909488,-0.3652520120663577,-0.2224935250696008,0.13411264062308836,-1.1056244000258435,0.13869217299891473],[0.8168176984125146,1.3922920614430037,0.78405010164501,0.16918968821728947,1.2285477448743582,0.8701089555284168,1.1322282422959287,0.4700539604684768,0.3753691700248087,1.0183477912209775,1.170500829460282,0.15770342494479667,-0.14844220734242652,1.18659855342637,-0.5995248088614483,0.6208739246796675,1.168963650358109,0.4341535313937571,0.49738843091013374,0.7042889125471026,-0.3016705255802077,-0.08411492971501693,0.893938297250454,-0.3135999642922848,0.15283964411179926,0.7233842643112025,0.04128855671963382],[-0.9204953734958287,-0.9377566277021591,-0.701516709093627,-0.7918314604068851,-0.8773941197259464,-1.6006060365562838,-0.5287533830972831,0.12170022689361928,0.5990976995028624,0.8347238642621639,-1.3442926860636262,0.487786831659045,-1.0762580955859393,-0.574821406339718,0.08293172444084912,0.7866433780907183,0.4092705059827265,0.8409607286888311,1.3797806454332742,-0.4368750316557592,-0.46925892978480177,0.24788009975231373,0.2603476486579076,-0.13006715056092208,-0.24246838168356755,0.8056741592674848,-0.7395457883568216]],"bias":[0.2262731836692029,0.1582038503871155,0.09046228512307773,0.06386851849000193,0.15995649659505992,0.3028184419777771,0.2831350671461334,0.6777477185168008,0.3376407497280846],"neuron_size":9,"input_size":27},{"weights":[[-0.2352762830278285,-1.1151253064058952,-1.0281343228205027,-0.006833556897008733,-0.3744686633758468,-0.2892602808202539,-0.37618848214794254,-0.653610885126169,0.9662414266662854],[-0.17251901007939935,0.46279270077290746,-0.08864960467878114,0.440325194514013,-0.5048991584419061,1.2689664579425033,-1.1769631503189326,0.1090069119766858,0.5553723868231685],[-0.04624418944944803,1.0004377803219342,-0.28745059131964745,0.9818759563539188,0.48488690052234973,0.9333655606068029,-0.5433094155268569,-0.04953648812058975,-0.42869398355981986]],"bias":[-0.02677565885038099,-0.8363270495177938,0.016393584150824016],"neuron_size":3,"input_size":9},{"weights":[[0.880965400303937,0.5815135242722873,-3.166450093076501],[-0.3632682929492223,0.6182643620785752,2.8297161816237524]],"bias":[2.139960797674472,-2.139960797674472],"neuron_size":2,"input_size":3}]}