{"layers":[{"weights":[[0.631435925519324,-2.8428371500383514,2.305980042595053,-1.7992342209797458,0.37101730257767157,3.006714404756542,3.1559738317620156,-1.8756134875533081,3.0919362934080254],[0.18824568355585583,0.8999050965506252,-0.09771434333076694,0.34045509868909873,0.5749414674692483,0.42744710405041403,-0.6909988738727314,0.9666520665879876,-0.05538780479567096],[-1.2714387900054436,1.8782065459267114,0.04171972202446552,-0.6307662608948852,-0.019079032102041215,1.9093115492288688,0.4714682091482104,-0.44549091424493903,-0.27168366293643437],[-1.0708071769592977,0.5272770938335428,1.3468417618107833,0.8174704216483956,-0.4348593521655785,0.6314232774115159,-0.6086561100709347,0.1273668750160864,-1.269199754428135],[0.04136934061417191,0.3458483318468477,-0.40445085391865215,-0.30143084194889547,0.4895175273886768,-0.6892469594904428,-0.5347209009511139,-0.7235696243300569,-0.8076824873927829],[1.9690030303536985,-0.42378894792555616,-0.7209177135342042,-0.7208403291073999,1.9115021902562521,-1.2365203518914594,1.5451592568018835,-1.4868451539071954,-1.2452135499897727],[-0.86245344093625,1.846725154177331,1.0910071370627272,2.17597821743959,2.353712265801094,-0.6534028230022846,-0.588129030087739,4.2908088592431595,-0.5200035958386685],[1.088587833134863,-0.9625528551660242,-1.080377174920781,0.9531777893099898,0.05575842735666203,-0.4486569392512081,0.6985556794109455,0.23892209094220468,1.5463857434227162],[-0.06283325808028743,0.037137508044884755,0.07540867235574603,-0.8293041212521393,0.03818196926855315,0.41389887329268654,0.03129336977719228,-0.16436195294524156,-0.23143349469684196],[0.09181193628381809,-0.6699767307408924,-0.1649274974825786,-0.20471359594239233,-0.6084604786868675,0.529351036508342,0.5220556741804551,-0.3702952906978212,0.4555834139884885],[0.25684811536642593,-0.003869388990601788,0.582278218195073,-0.3542529406072932,0.3209825707146552,0.4070209338447029,0.005781153235004717,-0.1833654299431709,0.41059260611170073],[0.5475416444797635,0.37467842938234647,0.013779130788535621,-0.46112289391198175,-0.38188053343358286,1.162941881705835,-0.7546416294385029,-0.48863300556270434,-1.036304710452693],[2.692051544196537,-1.2080409674579171,-0.5808375374455041,0.15001287209731703,0.7363604073882372,-0.7548779170511764,0.08137621345511055,1.1386822934420342,3.05997776131],[1.4591305689963723,-0.5098739868005392,-0.36084520849548485,0.32925565708567883,-0.3062385221530316,-1.2501266616326994,-0.14356799781173624,0.5498344979824127,1.1001335184401788],[-0.6383795956165805,-0.04655376585211597,-0.46124259306397025,0.37571983587368507,0.5694674421092669,0.4832088850224044,-0.6181887143811327,-0.5549466750487643,0.2242656986513421],[-2.7376389549610525,3.25552566469041,0.8051051459333123,2.2047571222700135,-0.8740062519604914,1.6619450589957556,1.0512608975428337,-0.28980731450034003,-3.6641266162619752],[-0.41069720095600704,-0.1965832225719829,-0.031751920697842266,-0.3136478700675927,-0.17117714184745136,-0.167873233025092,-0.6751500342920874,-1.0470910770908495,-0.4280732265056286],[-0.3975003825277497,0.16660311870053543,-0.6734971043968311,0.26589176986202523,0.06657742920683642,0.5455819110749117,-0.07327650545387684,0.3805967107121254,0.3228365246854984]],"bias":[0.8075102787917899,0.16078705028500972,0.3941926799216797,0.6203324716067492,0,0.4704081876797121,1.611976805793722,0.3355933099196027,-0.01422258547867292,0.21486726926989672,-0.0020480895799149545,0.0730130855435127,0.608720591965048,0.20002184658374908,0.016278684136871852,2.0758533009383475,0,0.008804911751580493],"neuron_size":18,"input_size":9},{"weights":[[-1.3160971328241906,-0.5671423522739417,0.9464741426887981,1.1138045268179184,0.13406681292935266,1.0853506464735698,-1.7960197246298957,0.8428426295043903,0.39300140456410954,-0.9177487176934614,-0.04005534477540153,0.38414954371849047,1.1041800355571498,0.6720217588404437,0.2771640932987882,2.0683996181784194,0.03616635519463665,0.13539134838179964]],"bias":[0.5670229537928344],"neuron_size":1,"input_size":18}]}