{"layers":[{"weights":[[-2.5024359205630216,0.4624546588412431,0.12208473128220057,0.7594877710798934,1.5601715172033561,-1.8912648464795365,0.8142410155875022,1.2101389588158629,0.8423812939892467],[0.17547467750939577,-1.3995672774832117,0.2014478457222717,-0.3875354161201202,0.04391430304990334,1.5898911641432139,0.14301442114628846,0.4379236982794173,-0.01243010165777992],[0.5093012577977635,-2.2724525708702195,-2.478512928771039,0.22330415141048224,1.9254118043097652,-2.248161663476449,0.5433288577152691,1.0062452854554775,1.582024176480359],[0.9841041398201941,0.14837464044978468,0.7406204364081548,-0.03472359237462209,0.6660559900334467,1.3228149744595838,0.5044921108842111,0.831946590222557,-0.16494558125880807],[0.07749505346215782,0.16560827307626746,0.7548774418676826,-0.15148661069591793,0.5483572529783768,0.048215968864735864,0.8231085995334927,0.20974869098754623,0.4391728453244412],[-0.1984029689569067,-0.7755237831873394,0.7137436232775052,0.6566974587557131,-0.06727923179776948,0.21700148474734296,-1.224419320236971,-1.0546479880020645,-0.8195788459548167],[-0.6353950147273305,0.553094409151438,0.40546347607542976,0.10716770040295537,1.196201590626487,0.5909674350821034,0.4347330175422295,0.6574017393605925,0.8095362215645672],[0.6115942112827741,0.8083836585854253,-0.20418745076314584,0.9096592102259369,0.4903629831357867,0.9835221195300282,0.18585355880252113,0.7332702789741504,-0.1810459127471095],[0.1306175608361488,0.9183251697853917,0.2620942668907117,1.0798922419800285,0.004192655070456731,2.1169086747319117,-0.34615579486950826,1.110895451583963,0.18566251737494674],[1.2646508373619312,0.5065836304498971,0.9537628098608272,0.9761201279222637,1.9396639288448043,1.2961813844281904,0.9602243532766686,0.49128392153482126,-1.1056470490476735],[-0.014393105805609487,1.2022284885855,-0.30625479727142374,-0.2833397099634972,0.0015074736632215819,-0.29858217528748243,0.6300070917779711,0.2729284567034231,-1.1095158106190008],[0.26534178195416364,0.6043746581546406,1.5159505471882728,-0.7692085972099398,1.1453573774590833,-0.09215435662447392,0.24937000254384153,0.7133008082847997,0.6217789308114785],[0.5968989159393585,1.055500587712694,-0.7439875573571256,1.2472952628634542,-0.027154888316368975,2.067844537466623,-0.0056131449975932975,1.464569309234887,-0.47869126967843545],[0.11049409965254298,0.532939514306813,0.17708484129052474,0.7237710111879012,0.4413640494388046,0.6635997292994557,0.857436816390259,1.459154829066416,0.02780215208929914],[-1.1878568777534375,-0.20017903623253666,0.6356836329792345,0.5118439126690075,0.16718038438305738,-0.3304665542716914,-0.63991092458903,-0.3676722721537099,0.07277891980308664],[0.32385540150102005,-0.35757719117003806,-0.9746740466072226,-0.8006329541699655,0.6591697427950005,-1.0694845758760216,0.8009753076735656,-0.40345342671023027,-0.24951587136687062],[-0.6772050756783548,0.7085824643950408,-0.8625957459340047,1.3868345791300882,0.7096800574686697,2.700062712464867,-0.4572816705898041,1.1766652889767824,0.26621864489268426],[-0.029481152271712583,0.45676481245847217,-0.44583996553500177,-0.00891413970621337,0.3249184929350562,-0.4167036516586479,-0.6164860419159637,-1.128715064546214,0.2842663642379014],[-0.7269354261385842,0.2320668019179678,0.07306635329871912,0.5379565170039652,0.8465877436658154,0.46669090949620856,-0.6106407186804655,1.7266263867513456,0.0748300209824224],[0.12039546539305503,-0.6218283240613712,-0.1021526678061709,0.1231522201096902,-0.4602200259355441,0.7127859233865614,-0.9887896642175125,-0.5141404825882737,0.30779223590889265],[-0.1092593654612731,0.789520963730034,0.4265831263311507,0.9690872431496173,-0.3013488772051801,0.6388329907267671,1.559671591770207,1.3985370902297305,0.6348954283458634],[-0.02842029304831266,-0.13757187785538874,0.14498745876633323,-0.23386709963367358,-0.6442321913996127,-0.6295349525470892,0.5884571275779868,-0.3006726857275314,-0.3601268589328303],[-0.8656840035196638,0.29207993594359605,0.052509336351171734,-0.39278374335259475,-0.004957997239405235,0.8612849392798194,0.17743838833976802,0.6047295077427988,-0.3310352088697831],[-0.6839582638182188,0.5255063820713073,-0.7156766521213137,1.1806814163996242,0.5200361182925964,1.3553741861700646,-2.608356521155076,0.9394729313634361,0.7321908577078919],[-0.7821225786744195,1.0123510699364193,-0.5846578202536925,0.16134039246485107,-0.039096533281671834,0.060651085967648725,0.8750267969884746,0.4825004446905775,-1.5332106714503555],[0.8261013805700114,0.30756328508301717,0.012981686409339733,-0.3461074001641226,0.9577176044745122,0.6890823933254558,-0.48733298437737127,0.13114090855676155,0.5216586366585094],[-1.6121661718762927,0.9787168699447801,0.4781101684875889,0.2390579100286894,0.4533433610901511,0.16323123542295787,0.5699200897236221,0.797411641495197,1.3209911074741814]],"bias":[0.6765414271287757,0.39577226850945024,0.23343139854980244,0.6200079888212736,0.3876459620209257,0.5966919658939006,0.5743418744081985,0.602446913322907,0.5310120256303565,0.7477257338607202,0.10393607709251179,0.4292975263318471,0.8414183242523084,0.6946499441374592,-0.011257094643531203,0.1934902807435559,0.8323876550425412,-0.040061160808814694,0.8401171463932223,-0.15218391435139825,0.589331176868226,-0.08921239494337184,-0.06275343094430179,0.4772048057074848,0.1846673587067939,0.24659557692434858,0.47589046526189993],"neuron_size":27,"input_size":9},{"weights":[[0.6599158469990045,0.19266773560729436,-0.4165868765135008,0.4704318960401346,0.004816163201234153,-0.7386718850214617,0.17120738699649604,0.23436203900023908,-0.04664723074268049,0.5857790193889989,-0.3609542460052904,0.09568377887780835,-0.2039509453736277,0.03389150148602626,-0.23191786159974312,-0.9190703563361845,0.007387824617888784,-0.18109622058787048,0.03948056815238499,0.14645955063030014,0.13189341389844178,0.04828859305716703,-1.1486163020006244,0.33369003109631085,-0.16938331742900684,-0.2613410107942318,0.20528797153515643],[-0.19469414460776377,0.3521479635662945,-0.8239872681246487,0.5133697380017463,-0.16375751729033544,-1.9188518729996795,-0.0914119779089194,0.7527182918251251,0.5276556184535675,0.46471940027979924,-0.15945593828279778,-0.08073999807554637,0.21139339522673903,0.38276599145652895,-0.199943452013034,-1.2972763392830324,0.5937045965043627,-0.4053538805517446,0.6313039759500422,0.2840392535527003,0.03609308766409076,-0.6220655135465614,-2.465897997960583,-0.1682956312139312,-1.1190748068523741,0.0023887659196750333,-0.1381817995978233],[0.3797640775198714,-0.5878565023376334,-0.001520351677868498,0.10417372629299429,-0.4218765156160031,-0.7490399338199715,0.4607379452746257,0.3276601749205774,0.10277826175645169,-0.12497082409355957,-0.5470133154959957,-0.2859052678040529,-0.015202110266097477,0.19112181185738902,0.11309938450600232,0.5157251296262073,0.35134620810266554,-0.2503064381291608,0.5297125558180866,-0.2812540655764578,0.05833920249831066,0.12774786164016175,-0.6053966794849427,0.03603461712213289,-0.6734702459173215,-0.3101858927208745,0.327942845513333],[0.7226503209632305,-0.32587773507377404,-0.37338390688079254,0.06503097428190206,0.0877010382958635,-1.352450990419918,0.12701449164955836,0.005719059994762059,0.3631637163707418,0.17830267512422274,-0.496735526347492,0.32066609410191527,-0.009430523008462416,-0.016761782819606098,-0.2778650788411169,0.15256338510729123,0.3671504747985519,-0.7612948303319345,0.997451323637296,-0.09760044180951281,0.06408772567925171,-0.12187211471326359,-0.0691885017836529,0.08093015112090093,-1.13989005178746,-0.2213276473179416,0.6091270408291204],[-0.4168683867716346,0.35559501978640223,-0.09120635151629279,0.7799501961804892,0.1726879438633997,-0.6465916386925047,-0.48221896130468794,-0.43820760228367983,0.10968940030336272,0.6083471209675514,-0.48849797926304117,0.009976902794902822,0.8951733450282492,-0.04698244928507353,-0.245846762270363,0.04016893933254628,0.07078067235534805,-0.4243680737413304,0.09094944362337488,0.22451524786979596,0.5468259995835154,-0.13471702663792384,-0.7270986293525651,-0.4753886827177419,-0.33395953421437347,-0.34272204993679445,-0.8638888021850322],[0.2535428575904074,0.09215085756172946,0.35030853538489704,-0.09413826080158227,0.15971842841527198,1.143969229359093,0.8188074020965902,0.41146629290952325,0.2428496153319111,-0.09267483806165544,0.7791892001345382,-0.2809008112894776,0.10063109397707998,0.3754525120480896,0.2498447096746798,0.19288956576097113,0.22638896198903985,0.3693544675544136,-0.1237765102298485,0.18372570537151758,0.6667481582081162,-0.021343010423879597,0.9139698196892282,0.47510900630923336,0.7465215165843044,-0.06536667196399877,0.10783936276206676],[0.3525734262943555,-0.23517446658426389,0.017711332732464193,-0.19906533795077724,-0.44574093517273583,-0.47661697219798405,0.6210920018966547,-0.02216725118697601,0.01260660298760478,0.27062069904521047,-0.6072316387556408,0.20027926712593339,0.26700680750087175,-0.025625861889509632,-0.2684576198367111,-0.4726525217010019,0.4778424623333975,-0.39425179539064364,0.12204255129129236,0.1446894083743537,-0.19356057482010453,-0.2466931077963487,-0.7000356904536142,0.2406615410780403,-0.7689119244461757,0.06170620861212533,0.5900618780804251],[0.12607383974119848,0.22563052265215225,-0.09556537804771094,0.5563413371381865,0.1184339199900516,-0.7070178393245181,-0.4803949330389742,-0.17902524598964134,-0.3869258198678535,0.46107761658146984,-0.2508907168929878,0.38462715151418103,0.5683452392832647,0.10085635937474391,-0.0340728683587445,-0.8068238785658816,0.3942260710691232,-0.26971615566845764,0.2198066757073636,-0.2753746035941074,0.35333834837442146,-0.07214702868945524,-0.4885789607193446,-0.38703208257076016,-0.6410875084914258,-0.11122881480089532,0.0719154732871683],[0.0021464657639784766,0.19717712601385393,-0.3200563924388921,-0.44716304001083695,-0.33694343223496465,-0.5716469180664052,0.16726625517024202,-0.09124190747669009,-0.0177341400141143,0.0017064268026686,-0.07074382632942779,0.15946585562383436,-0.3482736085124809,-0.40536056701905354,0.3226637364630271,0.03666580454142763,0.27697239323673284,-0.42084150452029884,-0.424906794620117,0.048109577827004875,0.11294404408398939,-0.4314966822062297,-0.2985299203605227,0.3394236292066004,0.09926900214592839,-0.05981393270902812,0.4940246638542994],[-0.5027083017164005,-0.021211824959275722,-0.04538452429687776,0.14866874809606173,0.16450459497890854,0.2525361813661699,0.4169663990828161,0.09961136095722198,0.27610854515457645,0.053102504434438175,0.25861357784882577,0.5112815458058563,0.2783302305917095,0.333522712459257,0.392756485703168,0.48272546396818067,0.19933175795274147,0.7240294901473185,-0.06637480626916412,0.14863962181675905,0.03012681441415081,0.7551996749825091,0.25813443969408884,0.9576388678752688,0.6130586329018002,0.598138438608357,-0.2656661823552129],[-0.15409565174780024,0.735312584106119,0.6055581796282455,0.30251343861930746,0.7143649431938061,1.3251435391834376,0.02698260095783571,0.25306466217090123,0.7886089111317718,-0.4892058746263771,0.0627278502655298,0.5175360976556151,0.17522033524945596,0.20792552298021816,-0.4421208847770964,-2.9101100432276317,0.13075896823457395,1.0587876758049304,0.06048527367073641,0.03662330067653323,0.2826829641018947,-0.5538573262512885,1.2287525745326358,0.44633366377396744,0.807744407640391,0.334197982745835,0.2200958813466091],[0.5126262415091029,-0.011101752003145634,-0.163801912354553,-0.04112608811965664,-0.4522257461805352,-0.8038771832449888,0.0038905942822638315,0.5108479797979514,0.37061043416080475,0.3592992404795218,-0.44685331052306737,0.1863841182904771,0.2309414772810094,0.4197856227262784,-0.10431495508687884,-0.4458088008677477,0.08441441737834102,-0.7263120116491109,0.2742782176135842,-0.23087358381992173,-0.04382217117026613,-0.12851213847574317,-0.9680708657171223,0.03763735718794008,-0.8031712292924571,-0.04541968250901551,0.30833346796356614],[-1.274276380021981,0.4801918485534943,0.41136599978615007,0.5244858260602124,0.02610361354617348,-0.08109541884835486,0.045897271420230715,-0.24358931753896743,-0.10961174711356989,0.10798016256730991,0.21664994493563408,-0.23058291957704866,0.2243912554198802,-0.04203476828985063,-0.002265473383874952,-1.258043463003228,-0.42976157001181386,-0.07486563703768942,-1.0271280207325602,-0.3249194209544344,0.16859729555244188,0.0034901521464624774,-0.2555569401790039,0.019275705830880046,-0.04445713728005012,0.8511026788949413,0.45124185358599095],[-0.0603281260362496,-0.288757207807197,-0.0941200836345708,-0.41293237350743683,0.6007007911489981,0.04037394733424151,0.19335972034831092,0.2593107521997821,-0.47733330701396187,0.2774402768721176,0.527121376406425,-0.15803662756137946,-0.3715150818326125,0.5258219264631387,-0.28263868544976,0.14327922888638897,-0.1063304470509,0.4063225695332273,-0.42008967966256594,-0.8000937239700783,-0.25600189656490613,0.4380566989051478,-0.1789045558005392,-0.4136482545338147,0.06714156038610726,0.2096745016777,-0.6155282620348054],[0.6995781633724524,0.005634544020691519,-0.34885835972684387,-0.0825563667171675,0.11875760455195426,-0.5681834402647641,0.30069206847594093,0.45987277339210203,-0.12873443855997346,0.15024857423863536,-0.956488353004564,0.12155778002866253,0.04294613105184179,0.16647811536333534,-0.026111463636302127,-0.47564729514290954,0.27950331657347693,0.23495404877945109,0.7637342328563318,-0.35418557018495156,0.07457992025194642,0.15415952208942868,-0.5643642270847423,0.23921779734594376,-0.5530141176440668,-0.19818468073495454,0.2366015238198249],[0.9469764158963732,0.3783654672754624,-0.4022750240809341,-0.22906215683261968,-0.05145303229885353,-0.2989161322006945,0.6190597501886991,-0.08320177007163117,-0.1522454045607888,0.28918926742700224,-0.6804526730092162,0.45135140912898497,-0.04128403156757797,0.01460443841577613,-0.27236390725871956,0.1846514883626261,-0.05494998525537135,-0.22548150397196848,0.13827547779338697,-0.10748360422415772,0.14548621476491347,0.11838589585334205,0.014951642907199365,-0.22782584413497664,0.18683964456527738,0.23132263012527035,0.26822157002493097],[-0.5860663780727491,-0.23012424858914712,-0.21901616640109575,-0.020941500753875197,0.3852807311977231,0.3788212118455444,0.410574418138234,0.26810255375767605,-0.08717870261563991,0.3419065795103006,0.045367594532853515,-0.1580391203350974,-0.22607515024114963,0.2773071214097836,-0.7325083701689996,-0.3806501482097629,-0.5265657583098521,0.5923187970614585,-0.26055771021753865,0.06479367739769372,-0.49915335329431887,0.2326321995311874,0.3412598244237139,-0.27392601637556735,0.4373120385977307,0.17246033953011206,-0.40943974925703563],[0.22786979187045575,-0.08487024739618869,-0.5173230647356537,-0.09348676674777012,0.300465074259799,-1.0554604922838675,0.34705400463747743,0.030193782320702352,-0.08355971002623867,0.446879652718275,-0.6906939678359718,0.08273532922295294,0.019028428819139628,0.4265871462685938,0.41038530649709754,-0.2923015066004681,0.10308933443966174,-0.27388178566656857,0.9194027996377452,0.13873231444047301,-0.07202338811142035,-0.010427352903146026,-0.25872006932091796,0.5540940657002011,-0.9928695203887269,-0.18792625487302853,0.5894996732138665]],"bias":[0.04339138340848903,0.264922227168077,0.08056538353934514,0.08800686713544917,0.11545678584055416,0.311155079327193,0.00872531364825596,0.11717693482460491,-0.00909635138543179,0.09089192843071073,0.23876405200615045,0.020209956061111953,0.05429264500050606,0.032061475887245804,-0.0038611366562023293,-0.09328713803649458,0.09822529630166407,0.07146375465510585],"neuron_size":18,"input_size":27},{"weights":[[-0.21376733193644387,-0.2636920938001234,0.032464887528253404,0.43982207663307693,0.3189942787426647,0.631473217081669,-0.049707234390635055,0.15115800819792446,-0.6697840411201409,0.26223416350939577,0.3319846202174332,0.23184251337424291,-0.15498875786586785,0.5081636364771457,-0.049804005547633416,0.07288393886850134,0.4108060362309913,0.05661036366914905],[-0.22903320686463774,1.0432030028104486,-0.020976440873922114,0.34857566178179267,0.3914803732043955,-0.29481493836979017,-0.18320740450140408,0.14252823300688552,-0.23743799125475154,-0.3161143049018714,-0.7026955706523034,0.45584715683089955,0.24003892831335663,0.03441846858692148,0.039678334724454076,-0.13719423629744426,0.14922299551135315,0.12090896689744066],[-0.08307886814562926,-0.28538366408762117,0.45129500309627646,0.0901784831240564,0.1213627426546057,0.5176047359107796,0.4992766556452897,-0.5544458581842089,-0.30335071171063577,-0.21391878407458273,-0.6392102926291608,-0.25492152655991845,0.1350845614471409,0.1159468256277852,0.164666379334714,0.022031853995085084,-0.2046495069958889,0.528004632779858],[0.40776423233190495,0.1706749585399985,-0.19197421024987346,0.31499125120523275,-0.5841092411346975,-0.15336740829812412,0.5258417499716611,0.6502934190336284,0.1118206190302264,-0.4486121154918798,-0.3867404072612824,-0.07918106924352969,0.5330531115858095,-0.15109179321174152,0.4102263386040398,0.06910080626393142,0.21002646683924686,0.11748054500122407],[0.49513831405446646,-0.04270689347378757,0.8218679635712638,0.5393986783797279,-0.14327792158813085,-0.39207282008422767,0.11240462482985729,0.33312247734132117,-0.1903059862918544,0.18382719375785622,-0.2698796325242749,-0.36104398746281124,0.40821279943006755,-0.4378290977395829,-0.14098865937452332,0.1328123104940105,-0.3117154510402003,-0.2323747278309075],[-0.3137370101979984,-0.11494609334805385,0.11976207835577815,-0.10999443645377519,0.1463865842875181,-0.03127808868111174,-0.23235933492175886,0.02724086155441098,0.06420483028195695,0.23140578220860114,-0.0049489905548973775,0.1910425410423406,-0.4073022408128599,-0.08487978417486189,-0.056160984641201936,0.04559132249628905,-0.13951999831951314,0.027160507099596273],[0.8185705116136044,0.37797493258238285,-0.31242899190974605,-0.11160349406860269,0.4686689057884785,-0.42668650674546577,0.3988259560673293,0.4022236640806146,0.5351474764826727,-0.6790589855741997,-0.2705961874452961,0.5645292730267469,0.13141663849575197,-0.45603597961106546,0.3239503997675907,0.08203075111616354,-0.10665552189919082,-0.14554051617798813],[0.19319982428537774,-0.056621759746695276,0.05038610188811149,-0.229076620123604,0.04478678941766393,0.4485861291944219,-0.11834794123965824,-0.2950597463996807,-0.05833535753109844,-0.0004452631687519712,-0.07099019132393843,0.10258355453500889,-0.13436194525386347,0.19379274258315413,-0.3085290639989213,0.2250138326177508,0.598926877815942,0.18932688486712182],[-0.2644274148708775,0.13650294483911712,-0.003072352647669637,0.325887333223206,0.30435518830244224,-0.5426578187201997,0.2760727737469344,0.6534293435862184,0.5547292268014028,-0.17878612714427258,-0.4796325984302655,0.4845817937014169,0.1237062190982211,0.3844915908720645,0.17747569678108246,0.43178470620100157,-0.5274224788923776,0.07083215183803884]],"bias":[0.33425703528453043,-0.00030447130882104963,-0.22430731570202644,0.06666924366987563,-0.03282308756146401,-0.16373748369569416,-0.042904620354256254,0.4241326485193404,-0.07590937744679267],"neuron_size":9,"input_size":18},{"weights":[[-0.08914598196106459,-0.6357757684982255,-0.437095762879824,-0.9097667774336143,0.12418258117662322,-0.15800800221293956,-0.9065214932586529,1.1620027226322946,-0.6829332862474355],[-0.7589511587890033,0.8875577372933763,0.03905097166072687,1.0472906121760617,0.5332228723225287,0.7137156700247493,0.8731014069517552,-1.7757831047673887,-0.12177754736636319]],"bias":[0.2148912659985163,-0.21489126599850936],"neuron_size":2,"input_size":9}]}