{"layers":[{"weights":[[-0.6463473200959203,0.03866412305975401,0.07297012690850095,0.2776105645603611,-0.26524599699522033,-0.8706188452854862,-0.22720643228918005,-0.860071791152898,0.5411888460491648],[0.24243827853187977,-0.34387399333032187,-0.40584558512196534,0.15049253228277465,-0.5077292346432158,-0.40200928703438604,-0.49358369898526927,-0.39288516280636127,-0.2705644454224349],[2.1062271507859287,-3.398468594334775,0.9768513297630428,3.1986859436694273,-1.3278441483208214,-0.8563124101955624,-1.5261820922298175,-0.27366200154277515,3.8539892359024703],[-1.6989578935929959,0.9950149645336928,-0.14145732819481074,0.24661645288261957,0.18303562487835778,-0.18495215041306887,-0.5830588867604062,0.9215090727003485,1.7542931323215427],[0.6112353965729164,0.10616162679598766,-0.07844008152595013,0.1923406875696046,-0.6603163913199684,-0.1553279231109849,0.36477134052510785,0.11407941389517699,0.2875337257440764],[-0.340933087929736,3.4600320047726076,-1.5288715755857207,0.02228313472894066,1.4161346531905794,0.20584353292489216,2.3670682047960194,-0.7001510497224481,-2.5903125809636376],[-0.21640347701007664,0.7311377951836043,-0.39143272641799015,0.04086470559606564,0.5719902066784932,-0.24623186419720494,-0.04064877033926751,0.326608936620994,-0.6156420545257569],[0.21314336494029698,-0.8694883616115359,0.4223239750004075,-0.40475810478058044,-0.5230980753848787,-0.21189639841421093,-0.5577900953060373,0.05140711543434432,-0.4965016015910246],[-0.8053573994116321,-0.10805327630628282,0.0654601943886975,-0.12162060233613073,-0.9685907355389991,0.14243274676402365,-0.2848516054894192,0.12990797711543484,-0.6348593677896482],[-1.2047593297283359,1.5595589703606403,0.08611394761804642,0.541125987099716,-0.6799798453533482,1.1712049840229153,0.49201301669326886,-0.06878226824643202,-1.3795343271572718],[-0.14895783833311058,0.0956188092545665,-0.13431229090607485,-0.14624258463034015,-0.3903676457462256,0.1224904164868981,0.23290825445699986,0.3028931602404924,-0.1637770751094473],[0.9476639729288311,-0.8044066656715539,0.3961131572906006,0.2603957403745426,-0.15648766444796058,0.375923437523634,0.17187298380658741,0.8706506296633302,-1.1816455004592668],[-1.07233064251123,0.9309628522115447,0.7704125903945044,0.3528461498717295,1.0269806117189433,0.6312405359421481,0.03969669611815392,0.8716592129256637,1.554693142287356],[0.6240913346546314,0.5001306834072333,0.24407799082872214,2.508024595976822,1.8838046673417979,-0.5711584203067738,-0.7823350386554264,3.4645483476963403,-1.2191013556299812],[1.0134022936138463,-1.4052023736944568,0.5754256121327431,1.564661952641789,-0.4256325774074678,-0.6868606429101127,-0.2250410501586329,-0.20090761472309426,1.5085969273341315],[1.2569309755179352,-1.6231792560852918,2.8577285103636276,-2.1190160526011317,0.4028832616712248,3.2780899756826365,3.4763851864859716,-0.5781553296300519,1.7306837620965732],[1.0218631273490797,-0.09378501572550758,-0.80256622189178,-0.523446315076796,1.258840014328119,-0.47804704876407594,0.6600521559214416,-0.972172958011604,-0.7496206069747373],[-0.42146481499204075,1.3770308691111726,-0.37158901475294215,-0.2956649100100056,-0.3084131334722478,0.3993164750153068,0.8949567437797363,0.4799544114753689,-1.0071644600228833]],"bias":[0.0277798994011789,-0.00004203036618945626,0.9422930341576196,0.28164302419895343,0.0038793798349753884,2.131416819334546,-0.014630814106542853,-0.003904471696778064,-0.0036456398731507167,1.1945883713940308,0.01662517114508555,0.41942520712778814,0.5146403226776523,1.1579147033638406,0.3758400102741014,0.667864333609755,0.42592909032539616,0.5765637436820248],"neuron_size":18,"input_size":9},{"weights":[[0.2800264389264245,0.5049548063186959,1.371883395719662,-0.785989423013834,-0.33904205300484896,2.0649689129435087,0.051528160869482954,-0.11021559099219687,-0.14708208864693936,1.5498112450493866,0.24119554590866374,-1.001877121145373,-1.1130526448916052,-1.5531971968291551,0.8684426872984733,-1.302123934490198,0.9232766098710816,1.0893362948899161]],"bias":[0.5558583978061261],"neuron_size":1,"input_size":18}]}