{"layers":[{"weights":[[-0.3939291871950501,-0.2130573714720013,-0.12589865035523812,0.4612579371424376],[-0.8207429710993204,-0.8695944901697578,0.9890782540375298,0.8303970831258172],[1.1550217696668819,-1.7000249614822707,0.2883462153223749,-0.9033860603479765],[-0.9227596507010071,0.5351179220276319,-0.9540800683356555,-0.7709431089551579],[0.1366799006389682,-0.054828354858579176,0.02547027782296601,-0.5708857138403518],[0.6525872258534483,-0.568139402656734,0.6441076109439244,0.8677617426130263],[-0.7993373327204691,0.49193054325041424,-0.0940325237740139,-0.695511592761003],[-0.6698837972446516,-0.44258029162595564,0.8266189901502061,0.7461269973567034],[-0.41503671897519107,0.3698893474768404,-0.5451615702261187,0.18176260569792524],[0.1492238801746098,-0.9678324931789954,-0.010040849850623736,0.2464731359137997],[-1.0804568050117487,0.40660559924831213,-0.6102846837366053,0.10731638199287742],[-1.22436220886929,1.8049362216639564,0.3203044421730991,-0.4578288793012017],[-1.0461236267002085,0.04800683061014157,-0.11747550487629571,0.3160423046418053],[-0.3375630261434263,0.7208302951456701,-0.04947177210049328,-0.6989561507057015],[0.5326896349114079,0.10945078877297788,-0.8423638127408494,-1.2225735090903869],[0.37014285666469,-0.2778121499466517,-0.8225491837109062,-1.1531075795758123],[0.7061474764455141,-0.49932895403475397,-0.4992338248408638,-0.37346284854490885],[-0.3414085960932357,-0.10532566184333553,0.011982415876254407,-0.7783868796156669],[0.4762453399396145,0.24433936613574767,-0.2298614188851674,-0.4465038101390231],[-0.8252446463414869,0.5544505082654563,-0.16573626173930986,-0.9339968249179891],[-0.9570301194181573,-0.553443291646494,-0.28860519878164553,0.47793291546907807],[-0.8385834699045109,0.5319176236146116,-0.4749908943671182,-1.3973035762109076],[-0.0703100538656643,0.9866753276743253,-0.7107173181861286,-0.224349537256665],[0.8854248856293121,0.14093549143567793,0.8752780533148534,-0.005959050555990399],[-0.704398634758834,-0.15937212251613336,0.3177631401016807,-0.09351022646854296],[1.1637884353721504,-0.643897450575128,0.68206943411152,0.015653728786813828],[-0.5296292901179985,0.6193122421408888,0.39057915469113813,-0.2780666508911626],[-0.4524982470423649,0.5817695649792604,0.2631408855579322,-0.3055742170769117],[0.5263016422214564,-0.899881238036317,-0.10933628689048264,0.29313407231362804],[0.230827864639515,0.12243789304383378,0.23215640635067136,-0.639456517011215],[-0.44035608561502626,-0.09621518692597154,-0.8562952001229018,0.35682670564490176],[-0.2981465146601333,0.9615553727324305,-0.4877008641283676,-0.3908605668204628],[-1.7302171447596264,1.2281443746751564,-1.1625892472806303,-0.9424462726517058],[0.1814127871216568,-0.28234226132082685,-1.1512153651860912,-0.4891588864591083],[0.24366377921159765,-0.6924180572958727,-0.5930063787837794,0.4939945833331423],[-1.1055689165248617,-0.45891855374712653,0.9528656474352675,0.048716992379102514],[-1.0035414046207352,-1.6913406918645015,0.9362756114891082,-0.2089462465822919],[0.2512636578925893,-0.3330834814311449,0.5081537150331725,-0.6238360961987806],[-1.301027961406891,0.6290841973064858,-1.1691195151390485,0.3182239193653139],[-0.3863596368552341,0.06525470482819351,0.13047068590089841,-0.20607430027505882],[-0.9926424907544179,0.6249775905912883,-0.5968127138097361,-0.4889260273781001],[0.7600462549844256,-0.7446120458599232,0.3578802959322317,-1.285565671713641],[-0.1964947151762848,-0.5438893570927447,0.17207536368782023,-0.4686246433084206],[0.04536308887314301,0.2719766366443771,-0.1540379066595362,-0.24185548451914263],[0.08337587277128511,-0.24174017502582698,0.3140048155049907,-0.5451228646728873],[-0.5804383004925372,0.9434896441699202,-0.6122703671027058,-0.38999657949270566],[0.28106501319955374,0.7581198285204233,-0.14705097955947705,-0.2653253609261752],[-0.6543227968220409,-0.6401550608573124,0.5362039463110423,-0.43829918014572955],[-0.015353733886261859,0.10497164118131033,-0.30358296795854295,-1.2523064558560748],[-0.07907203761475985,-0.18373320627853215,0.5440924936172543,-0.34545118880650577],[1.383365887024204,-1.1591959796651157,0.05097176189484027,-1.0662282756148984],[0.8871013413687956,-0.4259028196388384,0.5787219734935248,-1.2386387588113275],[-0.8226808166778455,0.0032206152653810063,1.4339107466075198,-0.8821862608623031],[-0.4654124917656732,0.1487384522759749,-0.016943179330666587,-0.30941025576797593],[-0.6396080280440961,0.07832690980642014,-0.00986664465613036,-0.3705465167156564],[-0.38890518580576205,-0.20342359973120902,-0.1465670763888806,-0.1587876944970702],[0.7101317366044617,-0.7326477143392329,0.16022070419580414,-0.8425645131266579],[-0.05831204370499312,-0.47451337845625974,-0.49249075128062997,0.6273204035322096],[1.7506116778463114,-0.3136990255587366,0.9431432314315387,-0.6534087217542589],[0.5781980896536579,-0.14618951017559906,-0.4038778984178381,-0.25166568247509385],[0.24360697388125077,-0.5370356547177474,-0.6615469721223981,-0.23845548849712186],[-0.01484495845711741,-0.6280735273038305,0.0322909702192886,-1.198541491466836],[0.7615627842821552,0.6785915273267976,-0.4119985154906268,1.703213629330694],[0.6113142298502682,-0.11518590890817741,-0.33723241210120214,-1.40238324998895]],"bias":[-0.12277783449866096,0.12479504567623455,0.12045501843088821,-0.2477260142536847,0,-0.017608602473690997,-0.232362601409262,-0.08852510127120633,-0.2195799469801874,-0.13592389973214147,-0.18550384833173186,-0.040035417604543995,-0.018011735835435028,0.39691640965942737,-0.23366773679517988,0,0,0,-0.3756554588275875,-0.26478758723679124,0,-0.2265088109089603,0.3286997311884814,-0.0010736554330407642,0.02443889127295294,0.03553682835364335,-0.06918045166868676,0.019937843469526297,0.23182617097676472,-0.18451420394304865,0,0.3522549781558724,-0.6353095596929812,0,-0.007278885048355897,-0.3178677591794268,0.10182696667814045,-0.12333466119506795,-0.32422979806086016,-0.029400827902723085,-0.31355960169062996,0.21502537518031573,0,-0.24633184242152734,0.28171035025112395,-0.6285565442795513,-0.01573251174227396,0,-0.06228438239629625,-0.15161899257543002,-0.12789695345347962,-0.27436558905504765,-0.22957816509165924,-0.06168718258400305,-0.03246898115399433,0,-0.03979247279391206,-0.07647490672027031,0.025506471137360005,0.08933883837760348,0,0,0.1331238523031952,-0.08886176240807424],"neuron_size":64,"input_size":4},{"weights":[[0.0016125546712713636,-0.2199162544397808,0.08788212429743536,-0.17042272732689295,0.24135075180213167,-0.046330365486778595,0.06941488711309278,-0.16307656387572278,-0.005886853191325051,-0.11325341026866527,0.025262290046613674,-0.038988502644117885,-0.348686216250364,-0.04974870370034221,0.06595210179172979,0.043062414500138785,-0.45520171728190756,-0.08021730855867372,-0.25201836935150546,-0.24807175594800773,0.03506441034568561,-0.30447743592326587,-0.15124495662206192,-0.12731841730893498,-0.13881373449539247,0.006399681353752974,0.07308290062977012,0.057002232831646876,0.030964240817245,0.08844546461968954,-0.057944430960686265,-0.19886002765243352,-0.14725525600035955,-0.10367497224010802,-0.12208362569174033,-0.3465882611844146,0.37811003206118704,-0.2693595073897504,0.18534995606535082,0.08010713662623617,0.11226324700669503,-0.14789147936210933,-0.006090346282068628,0.14055125299540683,0.255797723989095,0.012308442023544926,0.12176199616078724,-0.21473601932275563,-0.10114713597829708,-0.020630900115431085,0.2653448531265097,0.017487899046928126,-0.24722693858678974,0.16331219440915457,-0.019698705344527844,-0.24758694731772757,-0.09561353959608716,-0.08758368074166237,-0.15684834883060025,0.011910540390697649,0.23472866246264626,-0.21032756543011338,-0.164682057790893,-0.21685372380539336],[0.20931548573664618,0.49952390422182014,-0.1491190345530024,0.1446736452083555,0.18224038988021116,0.23549677523710694,0.1852250719692613,0.2541309702453489,0.28817242659866843,-0.03414025036232893,0.37242968543765026,0.20502343894130037,0.23040016512606212,-0.5390304862297197,0.23804334974314675,-0.19922723217517777,-0.2744502735569305,0.09269800834949098,0.5807968319864137,0.3289151393762464,0.05518085073256913,0.37290018727462293,-0.21683037216977744,-0.09880447692526989,0.09070875713945344,0.11549849824341389,0.24357347563270948,0.010646012334460444,-0.137763683746903,-0.04574047448092067,0.1829988542371539,-0.37134914653558565,0.5034964861976553,0.3206833348526624,-0.0009143530152938159,0.3904527633319558,-0.2606420707017479,-0.01847903959558078,0.055816674695813875,0.16303244295295777,0.5226419645445524,0.026531209372371262,-0.08530183645510922,0.2565435003245272,-0.28688422434724753,0.5226856800855649,0.1464037784072736,0.12886773494550927,0.3053778886215727,0.12710415965145644,-0.09190515175808543,0.3418958936724368,0.21699356627663036,-0.06239580534927425,0.1433713312638109,-0.3559454719936094,-0.18363535779592044,0.46423793608030806,0.11466512954979585,-0.06829130314496899,0.03901246235619808,-0.084254079068987,0.2447587184120684,0.17826926653925365],[0.13802676865421926,-0.11379553731224855,-0.20087064310409314,-0.5043226336268535,-0.26944392086590846,-0.21947590023501465,-0.23254855701841384,-0.13385833979534734,0.1007064047462918,0.14036193493543825,-0.11951200113701811,-0.007334433747638916,-0.09320690714213686,0.01681132982770675,-0.10043655325576843,-0.013034573612894283,0.05118624103430687,-0.08353773071719969,-0.010842897990909647,-0.2058885665676123,0.12009822352690747,-0.5366421813307517,-0.07803012128746678,-0.15129184417436578,-0.15521393157239644,0.051974344859594235,-0.034131722911515255,-0.27551780264999043,0.2808669871865649,0.19372571547042805,0.02359615967666937,0.3341644971432743,-0.2593532748167132,-0.2382022387387821,0.19589234232653888,-0.06140487401193619,-0.2723610677924718,-0.0998767194081926,0.05007009997283386,0.016252386066903518,0.15575962567322035,0.12250030238230203,0.02905595856734324,0.36820788826315276,0.4468945730280486,0.15688609734873493,0.041531347009758954,-0.13453911167854285,-0.032865648142789854,0.13120970574041593,-0.2014381544706007,0.1631153276337185,-0.13971539351865134,-0.02438005520917976,0.08316425576852855,0.08326198105055775,0.19954916017422564,0.11318478658548804,-0.04247705500368865,-0.17581495315978127,-0.16655788078667635,0.11199449908407444,-0.46726661925874713,0.07955213645578874],[-0.09644992950561183,-0.05479972935792992,-0.2751826680675139,0.21712230482174408,0.2560173074203915,-0.18722940454688528,-0.12010898698975668,-0.4168029178109985,0.3557257359008987,-0.1937441533825861,0.16369290137291412,0.30523321117702634,0.3405034895039242,0.8134000094684498,0.29535730987885384,0.3599820288281739,0.1256925003779131,0.16757436482805976,-0.008494930905261712,0.13090182870987999,0.26223768565352285,0.4956174230772325,0.7793556828472098,-0.19587204169690997,0.10482075361457295,0.08392230008365473,0.12519131462547117,0.47611725523878445,0.48160260801709054,0.27400220710210726,0.012407334486323283,0.41577014283529445,0.7132744130837494,-0.3057812675465942,-0.00001096828091569361,-0.25835476578074346,0.07354677906628451,-0.0029790674473032554,0.35146394038178697,0.02522566827077676,0.6674070146160238,0.04801205975320181,-0.10752026362832552,0.4324635112342015,0.2715364185626956,0.9844983258012103,0.009435135737399784,0.05732322303609379,-0.38979696409892073,0.08997362270849535,-0.027171396639424,-0.03783785934735844,-0.0906676125674795,0.24171557414942255,0.16709722116003226,-0.21508524739838877,-0.06438679240421183,-0.23003007691066105,-0.01990807487814725,0.49669679442393827,-0.24622047944830205,0.044478963982968245,0.008737536885945425,-0.15870826411741185],[-0.1771100273536846,0.07451116901200938,0.26452188589770165,0.5311838500433353,0.07778877693225061,0.24650573380086432,0.33330462855241166,0.11758116536582923,0.20778889035941195,0.3389514608562852,0.42162778398424544,0.4239795572880272,0.6300408023829075,0.39450773041422915,0.3162225852097171,-0.19343665508331978,-0.12071080939449275,0.1476858430600402,0.021738188738089317,0.21091684493454813,0.04375142968111695,0.4620804791529782,-0.15840015585832606,0.10064928728074306,0.07844731972400072,0.05620188723648639,0.24851550764302038,-0.052873503121261725,-0.3293357056895434,0.4599180254196338,0.10344581983446403,-0.1620567992648339,0.9646057876931052,-0.1307165978363352,-0.10806179158223131,0.3813479013413776,0.16178274890383162,0.32240601370188,0.629131858204627,-0.020089775420869843,0.5761611275572238,-0.2700147931120782,-0.0029137670923596055,0.28919697276499806,0.15244899282208935,0.6215533329422864,0.21752355970146395,0.13790584130964845,0.2962696066533169,0.23799962042624287,0.19050809158589707,0.6105827332361953,0.03423421137306571,0.11232360976887582,-0.2233377706576584,0.16762164575431387,0.03395985219556643,-0.014672900035364735,0.181164135366359,0.15764968885840683,-0.1268989194174931,0.00698592970040085,-0.26482980606757445,0.07008106432701304],[-0.15612222149359253,-0.13055555417320466,0.027525921199373322,0.4287953928180511,0.13542868863997987,-0.28422357606216503,0.31522360691345563,-0.20911999481450613,0.31977595208070614,-0.03447202662224806,0.3084475347885685,0.19892871764283956,-0.010531649428619946,0.9466487076513996,0.30870370773285777,-0.10154800388849991,-0.12271150158867371,-0.2642012680023323,-0.11570857411757737,0.47742008919899237,0.031254256738932826,0.68956544966457,0.48257992030049834,-0.20218979637891815,0.2923323403388497,0.061706406607403924,-0.13813477256958087,0.3099730991626094,-0.02029599058941238,-0.24783346550778587,0.2874516106794261,0.6297531557641931,0.8628607205789955,0.11934175208009011,0.010716113166494637,0.01347744722471701,-0.0406719736675724,-0.3456127939644706,0.38673042513932243,0.07521845938299802,0.5655116493123005,-0.11977621407624542,0.06216345260234351,0.29273058321708484,0.4538012779392436,0.6114401223082372,0.06550707358970982,0.03892089143716581,0.2604206452046292,-0.34954156698173877,0.012909783371622047,-0.1493178695768396,-0.052951788156470336,0.43552340073454365,0.274501458757856,0.06849738428497629,-0.1281128400922285,0.17829233336820896,0.22213155713564492,0.22584128182047575,0.14643966255412408,-0.0932125942894217,0.011768348705612964,0.03480128504177245],[0.02269018549521352,-0.4090525406765288,0.46241864529412335,-0.1094877152091873,0.05768878780340154,0.18175664214785917,-0.07548221546578972,-0.21661112422828363,-0.12542053597116176,0.36334997803180963,0.15688042771127322,0.1846353102577096,0.03371074505161517,0.518090139457774,0.0312798295217395,0.0646860271661457,-0.17329410377147567,0.11085747711829207,-0.28135498317900054,0.07452371956192878,-0.1432303235471917,0.36408444219913944,0.3508507350896339,-0.01943617963857992,0.09381941519742226,-0.17824777536921965,0.7451391183723399,0.5701289440838002,0.16305056479112276,-0.1323344844815258,-0.26981288844582424,0.6435665050415943,0.01565090093907499,-0.029488514781098485,-0.16702883525971032,-0.15065476406797856,0.5618021571435377,-0.16947558962644657,0.2711159381253301,-0.054702736406109786,0.1247050510237818,0.8455876646100314,-0.277597471706392,0.2450871744060739,0.3303514096219438,0.5327431198259935,-0.012207634109281206,0.11106472931932135,0.06802256537446409,-0.3503452241719714,-0.4017865031774517,0.03803026674848585,0.07070944203445687,-0.013772292736865449,-0.08465993482127217,0.024876488697836183,-0.34314625391379494,0.06052005203921071,-0.08498081346856451,1.100963665004628,0.12498337487026294,0.10691120045988532,0.08275833958472169,-0.1840545419052158],[-0.03027000901986551,-0.02684377880705989,-0.36047308075605927,-0.08944060017914511,-0.08618136885944364,-0.11911582223520309,-0.4101442866029589,0.2687568110692503,0.2311659708776849,-0.14449758466497448,0.030413404540932054,-0.39659545127777196,0.07062179903101794,-0.34531165640902894,0.2057581621249372,-0.33451803104765354,0.14948715604088877,-0.22383600999776113,-0.08456589774043889,0.050182945207639926,0.16121966304430088,-0.1667224035961983,-0.10571163554126611,0.087490645649918,0.11563942563661868,-0.07597110059733926,-0.375849078604844,0.1845338145849786,-0.22388374396506644,-0.20569806977827718,0.0028316517329484577,0.13701517617569822,-0.06985435479662058,-0.0002176654549380664,-0.4737178857344141,0.13500550057284755,-0.1467479740091793,-0.2797235961942806,0.2614281734119037,-0.19149858935802228,-0.37959334531885713,-0.032586523914024244,0.30136682957835226,-0.2598248881701954,-0.5756198842504785,-0.16296278763696542,0.08960725672300816,-0.38874123134448496,-0.1735707486435851,0.07153434737414299,-0.29191291939731634,-0.3926831705893585,0.07686430542906272,0.13277509727363979,-0.17964671493800888,0.13264441451711498,0.03212961190832087,-0.11162807748640904,0.04407614972721459,0.030828266883829464,0.024682337587686443,-0.4295460457450441,0.11771122169154032,0.15249356183582352],[0.19947661361852664,-0.012367799368262634,-0.06460362156284283,0.09155949778192768,0.2786268088417111,0.16678110045352496,0.0045594204703712105,-0.07974612494792349,-0.35206920870008035,-0.49549074785401986,0.37952531946208773,-0.04725467923816753,-0.28976702411497623,-0.4221618166869159,0.18579514535334524,0.171477426606586,0.06371551265040398,0.24041047143893887,0.07022006011296518,0.14507337089198097,-0.0016401419644458133,0.14580394788702183,-0.1386596882759472,0.21188133908815907,0.06828021099801969,-0.2380170653395148,0.11501606498985145,-0.016102898041576393,0.1440268301371469,-0.27464874998394745,-0.16776294233015837,-0.14201169363157798,-0.04446309199865139,0.20753059697804213,-0.19176651830153663,-0.02683893318789699,0.33877686737522505,-0.0947386295753358,0.34501983469933295,-0.09447322669046333,-0.04653067600955532,-0.04555830365216202,-0.07099370261658453,-0.049236491635298966,0.0930143722630133,0.030741239722166074,0.016677244385573185,-0.0328275865789311,0.31018217182201635,-0.1485554369637053,-0.026371270871672185,-0.2792078599032877,-0.18692442470121534,0.11470913083610686,0.17255806247422084,-0.07013168809374547,0.4118478146849927,0.17730833361807058,-0.28755850486420165,0.07502710791512877,0.10879309276540211,0.2119375166599265,-0.2055230922508387,0.15331612476607942],[-0.28528715683957656,-0.18205094758801235,0.3114585708812091,0.034234707480055186,-0.03195921351886478,-0.2613738839290287,-0.20844375704667512,-0.10756327969580633,0.028979604403943635,-0.17441396562517378,0.09679308256544165,0.1804553057339924,-0.24747989730191905,0.5935271961797954,-0.23034547318752963,-0.08966769077660659,0.13869400310372118,-0.24465278097749713,0.031756981307529956,0.09226077199950053,0.10902211891782235,-0.567345772681969,0.32054950511460956,0.2461393881648164,0.13582416266496355,-0.15913044004571722,-0.37781796767309656,0.024161194282928244,0.36741825105385895,0.04186659628601507,0.2664702552236508,0.5197709930190416,-0.8545803664245878,-0.05223761192626251,0.06103107762163549,-0.08302890741029996,0.29161936082787815,-0.08960376957066976,0.09858910917908059,-0.1263413147897143,-0.39966123954624616,0.055864059887117255,-0.5174138154061544,-0.39899836578852915,0.31019153469941274,-0.8959308195800435,-0.08060362243513478,-0.07932258428646084,0.027602809049006048,0.17001471447518698,-0.0343074408694343,0.15615952372703382,-0.0314205983644654,-0.05846961848672375,-0.00656131543349877,0.09854494007540089,-0.0729201940103864,-0.09751110104579402,-0.054844370089276055,0.03321758946443656,0.1924789653267844,-0.16421353603677466,-0.1352344825273456,-0.29006135978102254],[-0.12460583175535306,-0.006241560937857943,0.27451940916651396,0.5296912338190445,-0.15511359504821554,-0.0716166950931809,0.24860524794466435,-0.5749391821850803,0.36592484793771474,0.028189711855141387,0.26893657596621245,0.11155504696001217,0.4712867789621663,0.4836581292521588,0.0015775680281970858,0.21144869268654787,-0.033380163513065206,0.22331018692395752,-0.11247411034406178,0.4514161339020578,0.11894697859148429,0.527457171296732,0.7271674094580459,0.1111349989236153,-0.09432650523811298,0.08640229994843526,0.11974767838924243,0.3284761706569404,-0.03554586777926473,-0.2728583013242736,0.3186703951389789,0.3191294745206695,0.906774706329411,0.02770444366982681,-0.19336342111350238,-0.22205251212950747,0.1047227449067505,0.146851962717577,0.21947601076575962,0.013369117915230405,0.285660328690217,0.15142341602702222,0.4630623009399092,0.27218217999647243,0.2593819908724808,0.04332162528403695,-0.010082995343504526,-0.2309866570874987,0.166165324084639,0.08468674745529793,-0.15591100870131386,-0.0740601525576672,-0.18026330521938186,0.12521964796913773,0.16422388591668585,0.32697103587181986,-0.15532608117438457,0.043436023096848846,0.0559326968691944,0.32402566182367876,0.1955888994576816,-0.0844509217979672,-0.09574628332396774,0.0016644193103526712],[-0.009554738160218294,0.22198049708459858,-0.3654530143322755,0.27424310063796475,0.3571621317701409,0.3381284172864964,-0.03018719585482281,0.4661490244061514,0.01720313779437727,-0.1330479796042774,0.14123283560780178,0.09167203398372588,-0.27747869733818603,0.36597817568363755,-0.2001221901297841,-0.05405697977778319,-0.2911272262532579,-0.4529832036631528,0.13304251495323885,0.016790646848236744,0.3013101744709914,-0.17872420212856419,-0.36902532011436484,0.2130381137478775,0.35638072832332435,-0.06690946622309303,0.34801983575997747,0.06710540943924378,0.024231995988206727,0.10157894817536138,0.1258700455625939,-0.352485624577567,0.13517218526270033,0.17141361362807808,-0.09928014973146192,0.9027786381433298,0.4733506553456218,0.6135131731986071,-0.31146566813320636,-0.21040206622650554,-0.322860932900609,0.0771892152506115,0.26951166888467715,-0.15668774797079763,0.05185051537190294,-0.5551127301218799,0.005325432600319242,-0.07509520829983722,-0.21235064437718382,0.39488761425336916,0.16990680299479458,0.32791621686453565,0.5867154922785836,0.14711651095842382,0.0115714171449968,0.3714519048471789,0.331170187359525,0.10309437953075103,-0.021186785899806104,-0.3634045319183497,-0.2656435701632924,-0.07247905153153697,0.14706050891528039,0.15656411522754313],[0.3906162233975964,-0.20480542154514592,0.013422203663106968,0.05028750967414656,-0.14936697106497254,-0.07765731291645421,0.30314374722914283,0.34690229331087985,-0.05412633210937099,0.24873029591709123,0.0764237969431053,-0.13166657375686922,0.009053936494274975,-0.4874315705342612,-0.156703176759409,0.002607348029570016,-0.33393135288458664,-0.06828063142749848,0.14149591524838212,-0.23120438908293658,-0.05836937007919756,-0.1152037377299783,-0.2716089866442023,0.4685629835957643,0.1298666132556024,0.08878798606231704,0.3942879795689369,0.0514686305068397,-0.38250569932916645,0.02382106571335487,-0.22059666503772077,-0.28024956724026495,-0.08398646521346925,-0.06734174843631713,0.13584386286125497,0.49937028303031594,0.49587991893310107,0.3441261641191965,0.13939134542474652,0.20171711297156977,-0.2468652545043197,-0.45675483591091814,-0.21109177538633406,-0.13074443535628333,-0.05718813699630457,0.035118009665123795,-0.028188840223733927,-0.26247900121742884,0.1416952148214154,0.250923254572602,0.5290852959069223,0.6608031073127396,0.2681798274200953,0.01786211453932542,0.1568467345622029,0.06877016768367972,-0.12359186176508864,0.2966434381812679,-0.017154143126799252,-0.07997501443802195,-0.07061372759685527,0.06522882149215804,0.12919643843319467,-0.3434710328966244],[0.10752689999584555,0.36251960641453695,-0.12607753718092987,-0.26259147245328174,0.16525318040734385,0.32858984151914417,-0.08149346800977149,0.7114016503998984,0.17295377523886213,0.21477214321767052,-0.5078184340283673,-0.012947900226110021,-0.22917087200098105,-0.3033406641594746,-0.20202006771780995,-0.07709048560988115,-0.26166663649396554,0.08596140133634182,0.5558610640417195,-0.2423009570612239,0.0910787364144031,-0.23047498002462363,-0.5695582938652441,0.3599118747017768,0.1603886680926462,0.011592595257862947,-0.029693244634395825,0.09101072800592606,-0.0906959999223645,-0.08379164011204226,-0.004797074339147322,-0.05196947565040987,-0.055257774896590346,0.13312923362703255,-0.034411185004839466,0.6947946204360544,-0.0016545037002997614,0.4221816160104798,-0.4900083105379111,0.046142545043520646,-0.2232554815021878,-0.34017589540326404,0.06180862963813795,-0.3356315131617285,-0.15157460149546365,0.007655409655473444,0.02579693322702913,0.12116983816102342,0.04763286241676549,0.35315393162596287,0.6809173211350906,0.8183390556997647,0.32124682254796155,-0.09229463485031246,0.13650371115093493,0.01819834829819219,-0.26540033571375915,0.022952084920903216,0.04067264445661923,-0.4415086211878073,-0.07848627649182519,0.05804886420796623,0.3348035612950726,-0.01161809683794088],[-0.22247199379626542,0.17111398199173034,-0.14515166427091472,0.27507057019020204,-0.3256846536850622,-0.03848419007226039,0.22082083897296897,0.02167922913742263,0.10850716804118733,-0.3074988768491981,0.14538761179332887,-0.09338063574809917,0.1326579762203161,-0.2186779052229908,0.11604746459682654,0.19039851949199632,-0.1014381882623919,-0.17077657420416148,-0.026101799438097564,0.06217343095586856,0.054973473201876594,0.06617079636103286,0.1429662821877996,-0.44907162157786257,-0.06490381836778181,0.33448046238013673,-0.284549114200174,-0.25514113123158755,-0.15077734099017154,-0.24524196119114736,0.10027700900352904,0.17219338787879857,-0.15086654493912408,-0.2036764365149222,-0.20256306813717714,0.22225932672497048,0.1865307696334916,-0.0003262183392038625,0.12982322672518473,0.006053963237275169,-0.049040709059944065,0.04248071876432281,-0.009353618234480015,0.08325366304594209,0.06939237054078422,0.16196532776469957,0.05375225406125388,0.15272879648142795,0.07612633475625231,0.2748058289700787,0.1957625337626035,-0.06854798456488863,0.13116082474264015,-0.06731087909541426,0.18123983749750666,-0.1421618867900033,0.08348319335149816,-0.40312521281720853,-0.045015384090650874,-0.13445293798346014,0.23844211722325626,0.04833344879244361,-0.2363590442447381,0.13840787031188936],[0.09823416593563865,0.30322046435891803,0.18038065882961193,-0.00630066732320772,-0.09770334312240739,-0.17019563885339453,-0.1702018885186098,-0.3300815759057252,0.19234721720120693,0.32099003387073155,-0.0723451016610726,0.15127884314647116,-0.031074390239622274,-0.21025055894756683,0.10029472359704347,-0.23635926694581022,0.033144919380040196,-0.3269367689689219,0.28015904228656163,0.11374990360377923,0.11129836823542764,-0.370179404821571,-0.2615644097988469,0.019190591009178325,0.2607444593770324,0.11501175195063013,0.094094956858592,-0.041071931991978214,-0.29249932342477813,-0.1560213839669302,-0.11089787760318441,0.034352853413093895,0.02801401613113677,-0.06559110900667231,-0.29305428213614027,-0.3319443395184351,-0.01669628845521613,-0.060844349305779116,0.22054370862691303,0.21638168652556997,0.08183248359571021,-0.3568291786787475,-0.030681982398039476,-0.07742640958243324,-0.04527645335026941,-0.157775185482415,0.0744955354537849,0.20891686410700055,-0.5192834263783129,0.2631746251433763,-0.11093908198485941,-0.09520403935179253,-0.03587791680466439,-0.02887201933967352,0.4556846128041538,0.030448439202269837,-0.007229760237580642,-0.10700839650778525,-0.20153440974458167,-0.20063644698176564,0.08579583213713982,-0.09387131144245305,-0.04941459496553531,0.14611232916888472],[-0.2835947007997796,-0.0536262278925234,0.08940265705383801,0.08322631263646847,-0.16217417550178467,-0.03542380262393947,0.26477355246557993,0.12070381620266667,-0.044287691252115825,-0.17999834024683994,-0.026504125022394385,0.03848563138152644,0.26307125048256197,-0.2596093180965658,-0.2908699161884472,-0.0032149191356660653,-0.17574709013045864,0.03078744266377514,-0.3222402644592729,0.06023285428779132,-0.13150864200055457,0.11053453364375397,0.17458945117489477,-0.16292782276052822,0.019097339118658428,0.06188298017934884,0.09890854797581805,0.025427389142020623,0.08400723415812072,-0.10419539396260276,-0.03976865780535174,-0.12988341999910097,0.10156020662238277,-0.2858507977496015,0.022964936467459975,0.10149989003523775,-0.1505699239104679,0.2975384816425706,-0.015342943669402502,-0.1076377833638364,-0.05523201308053002,0.4711105155070451,0.28608197311321454,-0.17152288529795662,0.17641150759938168,0.03878546825720426,0.07453141307894143,-0.023697176026547813,-0.14395139413666505,-0.20135579660925712,-0.16637096607987506,-0.1972817286103645,0.046968537987796974,-0.10519112498308257,-0.25049271683109775,0.13779677519110803,-0.18741580457549906,-0.14213822895443742,-0.1171537533502553,0.1860352159957908,-0.09371419760004895,-0.1813780039970227,-0.09252325045827982,0.004073976451891532],[0.10081934783468874,-0.3113722404197213,0.419381014812463,0.17240485833940136,0.004948085416690832,-1.0449573416353548,0.41086891697810835,-0.6349501138697073,0.14805618882303845,-0.025493621411771382,0.11330157642120381,1.4932618559262183,0.0070033622492315165,1.2574577016297395,0.6460004925915565,-0.1891221179487505,-0.03029176701968152,-0.04439910383545114,0.9015149999155452,0.0012314431122553001,-0.07450076683067254,0.502768900311524,1.4652730656717616,-0.3164889814832592,0.026953328707579022,-0.7996766251618459,0.8511601814291976,1.4638903288894543,0.4699246919414747,0.5683223525359253,0.2969697637977427,1.1923579601128045,0.7053977458872159,0.06834931996510332,-0.06482738966127492,-0.6601067761944814,0.003073957107418328,-0.34123164473163675,0.2752091077630344,-0.1251713177496623,0.4311447608167103,1.5423752169609126,-0.20149439963212656,0.9068081940971563,0.9322822124620068,1.3071056610077199,0.700837108418847,-0.312305804944718,-0.021815315937187094,-0.21224397039394752,-0.3418647041739095,-0.24047434379384328,0.05691574133267508,0.2635066700114618,0.24017653776414663,-0.058370449278303316,-0.049406670235258,-0.32543702259360113,-1.0464461301055052,2.150829356086867,-0.06880330806501334,0.02144153210942777,-0.032583174374650206,0.054771519429279804],[-0.1719309251925755,-0.22774629871441665,-0.15167378857042188,0.2243675164234186,-0.09332138600700714,-0.14139560023768122,0.3197112051315154,-0.2828863050562086,-0.10602068624360456,-0.14463255082900406,0.4649328569289808,0.20829536856931913,0.024183504245955775,0.9002641131616266,0.11076052633093712,0.03267962473679987,-0.029031447020855312,-0.029017686285412233,-0.14516102701917358,-0.17327766585333537,0.05524689237316958,0.4610883112034064,0.44170781364835643,-0.06840803858377523,0.18152087246750215,-0.11240216634730392,-0.06508859312940302,0.47487767807083164,0.4972138144130462,0.12908435983229286,0.1004784607753273,0.9239327083566661,0.9716644911706905,0.15636019483751354,0.004267878604702082,-0.2814958756673576,0.04971069063422801,-0.13969596174503723,0.23994334114035504,0.09497460662589473,0.5989088333833401,0.0661033047057214,0.3769517765590132,0.1494661680628684,0.2509754657586185,0.3767442526314088,-0.10019773410241914,-0.14306480331367974,0.09545719578524504,-0.32669874221426354,-0.16569177160104434,-0.1814380115989495,0.08210496612238809,-0.033665630421255165,0.1662917265264026,-0.17519891075626148,0.14147163567592796,0.07593921870373548,0.32461495513935396,0.15710236258797977,-0.05346823313859843,-0.2340925469628301,-0.14016954691576097,0.16072953250843758],[0.36108478527100146,0.15050571308918329,-0.07230688491669508,-0.21264022239045077,-0.33928711973764936,0.611308797783162,-0.1215918692310715,0.5021428904755353,0.18105205479736394,0.1090485011035038,0.020285410665383093,0.21292021800334923,-0.25605683709061833,-0.6721321787134177,-0.4084966567193507,-0.01008938325149033,-0.2612337055091582,-0.08736394207250135,0.335031844825285,-0.061689164403011754,-0.03474265109275864,-0.07751702662457137,-0.2893563000528567,0.39154560041098485,0.5418271267780652,0.39337639054956375,0.30623574897391376,0.22483478809062704,0.08299010877336103,0.04680367991000504,-0.07938836559493284,-0.4037670189348803,-0.2576246998302203,0.2397518781474467,-0.08208938266018771,0.4376274749841529,0.35341170482832396,0.038551235050323214,0.06166431348797265,0.06583909311357232,-0.0974926172889744,0.08915040520066515,0.020288656883533904,0.1688613853303085,-0.21599833754511305,-0.055566734349166744,0.11183413221934654,0.34722898662867885,-0.21417747499541887,0.1879224738286157,0.1788462011829518,-0.17222502848982504,0.49128186931002427,-0.18994727916072765,-0.048652720823418316,0.25199862074005625,-0.03631243820778674,-0.11880835798993307,-0.23535191052011945,-0.22895034709613551,-0.004066477314051637,0.03907390317003481,0.282426198322559,-0.07945055590500556],[0.1627349493519448,0.2333638729541691,-0.2056384158085586,-0.13873119927585845,-0.25201947688164106,0.2436767989163773,-0.08553194477343168,0.3433828014629982,0.3417099957901777,0.02765120320126071,0.15576418592494604,-0.02673256793148421,0.22716560026982033,-0.4214462085232826,0.1674974830405565,0.12755293626868572,-0.10437963037312324,0.011347172224006889,-0.022208049011301943,-0.09962620065813375,-0.24179044827393922,-0.0687039348325649,-0.521637348397979,0.15802678647447221,0.09667032605664226,0.06322380869193968,0.2666192328083097,0.19673463119982026,-0.19595061598043043,0.17218231709477289,-0.019126105793317215,-0.695943087031969,0.12685158990415474,-0.22437616697019294,-0.029819638396283824,0.11614359945010583,0.08111473496768394,0.12755090054408935,-0.20282465725930365,0.06779244565815526,-0.10989456525835845,-0.3597114792944865,0.22675257443853344,0.17456421403703812,-0.16841691671835382,-0.015371529335267529,0.133573887143102,0.08410624599698753,0.08502567276408782,-0.06605125436160723,0.14698681883127848,0.314859143959769,0.40517771460180124,0.015428017520617766,0.26238353439977397,-0.1427550800244376,0.020958071456462425,0.14760644362969857,0.1995852503061734,-0.26178097274064405,-0.1946893537896835,-0.17952974266676183,0.24032499160610934,-0.12447368387030103],[-0.07544294990433986,-0.258056904327069,0.21105522367496596,0.10512754034575421,0.25152922421353957,-0.29088142846204457,0.3528739061449871,0.06666685513547325,-0.24973439573047254,-0.33528331223533564,0.17666748316982533,0.4431840965044143,-0.402657671548603,0.45294188243017086,-0.407820365359405,0.04334237147747036,-0.034934348398987305,0.042342751202879135,-0.17555063630521728,0.10982677832576239,-0.010822067163480937,0.10586289059242784,0.24837192058013266,-0.11912258816915915,0.40211792763711135,-0.09771548161917334,0.07714824871665431,-0.018794999777850034,0.2449586114284949,-0.06557789792586202,0.04106643271985945,0.2806665124650574,0.4269080837756731,-0.3136529193089605,0.040871256416790853,-0.09280177122196565,-0.11636838822131172,-0.4981916240146358,-0.15027198227297675,0.4419628741730194,-0.03134873082878202,0.40531599765252896,-0.21894401565259516,-0.0710129461804426,0.38576668127531394,0.28059315021013026,-0.2139476589805322,-0.04583507754153424,-0.2564602914292516,-0.22639298127163396,0.13378918029412745,-0.29040668118061236,-0.11219720946510878,-0.1662095269080243,-0.017016163998873065,-0.10804956611426361,0.17704478496124937,0.03929347164904301,0.17875866578874738,0.01090457911878323,0.06613441694874776,0.29128383292636895,0.022009994339696613,0.07066386021700326],[0.19488225930337474,0.02883989767013156,-0.051518407791715216,0.01839937654594387,-0.08858127711148953,0.5558318771972981,0.2217636381417386,0.310381045601298,-0.10147130143019181,-0.12925973953294775,0.43515618934073663,0.08241760046131442,-0.10380949183063445,-0.5855403116079512,0.5043979734202858,-0.3235188939774561,0.12162185439003487,0.24424087624142798,0.7162036397503903,0.4192215376784235,0.20706603241688176,0.4596420570125766,-0.21234935102796482,0.16717440803619787,0.2079064857676339,0.10003405180561833,0.12035864766392253,-0.26468245175011945,-0.4551776453569885,-0.29215784775185544,0.15107632214801994,0.08504604215624738,0.7818799431433293,0.08417242580721364,-0.08044102607476594,0.31378353242067913,-0.050165469917893196,0.1348485354487561,0.2745406583180375,0.180478912554907,0.2739615927061181,-0.010118867113305553,0.01943559578421339,0.017196812286438806,-0.46913600260192323,0.4369132837941759,-0.0357699373543604,-0.07038101911533816,-0.004651430980880331,-0.04418812498126995,-0.014088737112029067,0.2785818658793338,0.05543768932817155,0.03632735824274319,0.049572437430746526,0.3020949804512454,-0.30157428961711585,0.05173345425917564,-0.15590441241885777,-0.12108578421270792,0.01198104365842204,-0.1248231432609417,0.20458585680912467,0.316157793076175],[0.11627583196608893,0.33177821663005297,0.007348102871904209,0.16996275747288986,-0.2200325307384031,-0.18760574071044492,0.3674180112177142,-0.4343732500489883,0.11942985863769381,-0.0017946226324923862,0.35448155018076255,0.012424157396275238,0.11280511466130108,0.6653680366563269,0.2892602927819477,0.035382057346901044,-0.13411411497243253,0.007868924564241988,-0.18275474059651733,0.31069990176660894,0.1737550520037574,0.6113849760448687,0.8292510798011604,0.05187813547775032,0.0028692871485120467,0.15429913717793362,0.03517635533359137,0.05642206906741053,0.07601916317453483,0.013073322070405314,-0.1970021162243812,0.39439108012226726,0.5542849903441188,-0.024976768009181912,-0.013375409581035674,-0.4673713344558903,-0.21479934491026023,0.07243800865869973,0.3748961639609839,-0.030256441632690038,0.4350904356860212,0.5400615751971555,-0.07232482559961634,0.29397625969843527,0.4327808589774324,0.3078182668168582,-0.05510812244059588,-0.3627132832656861,0.024267490018157954,0.1607237563999745,-0.12125119273310737,-0.4037888053747065,-0.18712772089969162,0.10332117677120331,0.248125570200743,-0.04509107043363386,0.10365207492254562,-0.12512215068223645,-0.13910981305503767,0.07357052166680297,-0.061042000765517156,-0.2238504975812382,-0.01364557330310421,0.3864568240324932],[0.28655214053586003,0.03048012859659388,0.11050690523939662,-0.09372508008723354,-0.27028268584814924,-0.5300491604542524,0.06291628462787253,-0.09234001555201085,0.043338936145669485,0.24109465280904305,0.20246101799973615,0.11282828428421683,-0.16506966372480747,0.004618508506605262,-0.014866345203303776,-0.06271048445448572,-0.13666492838511202,0.026355750482578065,-0.18668571100991407,0.04133686874486135,0.07821649108937216,-0.2888588850749853,-0.15321314939247369,0.08062259136786581,-0.3027718631592562,-0.19481294464902843,0.2785554512817619,0.10548358742670204,-0.07911718559396455,0.2037705290688402,0.012958433798383462,-0.007184572082659526,-0.2621544318731622,-0.24882647411847733,0.25304839978099386,-0.19094147750578472,-0.19014158950007798,-0.11539588846703025,0.027403492769683502,0.004366919255238772,-0.1703278887935136,0.1873866755935341,-0.44248601124245074,-0.23678627581881093,0.2114841107650739,-0.10119363005165885,-0.04810867654507976,0.12006689814861947,-0.10184624650113952,-0.13763456165354077,0.0637770626179466,0.11241385275177697,0.1033953214797267,0.08823867150019889,-0.3003770871623348,-0.006867574299502917,0.08506448734436908,-0.13943695256734392,0.06003352275114213,-0.11621818129083117,-0.1002806272818421,0.2575711243229387,-0.2203743333246576,0.15890052832038928],[0.2177306577071839,-0.15267188175989765,-0.1669493256251129,-0.16675061801411648,-0.22421350281981897,0.369060176884677,0.01315609775127516,0.5730876282796546,-0.0907721110226796,0.13743018304698243,0.14266826794465706,0.20287102467843354,-0.25906155331795794,-0.17315587066893504,0.03639964021558613,-0.05633330602177328,-0.29238748090610533,-0.25140816792951143,0.5711144819937457,-0.052561425491254365,-0.04216477709913274,-0.4227442753802384,-0.404814200878119,0.2573603486231246,0.4050603311407873,-0.01353257656071365,0.1157536140653046,0.3664950483347306,0.3161377424943078,0.3962646815668105,-0.4089326126838421,-0.2473264823288231,-0.2042244163870046,0.2013891948333964,-0.3077629285378606,0.4279032056185274,0.25216028212203173,0.35858670931183345,-0.13391746675421934,0.10635730868028057,-0.07422658841615568,-0.4875942081491916,0.35479321400527486,0.09918412096377231,-0.3439726694222325,-0.2244951392882557,-0.23531903011762959,-0.22602337569455705,0.0013379062485338892,0.41412722266243757,0.363065674147635,0.541454597952978,0.2437896855418428,-0.31199048206032265,0.06282935073050651,0.08097509194536073,-0.06003238601160096,0.04461484992777917,0.2158867403705069,0.10876009517797808,0.012836737795353636,-0.1257421231872148,0.14547597587569858,0.07874466181305652],[0.29974964289794226,-0.018586390849783106,0.09399971931478324,-0.3062085940811633,-0.20911938793510648,0.2826396766118482,0.12964732644625485,0.360117438467252,-0.0959311170460557,0.015505364449592118,-0.2080393896446995,0.205401499377916,0.3498382442120683,-0.15478670488367255,-0.16542286687075813,0.1347284771845363,-0.014392089275659345,0.04938963435442109,0.3059177217240275,-0.08598769064561891,-0.007859887616053251,-0.31048811079358796,-0.5646579569532174,-0.06312641252458583,0.3353481257028376,0.09075194403572688,0.28259539619832896,-0.2986737927355731,-0.024893855293568346,0.26201837501958386,0.2015682905877246,-0.619880871358603,-0.08521998607883995,0.019762892618119924,0.036087931224862715,0.4030047362064492,0.04496175307089014,0.24332506044579344,-0.24298229663096654,-0.30146874479384095,-0.15668603632378525,-0.32732568649284527,0.13353244626407082,-0.17328151906516492,-0.4397230891863462,0.09062760714832307,0.3673735768592572,0.0181075913172404,0.03972372948483753,0.0931852897391095,0.42067675601388205,0.38942318377925716,0.5127944443533079,-0.22441177229874834,-0.19750205173127844,-0.3620817048570897,-0.055711952390899766,0.03901005033543299,0.28186737027681014,-0.3479229990063531,0.21879703284695076,-0.10036350089690457,0.038416004165053384,0.22619635082934106],[-0.2839974920692797,-0.36533208949649487,0.23773202213550162,0.26007145645512714,0.12413193140844425,-0.2163242386599479,0.26796418421703977,-0.10044076210300602,-0.13955434510017925,-0.32140687351656677,0.27976118693669205,-0.18842581603430683,-0.16845495347414483,0.4780597704599328,0.30423373606493437,0.03484938494366067,-0.23566503647871495,-0.06310622554484023,-0.07064810981187014,0.44542629905744796,0.3011022308484808,0.7373109189552214,0.7863576500464808,-0.2300031670524813,0.121204578581047,0.13742617226903686,0.07739003920743726,0.3148133874728602,0.2573118448647506,0.01343602836869041,0.10379554847055568,0.41930571014096407,0.7648858910845421,-0.08493458806786264,-0.19839839991006344,-0.14219231436854587,-0.016303903971717396,-0.022392796161013674,0.6661089547050878,0.0795215071025767,0.47040474861471504,0.32586217524629013,-0.07617811824011077,0.08914004141859352,0.2755222747734775,0.5430167107445999,-0.06927030195328336,-0.22718335728470984,0.42166411222380307,-0.05563059411722709,0.005361729329735549,-0.46063667482109794,-0.17632944224725444,0.18649910707269085,0.361084925148194,0.1039455214157277,0.08255261704521992,-0.11999331099285125,-0.060158268050384246,0.06649554553892889,0.4474071365567777,0.31213610268715813,0.09640349576215508,0.2488779572013886],[0.22358038787301787,-0.19221180699062662,0.18474445481482216,-0.12992696925095057,0.1280464628308419,-0.09052377510021195,0.08716118591678747,-0.18927312474134766,-0.040592940317089043,0.10069902482406924,-0.10651167674909978,0.18144853484758533,0.18381081102446964,0.34236539108735725,-0.19924705533704629,-0.10389454174757833,0.054404939348499846,0.01762463913695821,-0.20898241735803127,-0.1259531966885224,-0.11772344166941479,0.017428142437826376,0.3240398925939082,-0.10774171132234814,0.3654268701312682,-0.2763075463099943,0.26127833375664117,0.48413653518892685,0.1870923506899905,-0.17768354635487954,0.04682191253742832,0.7243244036317771,-0.5734922211779396,0.35722122861147776,-0.046074863254071716,0.047791498755129475,0.34074786435355814,-0.1297302275751215,0.00041363674682277804,-0.24021196799701558,-0.2835335128512295,0.2933760287952491,0.0037985342303031226,-0.23181351453405205,0.4784124527796885,-0.6421994520355824,-0.28111646863857337,0.16628657341467726,-0.08698381236461683,-0.04876721547320046,0.1581498902955389,-0.09287293957539385,-0.04986517398499916,-0.09966851028095901,-0.12169313715288259,0.05187169069292119,0.1126370050789653,0.09851426207317439,0.07440433153793878,-0.12063913965215137,-0.24256705794739442,-0.31996515309920737,0.09342994018420056,0.12244066264897266],[-0.40996116491931534,-0.25408804590779255,0.21345250159028004,-0.028708674052961358,0.0886069858458243,-0.20485948322495057,0.040338791218732975,-0.26629986292538643,0.08999595101172445,0.23422156232118008,0.015324042351921545,0.061725045297808666,0.15836556174140845,0.04777526578692997,-0.32133273269090806,-0.08925685388743632,-0.005345926703732916,0.18092926563802875,-0.3491046827946351,-0.1734138356569701,-0.19799002289919032,-0.21517928147350912,0.5129295354969473,-0.1519886422982315,0.4250043493035134,-0.12129449336106272,-0.06824963135108578,0.012142213360881317,0.3234357841309142,0.13826118755683828,0.06649296451682797,0.16560177001283086,-1.0406693352327803,-0.23861170116287247,-0.09496598839148851,-0.1018422989211971,-0.21872734298984028,-0.18587307146789958,-0.32767988367601986,-0.32753107785816504,-0.5848614946480909,0.12953861398190852,0.034378069213939245,0.05435807257697746,0.46867640466305016,-0.046929424946597575,0.10487358816885686,-0.050282645546324126,0.19527575340937578,-0.5252532431912883,0.14656916042111362,-0.2991348777286378,0.10811373473505484,-0.14650901466135988,-0.07652378091509356,-0.014815577532764796,0.18516504456938274,-0.07685487279905472,0.368662710815965,0.26898945809615404,0.15880266335997506,0.28933590976014284,0.08316709072598635,0.07632553855362605],[0.16887608294252793,0.1108848748886412,0.2050812085069068,0.5832282782653169,-0.30806950512405723,0.4426351459913344,0.2285408449445193,-0.01976442199426282,0.5254791794593174,-0.10472980918966418,0.11701691791315041,0.3156056740345361,-0.31660502945824315,-0.25682278911391315,0.37992791324674335,-0.05336047523897698,0.03126895199740898,-0.04442132279521691,0.2141526124095223,0.01257481085890016,0.14009735870711215,0.15706488990775824,-0.185454297562953,-0.15507136362240195,0.06925111292898277,0.01935475978992475,0.38589892295244954,-0.13962167148222607,-0.10964031233944951,0.2237210045521434,-0.18343087365135496,-0.4443293910508725,0.529125857976824,0.14933876706411325,-0.11295818740117133,0.4395002455815661,0.0009880012182990924,0.42411003599147507,0.36733711598412977,0.060335433878918314,0.5545791454604515,-0.0986560715208913,0.04474867783296136,0.03621600007451443,-0.07078967761870378,-0.26355098175048236,-0.029161966558056838,0.0184219911864294,0.5066391676104409,0.5781448252309631,-0.19797029918185166,0.2529237508632775,0.2563049030473818,0.2550899749412875,0.12032167316174758,0.1937804299307471,-0.13656597502962392,0.0264293872728992,-0.12566385586586337,-0.25533106674687656,-0.04411196656870743,-0.3436900846935335,0.4254365373597676,0.24213151617427542],[0.155735025569328,-0.2904000146766329,0.33703194540457226,0.35032102776130536,-0.2633152327396319,-0.06429827814954119,0.42323836751427996,-0.08627059102364125,0.24578460194261173,0.15518626450215398,0.4779727283014636,0.016279764171200136,0.46146981202264076,0.4704267033703368,0.11111556286781626,-0.026187049938507227,0.08913451050495727,0.07769939335831921,-0.4592902700480003,0.18096621750068387,-0.1143314233046607,0.5544164378285559,0.8359214005305314,-0.0058983324693186005,0.011004846293303276,0.09840075130428527,-0.5064556544498988,-0.10475698616764079,0.338693969155793,0.1119040849389197,0.1900599757313187,0.47406150112199263,0.7923983965993513,0.3237474666926016,0.19005080732773716,-0.379182059825944,0.3614424948241334,-0.4305417855036203,0.5280497702545643,0.3742739858450799,0.8129421994037207,0.11795613692797345,-0.06539621489787402,0.5173931216158079,0.01875040269488119,0.9956830303835871,-0.024222026930673535,-0.15541621962479565,0.344337913744065,-0.532478437052063,-0.06553024323550531,0.09758924897086675,-0.2216497466355588,0.1205298678935152,0.1530319480375262,0.32095912663981957,-0.06671924010293855,0.21457942752760023,0.2026936761285389,0.29435675708144127,-0.2713360809065462,-0.14608215431740276,-0.1402829498518644,0.047920557445161854]],"bias":[0,-0.3513705779670464,-0.045203568231193945,0.6579152156799705,-0.2480370234913539,0.52754464223266,0.16508718769741984,-0.08675821682558119,-0.03260986067658105,0.5377444892648114,0.48546766402214203,-0.1405349801548737,-0.32985340654613865,-0.22365157320035348,-0.01868684071717868,-0.010586641681471162,-0.010279919548753538,0.882513161111657,0.5791189910185126,-0.2999700181191036,-0.4195535671873771,0.4450056664831593,-0.39067699814995827,0.4671190608455482,0,-0.22414886880134222,-0.35305673508034957,0.5224432194079797,0.471315998640444,0.44299004879070686,-0.3554605950965592,0.49557773468618255],"neuron_size":32,"input_size":64},{"weights":[[0.020390798849213607,-1.925050848377736,-0.640713344348352,0.8839732631996692,2.1636685234685467,0.7783267547032855,0.6129835781269976,-0.4365589955852204,-0.015769012404095818,-0.10847892864344653,0.7150261878908772,-3.328125049166542,-3.2945604616944975,-3.344464671590904,-0.08320372662164324,-0.20214849874212293,-0.25737671346765545,2.0358563414002977,0.8694038403207063,-3.4915671331763662,-3.7470902988938857,0.7907177458213583,-1.778393169104515,0.6790566832454189,0.47703218674631853,-3.519158116721488,-3.7673966233056446,0.987374450123342,0.14445581299714813,-0.014481157466473441,-2.3668689549549127,0.49675705550054017],[-0.19577771139584654,-0.785951276632144,-0.027964316323686123,0.4824835265589709,-1.7132701013070297,0.6680463808675905,1.1504473735201537,-1.3227755651397404,0.22703924749518423,0.500701636970181,0.6422617270576167,0.06778955925514232,-0.30339709261504455,0.0705038005760217,0.19328857053050422,-0.05499840513786842,0.47465284110055167,-2.0637266489103556,0.7102375985610186,0.12797636805387078,-0.5347080469166542,1.1302737530039348,-0.97987822233538,0.7508196518842356,-0.29524669737196396,-0.06943717686250202,-0.23164953223395346,1.2927480007230254,1.1142072621645394,0.6343758425179494,-1.0710941094601754,0.284178528596097],[-0.22962118764451975,0.5616820916741013,0.35270271437872636,-1.525932573255491,1.6963563410444353,-1.072447761390781,-1.3605246440491723,1.6784926839886358,0.08270255639288696,-0.486045425525303,-0.6318545464035951,0.349456849426591,0.2977740480367508,0.3931805657648146,-0.02987168650464983,-0.21650270271805008,0.12637674149031655,-1.032288617207589,-1.2890927638963516,0.8195514758888036,0.3513890197614612,-1.1792510694521074,0.4260968300054852,-1.2536671959713326,0.3637680839192717,0.28638509159146924,0.2944928501374328,-1.569814481027695,-0.969993367719041,-0.6265082982664791,0.7239161047788486,-0.7228829749763965]],"bias":[-0.3350132414672141,0.38145992529803163,-0.44135936889901434],"neuron_size":3,"input_size":32}]}