{"layers":[{"weights":[[-0.3898608634798844,0.3754137390231438,1.6348717476755674,-0.4459555747427772,-0.1082403068600996,0.09395178563255693,-0.24224200211761573,0.561577857067556,2.143951961399767,0.07007039313460069,-0.46517548673250025,1.0958600442617703],[-0.3649800394993089,0.060124316497464754,1.6964379186907756,-0.4935954491844825,-0.22527648857864027,0.4971909082974815,-0.3480184949887281,0.23010230437093998,1.5038743136657553,-0.4447046435947283,0.2791150003600058,0.3676234432189522],[-0.09600678107508263,-0.3110011729521895,-0.32271876809778205,1.2656690671196482,1.091354571440697,0.19380046267449,0.667496858420463,-0.1751816711142955,-0.26822254338448914,-0.24083478587848065,0.3212221290543873,0.4134057554178991],[-0.5300362125816267,-0.30658904277749394,0.8068278853114607,-0.5319676702339543,-0.44330286423794013,0.16590885987406626,-0.4955094820154507,-0.011677777684518935,2.357146141259148,-0.24873389939014834,0.16430871940924255,0.6360256948279291],[0.6076554610329986,-0.793011375787609,-0.3044977684234616,1.119160827390748,1.483989042780711,0.12348176024725935,-0.22050543746959406,0.4674163479152865,-0.6824034725903569,-0.33338497334410994,0.6209213749576884,-0.36085549000673517],[0.16553042088388928,0.5959666416213094,0.21598855433535885,1.5459994661117902,0.7787817663332958,0.11271596711580699,-1.0236010481257765,-0.3790765535812389,-0.12981323776576387,-0.09309543334998906,1.0592794520546713,-0.5980413198758802],[0.5296964866509246,0.15077231608745853,1.8643085731195097,-0.8012718091536076,-0.7251939482661015,-0.49462679358514994,0.28172649065173105,-0.6485232227535036,1.1610274447851812,0.3791427389627508,0.015592274688731894,-0.08659779108451945],[0.8928077384988669,0.026110059765330908,1.5148010824980935,-0.9184399083530616,-0.6284988901337899,0.5988324932003906,0.3624898424538559,0.12084758189075014,1.728347149964141,0.5762596854702845,0.032801005762079775,-0.14664998874519983],[0.35245129036667233,0.20480951191641003,1.474599830885813,0.019943503611258264,-0.6015333179446327,0.271409506321739,1.084799100462168,-0.16291586787643447,0.7477048338186698,-0.11390657798037752,0.1925757932880815,0.2786621145628334],[0.3584754013220785,0.2230744695613476,-0.615770893944605,0.7619091070241494,2.016285084282058,0.33607470004850437,0.07451648108271078,-0.7728204914037154,-0.1578924202121883,-0.3576911876935171,0.33850445493022563,0.10922700382238176],[-0.30329682695589516,-0.5993188722100738,-0.7975486663988859,1.6169836481494497,1.1910120081076605,0.07744802377528318,0.624786945178576,-0.04029394634966033,-0.43057928151465846,-0.5527900503954047,0.6985925052101336,0.8450749126764983],[-0.744594756781661,-0.10191747526857624,0.8523011283110712,-0.29958153364935786,-0.32058027000949335,0.5065838348647522,-0.3244863417627655,0.4928233885377009,2.1189507860323817,0.1908729572495415,-0.34121991159812054,1.192481562050996],[1.3660653934824312,0.3885571240419444,1.347299295060046,-1.6636162398015835,-1.2600299162413666,-0.8219520283231834,0.3191385548783658,-0.5015786484682376,1.5540425381906506,0.6687071991978956,-0.03318475565965996,0.0735909917363644],[-0.43824990037739775,-0.12240309796617287,0.2719898138105375,-0.26446826056813794,0.7009449305819491,-0.7073713482370592,0.8230760216342939,-0.6028505413693284,-0.14449013275630598,-0.8015952162508904,0.4229093225359566,-0.4709409885086536],[0.4220219310811259,-0.30527326099069363,-0.318259502250959,1.3775552481149134,0.5430737978841197,0.29730300580586133,0.29901955791544094,-0.11336347271880715,-0.1480976529346749,-0.4909353521291184,0.43942714356858,0.20176080551704442],[-0.873482212388428,-0.7975290122467179,0.8180084992873339,-0.34802742848370133,-0.505592459716697,0.94790660811141,-0.6949784628003809,0.4216491981762155,-0.46219037100316834,-0.5292977078650036,0.20376040168791082,0.9048707838731616],[-0.02252915592185379,0.058858969106699466,-0.4963322559927756,1.1331254995380924,1.5524934992743222,0.645720018547926,0.23417497499358064,0.12836784871799994,-0.24811572749726185,-0.36602481784769847,0.8949508367995032,0.48864009651906976],[-0.808783291666047,-0.7790523103653287,1.6992435401844166,-0.3476830634722819,-0.1162375075902822,0.603849002834663,-0.6082014457614648,0.4925850005138437,1.0349954345791628,0.6580366168995215,-0.07179632689176349,0.6816688242361449],[0.306301334356884,-0.8340170916106282,-0.36331047725705473,1.315172415245897,1.079813211189349,-0.07558004061878347,-0.6924097751269204,-0.13345262961994,-0.2038123631054693,-0.5594537835979007,0.12007765468585428,0.7437797320727135],[-0.29778941277121646,1.007542576886157,0.46744724006537314,-0.04903275387604856,-0.5658276764308161,0.07807419133668615,-0.37771643141050015,0.7252613950925977,0.22049474285461726,0.056470438687344394,0.28702450649481737,-0.43906629077756054],[0.1977357874179571,0.16444113363749097,-0.9694185751326743,-0.3220014492726592,-0.8568621063574194,0.09532637597073161,0.17160488282563724,-0.4904126426929636,1.7154384224601276,0.16228750814561774,0.3381832143416351,0.6565678914383649],[0.32865786665458424,-0.047320477112549046,1.3667549687770353,-0.7246260885077368,-1.041636555169017,0.29953108880134766,-0.140261160927738,0.16278168178408634,1.0299782543529383,-0.06807447504226928,-0.13102444774140232,1.6157825803960244],[-0.34435089126227864,0.7819342422532882,1.1369849288896041,-0.1872313998125197,-0.5915385530951238,0.41706308346820403,-0.02200671497573007,0.6756040161595138,1.6207683946364266,0.125332111841368,0.05357143705633689,0.46529391917281027],[-0.15736317122601365,-0.0606959446075487,1.1718239938011628,-0.1703502303175639,-0.789114956888754,-0.19389530537589414,-0.9290615972695088,0.04654881667025369,2.0505528139991207,-0.08155770942052702,0.08068582937709795,0.1360659401389815],[-1.4938545972615451,0.4966950271686175,-0.6836502437440677,0.9992814966458132,0.4604324991188689,-0.31724160609994423,0.5130049168357704,-0.48982413709135136,-0.6505291670613158,0.7884998841992645,0.179166128990333,0.0010113426940663358],[-1.0978728975141805,0.02750634076752253,-0.11546738819131173,-0.04552411664273177,0.5269795505392562,0.6053818030733122,-0.24059996859000501,-0.22160168606230976,-0.05718187657597838,-0.3181488086081075,-0.5813572677575983,-1.1635244291415012],[0.5542362313428552,-0.09354302057380595,1.8978199617401437,-0.6552998084040741,-0.6129117175196963,0.41902841746601543,0.5205604664319268,0.30867527366704667,1.5845559947130625,0.4203628528718785,0.11293020303939919,-0.5589404747182564],[-0.40242662221637415,-0.6130075117135343,1.6009484847614552,-0.5277785425944915,0.08935442719963002,0.3433602476960288,-0.5194596111053708,-0.11260832425494872,1.5907079184343766,0.4108734167746646,-0.5394874420492645,0.6517438666903814],[-0.3246973598803016,-0.22902773103853918,-0.7649476292528452,1.2331948701339406,1.6540197890907622,-0.5868453724944922,0.35039052166912754,-0.06343300480644658,-0.4426525833063983,-0.017474736394444603,0.7527141918604586,0.4661004138633394],[-0.06542182562609669,0.89739100697686,-0.6173547117480891,-0.33595654094368865,0.06172905406889567,-0.4631101554646006,0.1813514476002385,0.3001421885929113,1.7309263673118087,0.10972966441227902,-0.17199258183091995,0.25108101313452696],[-0.8302506057997915,0.8501586026276426,-0.16107355369810827,1.6296627547172033,0.6210501481738482,-0.15004015158380796,-0.5278441984993094,0.13374807734580552,-0.13147037488001156,0.10249349189898521,0.7329969192230384,-0.5178272246093342],[0.15184344445464854,0.5429548902988549,1.241910308785688,-0.5508424348710239,-0.4615724656683277,0.5538181184142257,-0.03700191646284324,0.320387483923891,1.1071353569512692,0.1563148656226653,0.4557943093814052,-0.665947986854967],[-0.20673410461169822,0.3549797680149342,1.2497861571000684,-0.13095951060229635,-0.36045714517405925,0.38073625309462056,-0.23700263404159816,0.35573477537832826,1.5626202629551174,0.3793310211670239,-0.25870834439887597,0.7573837964149881],[0.21593559364872336,0.2615984827544693,-0.44940156874386705,1.756166411568186,1.9938828456977802,0.2296185800935336,-1.250910638503253,-0.21224025519379097,-0.6142266558323589,0.5137639967708774,0.6677348426980112,-0.6154992410657084],[0.3558965950872142,-0.696975676709501,-0.5927784837667006,1.1553495905925328,0.9554381039390013,0.04997966456911884,0.4827884193957962,-0.43181363134702655,-0.27223078344344787,-0.22987534684316163,-0.5384247604582882,0.7074075193713558],[-0.6123131344102641,0.6582232681801997,0.23349963202845597,-0.3771801753201611,0.02521754070565855,-0.09477108389189592,-0.45385310181391697,-0.8112828675048078,-0.031718572000563855,0.11201004516969748,0.13875003493027643,-0.2845096794268565],[-0.8573897658649456,0.8186024121287696,-0.24668482286481727,0.5246452564381712,0.17986383294247021,-0.2233837340835533,0.5891588575606161,0.1888837723350737,-0.543893070614256,0.549301974449673,0.5354581672318705,-0.4369523756700217],[0.04254323241679759,-0.2510648663883548,-0.5867204215780029,-0.47530370685605183,1.3720230205855326,-0.5962678159274911,0.178057375308419,0.4466051250085572,0.15489576419126683,-0.43968219377585427,0.11291793471948426,0.10229988335411055],[-0.005662739271799966,-0.19353019167201718,-0.17726367328511833,1.4203687097547548,1.4029157786883226,-0.9210338914989293,0.3735138492569478,0.0366559416146288,-0.07369492208748943,-0.07985861742142925,-0.09902955530950325,0.20444620549276887],[-0.3044164597143563,0.026626680202085813,-0.29623463142933276,1.0146939640924773,1.1363209286781273,-0.35052816707281703,0.4087769496324311,0.2396237449143448,-0.2759422511233003,-0.03325004665695074,0.5257947324285001,0.06929525879756343],[-0.4855010759708629,-0.019842168630419457,-0.7924811180104704,1.469568229221646,1.135084168415208,-0.7430885996956313,0.31309315509333907,0.3830622169713597,-0.7716330081794067,0.12960490509766143,1.0871629672931966,0.42321422063294667],[-0.3814248733425592,-0.6501213932129326,-0.07891062265499682,0.444559040021787,-0.5761092156739668,0.6098774198444558,-0.18085959288737358,0.1087562968580844,0.12667718333682348,-0.7758595764101353,-0.7018705920981078,-0.5821271202969379],[0.3556492725577564,0.14842059920476144,1.520695393049165,-0.4500215914673128,-0.37161328786025294,0.9794377200617448,-0.07657822605828357,-0.05238797305780644,0.609852366465669,0.2756545134671527,-0.2666645615704853,0.13464360765733088],[0.7970523356089834,-0.19707360276940267,1.5069692013203282,-0.7457656726582986,-0.6057961388466899,-0.9260258962689479,0.64550844583981,0.23892458279830234,1.4837381489338577,0.5419834242838754,-0.2484436900121618,0.29729377078763336],[0.004663702669421779,-0.3866465938302928,-0.15888968651756646,1.8653801332489868,1.2603401143435435,-0.09129368682239573,-0.10019559332566184,-0.2501396182154042,-0.15519278450555835,0.12159450387818313,-0.007896373890872211,0.060137567915524104],[0.17190600904806108,-0.13348520005688036,0.5130302653798896,-0.2997067927716635,-0.5913768718165585,-0.3074026701251864,-0.12895020773693472,-0.16275509713158806,1.7610414075936986,0.33982447064603133,-0.064598935687296,0.761811680400466],[0.6946303930565464,0.2365483427781527,1.4404904515486825,-0.5356500220350436,-0.32839952402969763,-0.39383750004405005,0.42914823536821817,-0.66320070120631,-0.13260250167128065,0.6305252199287588,-0.5065839136092773,-0.22668127439629113],[-0.10715845553294334,-0.6609075572050468,-0.7233585838122271,2.6941422495553473,-0.4720891596186065,-0.4644234262426737,0.177509953746705,-0.7345158712940176,-0.7522148542612335,-0.08627967673311489,-0.13193788224111158,0.5573523269784335],[0.028266011404460886,0.3124252265841365,-1.039111931654728,1.4870843969439769,1.733216578097303,0.009356542978483168,-0.5924196475349444,-0.43315397838271447,-0.505474085814788,0.39474282835119695,0.8155682864649473,-0.42499518076423604],[0.4388249703912034,0.7453246890943235,-0.458018308807533,2.0756846685126487,1.7723470237531334,0.5106088540754534,-0.8480661224520266,-0.44869205950117996,-0.9281282098774981,0.44258099333052947,0.5851893207125138,-0.6062409798020926],[-1.5624351650984367,0.972371791546374,-0.3217882436800666,0.9215400731191147,1.405232150591387,-0.19983543538619314,-0.7032860731821994,-0.3843626362346874,-0.4601803053030898,0.6936737490414912,0.8576898211627727,-0.40801358183011976],[0.7038020142285224,0.012775725439904639,-0.05592435472982186,-0.5216812507052137,-0.6473656513116359,-0.1566449846697155,-0.6723110125078331,0.33256081514896524,-0.10279111918677936,-0.5662015934869519,-1.199750317473944,0.1484981230504381],[-0.8887160357021093,1.123137480801636,-0.3472543348147449,0.9684041182487101,-0.5725172958729472,0.012944760292555446,0.031805805503363975,-0.09443185959716288,-0.3848912179347513,-0.15475065723675394,0.026563481742083783,-0.2427599773168739],[0.6760483931828075,-1.4178978512736016,-0.8773493505703156,0.843451672721258,0.8559225474415952,-0.2866485498775844,0.14982801007959054,0.4772297167658732,-0.4718578929759944,0.17457921236966592,0.32018553548673134,0.459405191916782],[-0.3979429898277381,-0.28617624275469966,-0.1189769516645715,-0.3932269772429608,-0.23780539277873483,0.7732173711276246,-0.3039960876836583,-0.25751671540807053,2.037640310139996,-0.05084921492029224,0.30719348788435297,-0.15409969774382273],[0.07070819751038525,0.15031758772284542,1.9336739874648983,-0.34368753165359267,-0.3188406877878954,-0.6999426320274185,0.04822061728117753,-0.19641260601591598,1.6588270504313336,0.1449456927016348,-0.1354921636922651,0.8484718376209859],[0.10625872801685392,-0.07915165556364026,-0.70323580208885,-0.36139718925086545,0.7681154555209156,-0.5591395394495008,-0.21727103896629807,0.14185032309861983,-0.8062459601358828,0.3579485517777752,0.14373391497477384,0.37990379807525104],[-0.44414538157092764,0.2323648895455201,1.9466873335794443,-0.24904849428553952,0.11406231433525163,0.5848268683426145,0.06221982177053752,0.0744948874071489,-0.7953662523831638,-0.25283344949326786,-0.5735458518148299,0.7612567302042089],[0.4809091015884691,-0.4406631502466473,1.2080024448721551,-0.4441190603583904,-0.5795131053941506,-0.2951775267675228,-0.0184743173851508,-0.19274445060976364,1.497299268957692,-0.3187042522643251,0.20372041316433978,-0.05094168046494046],[-0.327352996291571,0.0007540122683460308,-0.13982875436794448,-0.38683445564665697,-0.608185880901399,-0.12103696283462044,0.5921065262012748,-0.4927768885383348,-0.3873007825470238,-0.2572728027084149,-0.12925196080320045,0.14820672740675195],[0.9589704570881309,0.36434917473723283,0.9327436077579407,-0.39833653195381197,-0.5817920510715874,-0.27202014599300134,0.5301630518631845,0.41146281738804946,1.3075503750673036,-0.016675389509392288,-0.4671723623188894,0.1373339688533181],[-0.4574521951304259,-0.5049034695794882,1.8102912322892841,-0.12104000778753952,0.16920601645584554,0.6945762499632964,-0.17079027426763504,-0.31860285253360515,-0.813429262821829,-0.09625677105492814,-0.2215698989799717,0.18607502708789433],[-0.1423392703579389,0.029299138499685736,-0.0025712841252076156,-0.1782418764102143,0.8059714453092429,-0.19750093437220548,-0.2677681812027869,0.5490598787433388,0.06452417274237363,-0.14150523558798428,0.4325680093009312,0.2745444931625],[0.11388575591248226,0.15455729833231396,0.005474302918118628,0.23042659408244545,0.10271143663508794,0.00903639473829541,0.2192053559067713,-0.18819168113693774,-0.5359199398213603,-0.09617652242156344,-1.0246263961662325,-0.23234232971311153],[0.6440404372139392,0.6507724950087556,0.1437381377182047,-0.44353146257380477,-1.0675775951366746,-0.7175347946972113,0.05774260532124197,-0.11459603616073123,1.2351148854705962,0.47447532321660874,0.23869877493280872,0.43089040907722015],[0.41166125443529356,0.38125164230748065,1.6320707700883883,-0.5098878670966378,-0.6267905924845298,0.8002821826556672,0.4114309121785524,0.2645480267821285,1.4967485679887165,0.1593582274048489,-0.3063529265280168,0.5713273691194013],[-0.4078955130299728,-0.04311756744857792,-0.36660526966534085,2.2264235088031574,-0.3728417328430659,-0.3163396068207966,-0.2075009267502759,-0.5215583457144811,-0.6191372016921481,0.7796113448067882,0.17440027133171943,-0.45037776115722683],[-0.5011086390959117,-0.8242197369571569,-1.1491173809187538,1.6038075521348192,0.6251980545735889,-0.7663865142214962,0.16889830371274817,0.31654280465669243,-0.939703968951412,0.3845387676201082,0.5778182075417351,0.5096800141662123],[0.7280901308836877,-0.5077749622936039,-0.6277513248134026,1.8288939800664132,1.5202811828775127,-0.08579582321578061,-0.20410119761177342,0.19499618513970646,-0.44624220032314427,-0.25924973087124353,-0.6221257556513566,0.06312740326802084],[0.4734382420446992,-0.0479237020644058,0.27725518848386693,0.6757190269477483,-0.37202343105849583,0.5445965820126002,-0.1601575946712817,-0.3580686648392911,0.12186335481855881,-0.19552880941897072,-0.6022155361683441,-0.13154569654540607],[0.46568677529425123,-0.849344388446895,-0.7130737492004239,0.9658709048068612,1.4115574003364586,0.013608141855952605,-0.5152455410179319,-0.17564621404143843,-0.43187524237706804,-0.09387639166804693,0.9579994543199115,0.07174547301540728],[-0.6293051765612442,-0.9710487751439834,1.4949359486865017,-0.03320100515259163,-0.4139777545081113,0.45852109532852103,-0.5213459088740582,0.23946439045217668,1.8837645342967546,0.3785546061582958,0.08661181229930173,0.6805094966233513],[0.055641811411822804,0.2358925811654328,0.3769007829931701,-0.006937920710139946,-0.26902056631175747,-0.2365129997664412,0.38878765658695547,0.7522450385443854,-0.09133149960336395,-0.17850269351839096,0.16353449310325294,-0.35686865529522765],[0.7096639147633417,-0.26034193367510744,0.8618896107285915,-0.4497975039418336,-0.6270933024948117,-0.12585752630583383,0.5503395782973268,-0.41805870593588856,0.43899268937293817,-0.5019098936678801,0.24557873051324638,-0.41267217305490833],[1.0561137906982865,-0.18213636402466005,1.8718965580995333,-1.2837686066806926,-1.2540790910330095,-0.37452863795812863,0.293855437392513,-0.16809927828237503,1.83454974877973,0.3834481358827375,0.6454366023467617,-0.45236833956994094],[-0.15835849103405628,-0.04410214040044755,-0.6760440487421505,2.1110910271748096,1.2900639861126924,-0.009199542341931781,0.021774860513014548,-0.10878107970984843,-0.6862112775689387,0.3782229936533654,1.086366090785891,-0.07812264416681497],[0.047122393570372956,-0.6831034543769056,1.2946205605073897,-0.4341966415185134,-0.16792788648124232,0.7993250154432412,0.27165884925443917,-0.10176833413306814,-0.6339375987502336,0.7147617305814259,-0.10730784672727817,-0.26724168973669926],[0.7289544846042559,1.2160425548547025,0.3819791025406722,-0.22449352137153766,-0.5300747753853995,-0.5489165283832182,0.5906346728830856,-0.07378008340117788,1.0851846429522072,0.7128291837550983,0.07735339295077465,-0.2957727833403714],[0.2371429851058494,-0.34354351612823364,-0.3000824423420617,1.6450234229369443,2.257624494571195,0.6566992672551655,0.48227470070577266,0.3257126380692137,-0.3680036533918777,-0.22620616959133166,0.07519088266293852,0.2227856704161428],[0.3964991598006576,-0.7995881890744341,-0.3618636695784224,1.5872933811067924,1.6212726358426104,-0.11244243494475765,-0.21885970276886724,-0.09076386905875085,-0.6278649632270508,-0.10904823993054814,0.5465820923535144,0.25137125956874384],[0.5954257208832603,-0.7624310352303939,-0.3483128832359716,0.7908260268283025,1.6967536646449515,0.2620754078956808,-0.6244789064895033,0.3052317257311954,-0.08426545558766951,-0.0243421972994532,-0.11701678742808105,0.12181488735237883],[0.5844735215585777,0.9230500075917885,1.6112422652820448,-0.3591404871216655,-0.20067139652493332,0.23722350673200165,-0.8278417741214815,0.34402860816065767,2.669505062737637,0.6334712009944781,-0.7797349992859869,0.18672393489478162],[0.5507708813306315,-0.8628870849458405,-0.6228251852309286,0.30464734641803565,1.4048994328271809,0.7644901925215425,-0.6074194740621275,0.02298523932822903,-0.222769219182103,0.3213939081635582,0.1750197037396982,-0.04026795975378124],[0.2579192978604749,-0.24234026988287732,-0.28744600292616795,1.1348436652288483,1.3173736852560596,0.06106589647042787,0.2380516506846714,-0.39425253594835935,-0.18549578610658202,-0.39308458467092033,0.4434725094914065,0.13993595231984038],[0.23074865955961973,-0.25652737582964236,1.095232852760254,-0.3313853252469329,-0.24367446813448052,-0.3024456280898986,0.7611993139886243,0.885228973005936,0.8329071837663623,0.5315164215448764,-0.24361361064389522,0.4917805074116154],[-0.24969847934379147,-0.5317419470086092,-0.5670382386172932,1.0360309826477105,1.4020757887962103,-0.1368393340836635,0.012560491644043468,-0.17805211693010567,-0.18194217387416386,-0.1252545540529736,0.5999112232790206,-0.47674320197742603],[-0.32306248536707755,-0.6745112180886917,0.3493242804585883,-0.8017130990027409,-0.31113639828751466,0.7976712795549127,0.06598364853777566,-0.28409285101652687,-1.0455587391665886,-0.17350526019090698,0.13035995268767575,-0.5474979171963351],[0.5215221391968431,0.3174275381220593,2.061768958928039,-0.25705037402057435,-0.4855851475502472,0.1682503169476724,0.16065689383555706,0.34088755649314606,0.08636819725509426,-0.3113122184285204,-0.2075303422983529,0.7104123747775107],[-0.5741262036113082,0.5188340740020598,-0.8466831097441373,-0.1938561622252006,-0.61119676942861,0.7856529060912385,-0.5606871259002681,0.6313415924156569,1.7487034241972834,-0.5422085699487125,0.32569545718049137,0.5898029743974683],[0.42692711057203425,-0.5039610002020151,-0.022008583876148537,1.573677621514801,1.1992986057291042,0.20538992887333965,-0.1138524481316283,0.052775612936392054,-0.3650088864646402,0.11509538062710382,-0.23524656573495553,-0.011311507968844241],[-0.17084256478101698,-0.0805471983142899,-0.4744891195622529,-0.14022337832795387,-0.016871515174497698,0.3421251482160791,-0.3070046824673732,0.006097527114896781,1.9610485730898015,0.06362359048383348,-0.0601996332762203,0.4681012832269494],[0.08231256299639615,0.17487151576486212,0.6268134694123837,-0.39086566483279345,-0.9554221971011455,-0.2928333967545232,-0.44809246963203403,-0.31434933709224705,-0.08194143147060175,0.4117044996513489,-0.17438079691491418,0.932754413947065],[-0.17931457114497604,0.08276589056173726,-0.44480219100614227,1.7392568555873564,1.0852989368121229,0.15819792879212768,0.1596965356100728,0.15815057002215827,-0.557681545819895,0.18642945657602464,0.841417395335396,0.0348025078791081],[0.34539808170053504,0.2682591523320955,-0.3681971387936902,1.41491196319678,1.8565207994837503,0.02554956392394024,-0.7893681001609678,-0.2595247304196264,-0.4506948816009848,0.09692940750599324,0.5893380048418753,-0.3527594846102609],[-0.7880834866340004,0.22660997694261675,0.8575638306878299,-0.22422952710442115,0.3898412371012948,1.0452222819028236,0.05874314210102984,-0.33446339435182937,0.12637495780045435,-0.4018146999777227,0.10052601551053916,0.1524324499871386],[0.03070363351990607,0.24818034971356753,1.8144166401575719,0.07812298759668816,0.1639378275586925,0.4002054300425889,-0.2656409412634501,-0.6579224864955271,1.6943502623182365,0.3878193892254995,-0.6484126821420918,0.44714167935927013],[0.19485057506440587,0.31626903850747023,1.542743711968385,-0.37128474413222007,-0.431888410983189,-0.05878474189026106,-0.035457730881875794,0.3921874680257437,-0.4469763903284977,-0.08597928199155831,0.006296449794739266,0.19253182645944847],[0.6078361183815402,-0.27144450901395634,1.7037109710923863,0.408316516833007,-0.17036833590037517,-0.5541404851239196,0.5110003845546107,-0.13362183761779461,1.4234519777993142,0.6366164973848728,-0.1766315494959772,0.21881938589367414],[-0.07841975804063625,-0.29762242919910104,-0.7843927075729749,1.4537697004058654,-0.541043382290967,0.021971980546184027,-0.20872266099294823,0.16299481945601382,-0.09682017922378196,0.24293084554268032,0.16766136366740206,-0.37363097189622807],[-0.015205685733680233,-0.47574894043023247,-0.4505148047799991,-0.3691981116906425,-0.08340379537672447,-0.05748357258585576,0.002410799554687713,-0.5682749770799715,1.6958317939928607,0.41904711873777073,-0.07407067566595588,-0.1348222827853519],[0.6016425141614483,-0.45591785728173473,0.2958597284970119,-0.6140322989850248,-0.5528502082926737,0.6722021373674287,-0.192662702325556,-0.9893550403551085,0.15663097045145633,-0.6808673225409041,0.2586649754264966,-0.30919135028639544],[0.4131008676443304,0.2094903165422255,0.9295866137417571,-0.14693065381678458,-0.13428956442565287,-0.1772578203137987,-0.5045322359718273,-0.32514730208512205,-0.6311610784149012,0.4219421196760318,-0.34529346734914645,-0.01577871039377074],[-0.874035057761678,-0.7801824895393119,1.8237946879212854,-0.6683731047081157,-0.6250248265258305,0.6638842665574263,-0.006676757471853175,-0.11886504015835742,1.7715355149780367,0.6303796039613979,0.18432978393401153,1.0438005530407242],[-0.2703457095387462,0.6529473734937541,-0.4864364459530957,1.287990440006523,1.1677852567468663,-0.4629677777651048,-0.05994711826708079,-0.2604491296179172,-0.24318863828473658,-0.41446363946322956,0.04219041213252572,-0.013192400124827433],[0.5527998899462373,-0.5910836780296369,-1.008002009300342,1.4978367204425935,1.9448758256504293,0.34588254010598496,-0.0959768287042813,-0.0022572175717461406,-0.6848910283558024,0.1356877484163197,0.4437142397422552,0.6390804032563959],[-0.2501179041398088,0.44164928931456743,-0.22072617455279625,1.9342364600211381,-0.6472277147887014,-0.3969383443438006,-0.5072018375224882,0.5807899778075575,-0.3996494731558079,0.0363049387059688,0.6624141219044127,-0.1897462406049917],[0.10782277383976936,0.264518485504077,-0.40072865506892597,1.4259736410224317,1.3607494494264,-0.2657850510578196,-0.08037852729593471,-0.3183701278599979,-0.34377864348244724,-0.7116915283938242,1.0027090399348026,0.4606682098329231],[0.7688124683614731,0.44755013728498627,0.8996503599087373,-0.816341751218323,-1.1889739549800367,-0.34387431985372235,-0.23215088268521714,-0.1428464681914681,1.4882369190394924,0.6485133092378199,0.07642603322955738,0.3130081486923544],[-0.02940725652280207,-0.050688617300149445,0.086853843974828,-0.22867732435471905,-0.368158870878991,0.3678188063401869,-0.09932066836078353,-0.15554503618435697,-0.14234594953144786,-0.351423544385306,-0.3268777070715053,-0.3666378133485821],[0.03870275119976052,0.5157744945219934,0.3320807368066116,-0.35638016656510507,-0.2960344479205896,-0.02224594016844999,-0.33735957810686956,-0.18286335984050073,1.8403568811623945,0.007853669546192966,-0.2681020424249143,0.6986374973615253],[-1.933736672934813,0.5988902243252916,-0.9955918800724447,1.9061371587380902,0.513604345556135,-0.6275884182546823,0.762849888743185,-0.4585212838457081,-0.7718270651281859,0.6154064658191035,0.0646714037432405,0.5878022896764323],[0.4869734654214652,-0.6921198507160151,-0.6403637135130791,1.0434569841130659,1.6531061544287318,0.11312220258405115,-0.5955609351972829,0.7560981247524579,-0.15683522369755465,-0.4446712622103678,0.39442728297329727,0.4330641288987888],[-0.32405218158903265,-0.5088765881113317,0.2796210434325268,-0.22990334528807427,0.6585378469533355,-0.22092047109184207,-0.17262793447929994,-0.4639946143994372,-0.6301742584154323,0.13878748562495843,-0.6428446122943211,-0.2780625890362124],[0.4989669427305683,-0.22569695515376886,-0.099462725633694,-0.6422104980036871,-0.13876605696969432,0.6078959338956229,-0.14727396337795406,-0.4161142465302896,-0.4901037112802767,-0.2590037033118204,-0.5020836021080578,0.09366905272719735],[-0.19567619438266584,-0.37788495856466753,-0.0054278586291892205,-0.31110680566745896,-0.46743581025201053,0.835060503976855,-0.40699790421835796,0.009230416287839716,-0.2909770310450971,-0.5692843354517536,0.8243886195512721,-0.4119170886402461],[0.6297373111646094,0.7904792508378949,1.9058013478995015,-0.8646384660285481,-0.9931611956658388,-0.40281656646134495,-0.33115905338313917,-0.3776175438310805,1.4054936886810592,0.39634567011846705,-0.10518567949058903,0.6825978802970617],[0.9110189256456322,-0.296671193992438,-0.0023692264943622862,0.9293443404959538,0.7510580303011832,0.6522108594403521,-0.6470661501517817,0.36700351834857864,-0.24740500559731873,-0.18419328121697842,0.27078572507048326,-0.7184378122466017],[0.12515284392191314,-0.5690747816713262,-1.036912112883271,1.8017040243259523,1.2096136510607771,-0.2974162323516003,-0.15832758243676012,-0.22664828304866505,-1.027330626904183,0.2015352795796179,1.6027360472102112,0.5933274693036477],[-0.08678369946403441,-0.11426496382723228,-0.4372604961204312,-0.21224257695775933,-0.580371642739379,0.15764195165946362,-0.29559961153908065,-0.011507710139811526,2.1120556189434927,0.09681834218288411,0.135183667245841,-0.31323857611400574],[-0.12108169450406375,-0.15430500059924002,-0.5961073310199048,1.4917051195068505,1.5767545017517999,-0.1033470195736036,-0.3826984095672711,0.05811794949819207,-0.7286569875037358,0.5804369581097174,0.8635781089558285,-0.17497488418419974],[0.5029868274675862,0.2771761268378194,1.3756741005772137,-0.0996915681967655,-0.5362563031556337,-0.16498155980659063,0.28347460589220025,0.7707127294511876,0.14943403361459578,0.1723122468075437,0.046650304843409235,-0.06461565679495306],[-0.11503122467114997,-0.25036760972015243,-0.8073381140103505,1.098609954735428,1.592258312709644,-0.4347179770613353,-0.25861543702370476,-0.3058151003174588,-0.6280893722559947,0.12698309219549916,0.7909314092832137,0.3052131814012077],[0.25090687751464785,0.2358731616896457,1.0032117621067342,-0.18109433579377085,0.04245156739701833,0.4568262915647103,1.0480081107381318,0.5819602437655682,1.8122634740913042,0.2540103908526304,-0.4323125348343002,0.03832052248882211],[0.08371222767007844,0.32115897050200276,0.6904330999297468,-0.3130827926096978,-0.34040585916794874,0.3057019100886054,-0.2200887806886346,0.6196562106874531,1.425693927066647,0.6011656151426277,-0.07983094679913945,0.3831810331902145],[0.42698582370925264,-0.9682481031469479,0.7085460174950106,-0.29352510788126607,0.13018697002614213,-0.39670025611574233,0.48787893566291785,0.01328127282395745,1.4973446608566132,0.5725859307437264,0.028003570457859027,-0.5678273591108682],[-0.713585909686067,-0.8541305802714212,1.7505258873696037,-0.5374860321647059,-0.7299920197248826,0.6025869840981406,-0.42446072958923303,-0.5055137740129577,2.0933133380056135,-0.044130258608049124,0.4213709165809471,0.32472228149832877],[0.10913149546910729,0.05859105746692198,1.7387354964276098,-0.29427047976677667,-0.44553076088292853,0.47324493353922614,0.22777621619485516,-0.28210137310151223,1.9173615959998975,0.12157158990057741,-0.19694687965460275,-0.1502295452219435],[0.06831067083858783,-0.316336853234459,-0.20142648453448672,0.3398840008413221,-0.06410873845304332,0.19757362418422938,0.32192619217305385,-0.26290127135250557,-0.059080723825550484,-0.3089875839626099,-0.20280040632892968,0.6695098604493647]],"bias":[0.21536360588569145,0.06274765711808017,0.021397517211741927,0.4216376874406035,0.07444206269968497,0.369265868046541,0.2025589581223375,0.07931261750919197,-0.027562317847948253,0.027564589715765992,0.18023509621543243,0.2261193987753379,0.17104909788266814,0.11298086805877132,0.05995961413947267,0.21925255511443442,0.06170401833125802,0.26854026844496465,0.05743381785711739,0.059404663725347744,-0.023140315271085975,0.09703137976427409,-0.005143177944385133,0.0861492576462529,0.16108797062067115,0,0.0795442562172693,0.3657212422925005,0.1677552775178065,-0.04996965705946849,0.2099948171935647,-0.11115573671621146,0.11433863310878943,0.4593277871937574,-0.004651081939360723,0.08995665463257466,0.23031441668531627,0.02594410483942253,0.013207835029000966,0.18871134971284856,0.24090194495897665,-0.03489272249584957,0.0959790403843886,0.1250766078098277,0.03667838124789168,0.06000222294995748,0.19257447204366715,0.2252469695899913,0.28900210620232264,0.22058407176299624,0.09140129614423943,-0.0015390007028833238,0.10583514850825637,0.024948439697124753,0.2595864188566967,0.04110674284558215,-0.2370620838704645,0.3299040159027434,-0.03162563528590609,0.11502806039274364,0.07781549001047028,0.2163520814067089,-0.10040544351587818,0,0.002055113518788375,0.17960274053216266,0.38738512282431586,0.3128590984148881,0.12769888442921995,0.04939033793036116,0.1632919259288974,0.25816480501363387,-0.052900875624482806,0.011401213678368369,0.05875638488792779,0.23832199126902257,0.15513006096911408,-0.0002519731753066773,0.08820878972530008,0.12109165842015526,0.09577101009683202,0.07364086375736087,-0.016862284763424617,0.12485352149883996,-0.023707249545841344,0.04611180472066573,0.15104480260934458,0.07654774816960619,0.15507032457757716,0.028165789925761485,0.10036083859160463,0.08105027212077547,0.17199933568060205,0.37554179212474487,0.2313967533238102,0.15554571857946572,0.09763367472879025,0.02750243930220895,0.08616080657475977,0.1589827624039278,-0.029134120655409206,-0.0736065856722204,0.10012318928084049,0.03287032127939784,0.034332494605788084,0.32023374149755646,0.2208119256215816,0.08223111207484952,-0.05365675163985845,0.18629821131557645,0.11425354061097004,0.11487053058217754,0,0.014683688576550977,0.02764930251478257,0.157237733460651,0.08521658046573083,0.19696621974129253,0.10438185871464174,0.2686487808548806,-0.027478931498123173,0.1981834135615887,0.07033232115005612,0.021286967967930996,0.07377659405169111,0.337737384961767,0.20113528296942407,-0.06293927481391422],"neuron_size":128,"input_size":12},{"weights":[[0.2049041052562636,0.24204427026930203,-0.05332526547169901,0.381180093846156,-0.09202694971577578,-0.4442554573163119,0.34773617906194776,0.27887894256569296,0.11481083265641256,-0.08324020816253161,-0.1523567212579466,0.21789945869591437,0.3460624964764298,-0.1928190069065498,-0.17895174986519546,0.30601009552278047,-0.24459804021213,0.2367276177970845,-0.26700601916834665,-0.08771556282728071,0.19232059995520442,0.09303812177954707,0.10734872913166794,0.24902788643097426,-0.1824498118290631,-0.2943567431477955,0.15217593421469813,0.5592590704976852,-0.17681407517206238,0.08012702994900925,-0.3015375825366369,0.020957355537541706,0.19912004042045398,-0.5712828366402349,-0.10416851482660543,-0.31265436478341946,-0.21029804139582667,-0.0761821579421311,-0.2519036490843349,-0.16330696582117427,-0.24974442238125896,-0.08559063795277083,0.277819186850379,0.11771884547040509,-0.13818987423940476,0.0801566807123732,0.18868715209733178,-0.16664125148870906,-0.2561305950360289,-0.2619638057484524,-0.19283131237568432,-0.048002881481976255,-0.26889022678625474,-0.12817526872736387,0.2646582829402633,0.28305689802219947,0.010554654909062275,0.41506926029408064,0.018975808838189813,-0.19299482829806036,0.1436095498085421,0.27914793790161374,-0.010340616409961038,0.16515743689645598,0.04086554846071436,0.1734333805925555,-0.3536978294571232,-0.36155882635156594,-0.31117847260387044,-0.16377000817174814,-0.16646674211483117,0.4104137717758198,0.2252807385340953,0.16519763495410697,0.07101030238000088,-0.43464379974768425,0.2963632290841585,0.1423847000098059,-0.2667993103415327,-0.14136093085469742,-0.1286854767009751,0.17369009445345387,-0.1887864099966496,-0.17068070254689344,0.023294075636252836,-0.1269588925282773,0.20582549169307432,0.07512580100452568,0.21818582169810968,-0.11847537330790084,0.23028175275895146,0.1606432391016472,-0.15784528482135074,-0.34159447615988014,0.31442967573317493,0.1969894712376098,0.10155920825033754,0.13845685935578317,-0.1643641379588012,0.1973770217011457,-0.09732669530862671,0.06685055545831534,0.13035816762622288,-0.09852692304960546,-0.10528432866373168,-0.3565952871036327,-0.21931656913520223,0.1104449409171243,-0.027584334165933415,0.24527149862025574,-0.30566482146248525,-0.14291949671909027,-0.16712230236164885,-0.2103962385850894,0.22853037223116401,0.19909870458455672,-0.17784353828598354,-0.1715451507768254,0.16361418643891193,-0.36216064960967564,0.06727255794513812,-0.39980574554035964,0.2531084142372417,0.04091379802582551,0.10215415818795023,0.45183317537588086,0.35268362057885816,-0.08925547823090024]],"bias":[-0.011255779710695763],"neuron_size":1,"input_size":128}]}