{"layers":[{"weights":[[-0.03806615051022681,0.11235159464422996,-0.5094242537127204,-0.12041469631811569,0.17659571080361997,0.968959161171276,0.5109426506390254,0.3560654137255906,0.38677682750740916],[-0.5511322700972459,-0.030730839788245885,0.2583322599123285,0.25861817596500347,-0.7705582160953307,0.19960913568735367,-0.1540196593662766,-0.44137333325141215,0.24165943600217227],[0.05151850084036455,-0.10990062330172709,-0.9874194205133433,-0.3277067182589851,-0.30674998623457833,-0.2932229425349223,0.11620137689100903,-1.5775955866049427,-0.01837827484733821],[0.41544787386057286,0.7754189283119662,-0.2562630485207468,-0.36164966048898545,-0.30604147805874515,0.7321969183554596,0.34929219231654723,0.5952219581450431,0.5492751987318537],[-0.5686261465427627,-0.8095479423676659,0.39376476599363935,-0.46584073413214216,0.3026110972604398,0.48496594562172834,0.15073268856750685,-0.22628284670423712,-0.062181255240218766],[0.21383795859362,-0.5812243000044879,-0.17783141111801326,-0.6072439645066128,-0.5459620947065511,0.026055850898134933,0.18791199318928511,-0.3680348422160498,0.1496619781633974],[0.37111140957496225,0.15543226316077532,-0.10608967123310555,0.5994485394621034,-0.06827163474113404,0.6154268858430647,0.34434311719413063,1.0251018037864812,-0.04582337952693721],[-0.2908921937726863,-0.11027491373788943,-0.6107383039951535,0.11583230387333088,0.10301212624271341,0.5878042798504406,-0.708281696185811,-0.02226995224799133,-0.06047692344188901],[-0.2960789004965272,-0.290911633416744,-0.08360327496872885,-0.8759899110979036,0.08312436725760575,-0.43602056927559407,-0.11441854276846265,-0.20031552438190434,1.0004233552739359],[0.19961161173975112,0.039616010029502935,-0.08409427574239331,0.7689203661809376,0.2047430174157856,-0.21845069855855814,0.5381437835937001,0.2933912180151516,1.1653668871114415],[0.22426524400491923,-0.38200737662404904,0.025974948371448973,0.08195922293246515,0.3705633163166119,0.35651903163150706,0.2788291433655169,-0.1883237322413512,-0.04627585343451408],[-0.6729824874624286,0.47180374003564834,-0.058939007783307955,-0.08268840222323864,-0.34388886112166045,-0.2953838433206139,-0.4616267089452946,-1.2454799724647414,-0.007076258890924012],[-0.6236614657672248,-0.6104107072207954,-0.1825949050829546,0.5458466947004976,0.8741089913361836,-0.12576166626295482,0.01610369556879952,-0.23525182525565358,0.08993499289705278],[-0.40035444206110005,-0.20509306432475016,-0.16776767033403256,-0.6080976228670399,-0.5606806642071673,-0.7093132215911534,0.555402934886009,0.831094475829021,0.4937394192677841],[0.03480896069498399,-0.397676360088325,0.09631011534854118,0.48980961354202923,0.06222012594520268,-0.07311205351721789,0.3126960168306837,-0.6243357709834935,-0.39572605988698534],[-0.18202366731124173,-0.3117165841514994,-0.2667032750987404,0.6360838593190606,0.11637312928659702,-0.5564063482080724,0.08817561720835664,-0.4950075740806295,-1.8318638680050292],[0.34421965588338854,-0.007559399682027975,-0.034028328566455227,-0.09223597432087051,-0.11865813235954535,0.3264087285722619,0.09244698344256141,0.02950827296234533,-1.0870982545590835],[-0.6751074313735643,-1.2143945559109828,0.23750087693152838,0.5107209531051823,-0.10387731375686254,-0.001884634177912033,-0.41144545844089203,0.689264976920075,0.6678492745526534],[0.32767170126121803,0.08834932411483432,-0.6971756388677203,0.7039912374629581,0.5529183092589288,0.7237606399464404,0.04465306689744664,0.9343283466023059,-0.10438933629849251],[-0.004094871646009888,0.234931289468127,0.08883642297940963,-0.022727846800659753,-0.23115807501189545,-0.6956038528462595,-0.018970800037875143,-0.09566660094261967,-0.07982773807786889],[0.1057934748666415,-0.305516066125739,-0.17108869181181932,-0.007881812145732156,-0.3476340356639612,0.35399512623177787,-0.13741946508137523,-0.138099945077648,-0.16300232300997328],[0.5955931988985587,-0.30466494174072006,0.8812839575333683,-0.040233408787525404,-0.3082179477878826,-0.5004249344591035,-0.34257174063068296,0.2992005685356492,-0.5662187819406231],[0.3319068542007135,0.1825994011120247,0.46538534191578923,0.4625859397122179,-0.6051235265009155,0.4078919545614043,1.36224130250085,0.7707841732732469,-0.20219232071919285],[-1.1507323098344329,-0.3365631805678882,-0.34772608607411987,-0.1709718970957362,-0.3940364104923373,-0.585822956104617,0.28599033204926966,-0.5575833628332952,0.1582110987761513],[-0.6111050501166638,-0.6915781923812583,-0.6753322240905593,-0.09618756123676422,0.09135238111320036,0.08753691647382274,-0.8518216022166339,0.09460926113488033,-0.5224530597787533],[-0.15493777597650205,0.18096098060107865,-0.026090880047437943,-0.30736971367332516,-0.5064393774859801,-0.5380813309355489,0.7160809399652194,-0.132820964140513,0.067141802576739],[0.38165366941822326,0.053453630795952015,-0.5869310056682542,-0.26133437505930845,0.3397495980262731,-0.4481633911868825,0.8115300028349341,-0.9677751862397902,-0.12270006996755209],[0.28675429584379897,0.07736501135172305,-0.9155685716277557,-0.16117517139292684,-0.9201795951137802,0.16549284443583856,0.12844111998827648,-0.3277903010451273,0.1590186468793922],[-0.6229086075534593,-0.6042641520624495,-0.10271502483581091,-0.16005933953792814,-0.0005481990001364838,-0.4457690922716331,-0.14427473688880116,0.1461254333394582,-0.7878109954979807],[-0.3289183819637906,0.6707768702482307,0.4298432348436328,0.05245958665007583,0.17434755848823538,0.03875749804903556,-0.38079716160135824,-0.5192102487557059,0.08865548806329804],[-0.3533458355299173,0.37495971151396706,0.15912419928677277,0.1760723276579123,-0.12442758096078384,0.6718179387465504,-0.6029066538381911,-0.2802039190423324,0.065214103717517],[0.188816993328688,0.8230241702147467,0.3127048545919928,0.17056922541111708,0.2302448040406219,0.08822927533645049,0.22857245409298035,0.6138010411383787,0.707619727231853],[-0.49774124600390107,-0.5241971122435088,-0.41815635867500334,0.09743120938041262,0.4226159390958393,-0.2531518495567283,-1.0764916078887863,0.027825172099822784,-0.43499408807198947],[-0.2181697321928857,-0.1694268494211328,0.5829295362740093,-0.5826531983182468,0.25266267839020207,0.21249326646858918,-0.5727014519064838,-0.6273442326939935,0.5410934098595381],[-0.731120177620117,-0.4061026785769347,-0.7575076352840356,-0.9511279536921449,-0.3270075739161951,0.5786739057514418,-0.23839606036391497,0.23340268837678596,-0.6056504010710032],[0.20309165043170288,-0.4647588987678985,-0.4396862538033552,-0.034531093606565866,-0.12445874936067398,-0.512521420361506,-0.4410713585270648,-0.09184731549306697,-0.09953662438148053],[0.05858021681092972,-0.5203928824947356,0.3045138338114423,0.008721483818521045,0.2135616192900444,0.2032037058091397,-0.237026015043403,-0.5599504327512492,0.22309796971435922],[-0.1445265099817808,0.034776868935324244,0.7079048371190415,1.0718957574535457,0.46169961223650013,-0.26087594228567174,0.36675346321553476,0.15509825462789525,0.07630228731676592],[-0.4268515124700111,-0.3744236761604443,-0.21009664224754812,0.774620829397111,-1.3692081654589927,0.11678766126231807,0.010361952400768164,0.18160297123709337,-0.5336930113317515],[0.5825059606199542,0.5106801525307112,-0.5205581974686092,0.1666810529078979,-0.5186816971408357,0.6885225267720586,-0.14700540649084548,0.7548000302453698,0.3157601756573669],[-0.16802876177320203,1.1264690139142206,0.3427984360166943,0.08095125390431147,0.082993428810379,0.4932130485175894,0.8082223909912547,1.000625010762555,0.8639732559652815],[-0.17576800303589094,0.2254284641844408,-0.44544130483329974,-0.6894973218832023,-1.1412065556028623,-0.9930940290199098,-0.6707718400491671,-0.4291701336444583,0.6357465293124767],[-0.2560625052550929,-0.3730303989548822,0.48472738986972813,0.6418791908648243,-0.26334946905717815,-0.09235523721785646,0.45738376653456475,0.37342194974691156,0.8126185849352844],[-0.64645572247547,0.7756382448833227,-0.20724596491954897,-0.3067127533109652,0.4736236407080608,-0.345325524642819,-0.7512305710634029,-0.051026042244654665,0.35112991424401946],[0.15440624934440692,0.3333545717691959,-0.41300913154142455,-0.008297716225461214,0.636063497516256,-0.8115779800377322,-0.43348479078145336,-0.45955426784703235,-0.5851809629222564],[0.28058276846468766,-0.4946773369735223,-0.8990262572492388,0.0249367895729957,-0.12534766328786398,-0.6637641013511527,-0.30457765072588944,0.0362599955330832,0.5407932242769767],[-1.0476299491403758,-0.14805483576294032,-1.105337606665577,-0.5994251700157389,0.07792916952487176,0.6522836316501159,-0.4859586213234895,0.0005509521232289135,-0.25052644738189245],[-0.8978331289938701,-0.5224090180390095,0.4209668145365704,-0.7045796153577107,0.13717590179981035,-0.2382124231907596,0.20265088199716097,-0.3055797965430231,-0.53438179044232],[0.12191624793133057,-0.38167194240729174,0.19301785771334967,0.2368524735716798,-0.10535923610544064,0.027449002479911083,-0.20254028066682228,0.04464516144527236,-0.3512635407278267],[0.5695499160798673,-0.9926259714006024,0.05011850770490414,-0.26653471027853404,-0.8710399364604481,-0.2597972124483982,-0.19425217696757233,0.44912132904762664,-0.6966484823487846],[-0.019939233892909414,0.450422741311463,-0.6445857242821826,1.0583106577416521,0.13197187153535503,0.08348507420345726,0.2730187823292362,0.02939369024581171,0.1449683517495336],[0.41753081501470407,1.2477163850025315,-0.10211359402865317,-0.6025270669014379,0.6984938467889023,0.30636881026162566,0.7282480545516921,0.6829847350452253,-0.3838184054198919],[-0.8531702030942357,0.2890447919101601,-0.8498322300387505,-0.4876680227307544,-0.8257465605483105,-0.36849487297125655,0.527291814150898,-0.5270054449209116,0.30822992704398827],[1.0719108447676526,-0.17866925540540993,-0.406057884097652,0.7478800410200497,-0.07037195775273518,-0.32144903493869914,-0.33069052974410046,-0.5504314253159333,-0.05234192211016046],[0.3578528049046386,0.6634764510455332,-0.6492276924715522,-0.10379531467610376,0.5229430462963535,0.010557132070867947,-0.2468037470961155,0.5905767314980268,0.013668571070674056],[0.1260267212916443,-0.7844039938025539,-0.066854475249856,-0.034986407328702514,0.571880047824342,-0.7151818846875577,-0.21927271072566387,0.3277630293679123,-1.2902485163803503],[0.7361773582310449,0.23144699087909854,-0.05058339685655384,0.15671113421357857,0.31513338951396125,0.2629192169493668,0.40953766757285776,0.4156049300690404,0.24500284079844323],[-0.9492250645045296,0.1364833807353916,0.5346197233834291,0.5279733201792765,0.3227929630654387,-0.659184600509099,0.07519970166959475,-0.24494428376041544,-0.5140327902017064],[-0.46165222359712615,-0.2274609008406747,-1.0391197689741904,0.2134933216652866,-0.013060999138067025,0.10447249766026957,0.37762484986622435,0.5536603148621683,-0.13725618323195038],[-0.0306909482246862,0.4331538713518423,0.37670266024703075,0.6806650414385002,-0.5537226559682074,0.74360392080593,0.5286966472622536,-0.08757129466151212,0.3134541758807226],[0.42400701406727676,0.25108170262133417,0.37794702864466606,-0.367634703388625,0.5823033686158055,-0.14524713450159632,-0.28960537444561846,0.02955878006138241,0.7974279135799877],[0.26845633228326393,0.48328508169004264,0.4085731693822542,0.15818664486181006,-0.734880084132081,-0.07786426226944845,0.61772175212336,0.3152419640598068,0.6777643521474788],[0.21030957314433976,-0.30480730563179403,-0.05569526511043001,-0.08567623551206731,-0.536376488353543,0.35378152338850677,-0.28409990648795297,-0.5249328438090464,0.7438412228865352],[0.02512809701115527,0.3510166977163878,-0.526396022443521,0.6185290773754295,0.7628478212489367,-0.4156944836684075,-0.19753923604740062,0.07008545602834852,-0.29021713242475394],[-1.1051916373128656,-0.18815836038403522,-0.17516926183049436,-0.6753200285939434,0.11667380792597377,0.10373422076599863,-0.04605440889628167,-0.19841216496098094,0.3509095217421627],[0.3950740596347913,-0.13433248479812718,-0.7799037429975323,0.1566090990259898,1.4018293009621396,0.8182911941294054,0.2416406428053936,0.7029850672532383,-0.20011037318940716],[-0.06669502020192551,0.2645925979215526,0.35036440859302526,-0.37405841834718406,-0.04073334088772994,0.13512920932909417,0.2925975406633395,-0.3917183656895517,-0.476304271755301],[-0.11689158148948,0.08726072394529462,-0.7458551398329237,0.06689724376414105,-0.04043827829007065,0.3663505580319022,0.5640216949721646,-0.774737487180317,-0.9944368593582794],[0.2084173819171013,-0.361312410960181,-0.3264857309391224,0.3009862993987153,0.13179499929923982,0.6072469609838725,-1.2408019071361422,-0.0978667672950703,-0.6735973493672273],[0.582299689810155,-0.3941896576622671,-0.10204908618253804,-0.49007899746328104,-0.45814193728192004,-0.0004122477514782034,-0.0960093610013984,-0.1458228260962697,-0.2695805076038262],[0.15449962414862656,0.42380629581583795,-0.11933933749039563,-0.31681978168983577,0.11052849157390349,0.40257123740259954,-0.7544540001274985,0.4783389530997816,-0.2261092905303656],[0.16439289633119658,0.02812947254965957,0.04917326706438959,-0.2927580632587076,-0.3285881306839578,1.1280415211325243,0.10744970499295159,1.1570380415271402,0.6036496293655969],[-0.5919053164449519,0.05103417982318879,0.34250314581600877,-0.5858174212893217,0.018147093478461426,0.36464482573835794,-0.7020278048122894,0.2867634455100853,-0.6708472334267688],[-0.1480482512100688,0.04317186084242326,0.002542966516404925,0.09577600456267334,0.11530553216462547,0.006546460931441967,0.19980917297868828,-0.11911463842158138,0.08029792224857002],[0.021574660762449314,-0.807339873125714,-0.28402900796133723,0.08941505230858666,0.006677481569499718,-0.19523911795593496,-0.08968066478832158,-0.021430461895004253,0.2970446238955439],[-0.5455217272385723,0.30725811879877557,-0.031517067644174224,-0.2178427824966969,-0.25373924324876707,-0.4338281747508525,-0.5566125654587478,0.3395535672725392,-0.27511090581278214],[-0.6158418796667502,0.017458653129195787,-0.8531319909182921,-0.7632237921037528,0.15427913664402143,0.2291674106513881,0.6581429074641072,0.8284978984253817,-0.315543985721626],[-0.08769748653934614,0.13097852675637486,-0.9490870658559744,0.5432905391009516,-0.030896479543650823,0.599332025194015,-0.500960544841669,-0.05928754027648954,-0.6563658556070755],[-0.300905719894193,-0.8833986746557829,0.674851120626846,0.4116449241507796,0.7491822878440083,-0.3001691208708576,0.1852650613451171,-0.24061757416975893,-0.3774837268140097],[-0.22756517759171094,0.8105684961760725,0.8403058976740782,0.5894903613135674,0.1519828122984805,-0.740962904055025,1.2380625758378878,0.43710211065704113,0.3170904027151012],[0.2275079809914441,0.6048196461099712,-0.031966198398857885,0.23894830296128547,0.4234697910666728,-0.12406309127500321,0.7874006166342916,0.6880015530178364,-0.09555066087837184],[-0.017060268422114874,0.03903593286236639,-0.5769589716645351,-0.3624667919938072,-0.7214716815950218,0.9713791675837951,0.2771288531862329,-0.6115242669020728,0.11934761561716095],[0.23058588254432225,0.6327879664652458,0.9714971429128886,0.24478271118432718,-0.06042091648843042,-0.8144306965526865,0.12830877035068586,0.5607985750657436,-0.8751528306032387],[-0.023149829684579685,0.2939908313240118,-0.4923506856753036,0.5652581755767498,0.11512012617821396,0.02082033245936149,-0.5737504939907583,0.2687199603550167,-1.0128898469545051],[0.886167668672937,0.6796215762905631,-0.2380938852463935,0.15725895105068208,-0.27165435113398184,0.631242826627021,0.33993181679898016,0.9826767352720819,0.3701709806208645],[0.14774415474133698,-0.7842392954536053,0.19816954640788284,-0.101208694100866,0.043004842979907296,-0.8299258601647945,-0.43322021568192687,1.0402891963867755,-0.4624414599118046],[-0.4166722423914758,-0.33181240234894693,-0.30541224814475393,-0.6612815047370475,-1.1721716951020003,0.02540727244748831,-0.4108838582630896,-0.06606281097816334,-0.35976532893981666],[-0.08955039134452254,0.8977023356758392,0.18399714894689526,0.19820805937665306,-0.32087391429141354,-0.8765860738492633,0.5865357743690968,0.08933613430927054,0.5241149271270221],[-0.828132915456432,-0.5853376932920294,0.15850965580578322,0.05366598378554968,-0.6058611417199973,0.3663331293316214,-0.0039774862467948134,-0.211473654993314,0.3111628078204516],[0.50288446378767,-0.015235656899635758,-0.16107386400692492,-0.37746262554391896,0.3395255664699312,-0.764255730327755,-0.34246515103572805,0.07971200813958908,-0.15203145284266475],[-0.8320965650440677,0.1311431229933223,0.20809657342970778,0.24979799049947277,0.06561313612454157,-1.0777060017937237,-0.36767717718484527,0.45730638289401965,0.32251457022754904],[0.39976790042197347,0.4589460110681417,-0.4843878898729754,-0.3505228575658356,-0.18743567745726314,-0.1363110706459813,-0.1275468971202976,-0.15957010548583728,-0.8805533178605999],[0.23035915606862412,-0.11353419584275612,-0.8079491858167067,-0.30562654400207434,-0.25860844522756693,-0.19949821250055,-0.566815898816923,-0.19168738820256565,-0.13632424366598453],[-0.2531152297844481,-0.624862134239843,-0.2752182421921946,-0.29659512837696456,-0.20207944327492208,-0.6534703447071727,-0.35979476144176287,-0.23794614120783766,0.3199608394220753],[-0.1177676725197808,0.43273808372712086,0.7318993607494014,1.2007606269048585,-0.4262713544292838,0.14551859430014152,0.3264160090841238,-0.6615869449336896,-0.7105146430454689],[-0.39173862667001647,0.7779563639624335,0.0031476494702858066,0.2739065651259254,-0.554395355360898,0.271792536585469,0.03944092307667987,1.251435399036603,0.686601951605616],[0.0019519786500955287,0.1702020397288193,0.31777583268184784,-0.46288607602069415,-0.9840558678656639,-0.2170259310583988,0.021557093986556607,-0.422198756025089,-0.24744739738300087],[-0.3367270834854485,0.24254146078712108,-0.8366346494399691,0.09155140115856547,-0.5586525037053337,-0.014865793280195364,-0.027114129468735645,-0.10284790468317108,-0.9806626671646983],[0.021072987328715903,-0.6859135708614041,-0.19036584535847015,-1.0765582825222102,0.359183393881935,-0.6341261344611494,0.051984818111358536,-0.294863786713593,0.20337692203372462],[-0.7739298197119188,0.4533978539236384,-0.25822132565517975,-0.4107359912868788,0.3585311213353791,-0.027595808195521484,-0.28848890787287873,-0.6468315166241628,0.22045410439023477],[0.37313454816570335,0.21511732494943672,0.16306492207335668,0.030928640995988924,0.2918908307033216,-0.45781077186372865,0.4114941158146705,0.37633059381552353,0.265264614374594],[0.2558300715115611,0.6693548410162541,0.012950057707588947,-0.27070777258691114,-0.603849819273011,-0.6118777951036289,0.2906699533775762,-0.34228614607101376,-0.28295504704561114],[0.14895392382844092,0.3183633898025063,0.018558114102922515,0.15387950408434206,0.24020117789225517,0.10024176841600721,0.3728551102708689,0.34728762854449585,0.14019854468765305],[0.12223835020453534,-0.11596038232038121,-0.2709431826317013,0.493248629742059,-0.6361010431051473,0.12644582305216281,-0.14353249829838208,-0.50620766246128,-0.03720249493834639],[0.15074344283477545,-0.2696634693414727,-0.049443715760442215,0.4675391294922917,-0.9004404842269516,-0.4095363101781685,-0.5848360704599599,0.4896600846782656,-0.5973033027909447],[-0.2697639297349344,0.14336657497786312,-0.1688756571144275,0.08024805380768993,0.04732601245379769,0.3603252649542083,0.2804266789990233,0.022402552271167334,-0.8342993829735305],[0.23486900794342727,-0.2195035462611271,-0.5577295730376851,-0.8097905004802755,0.8936188297930396,0.0966769760510949,-0.026888041381316903,-0.08533356611774683,-0.6122094851456928],[-0.9657858920176021,-1.0071968945161003,-0.8310825559267415,0.7074562095856021,-0.018518255471934555,-0.08362779370084814,0.3328934308559333,0.5227701804705955,-0.3612168500044998],[-0.06940195317334164,-0.1560482473328154,0.31017213293193435,-0.19409772947456783,-0.33423955222074603,-0.20424600962084113,-0.19226522375915317,0.27661937312829726,0.19444473391391462],[0.023014460684718643,-0.5466312995564886,-0.11455991339295372,-0.4249698321725789,-0.08595146057947783,0.5385205305080145,0.13290055788795807,0.6896041610624187,-0.32216914432513205],[-0.9744821407551237,0.43171734307730014,-0.2458885951758237,-0.01270272695133377,-0.39662374124974636,0.05906990798656534,0.2911102494002936,0.37955821735358786,-0.17612202665196772],[-0.9074308674016365,0.096014503162052,-0.25977295119121985,0.469146417193945,0.5046324338188725,0.4232682409888654,0.3593078014436306,-0.3118383099050144,0.061148095737035106],[0.4882482341931391,-0.814387557377368,0.24841029778308096,0.4867946410460852,0.44925433245259766,-0.3285977801625115,0.5986231201256026,-0.3487183466008937,0.6495991093104424],[-0.08857777296190063,0.8825695347381028,-0.24089749394272933,0.0656917945504282,-0.5337681401550859,0.5680559393082609,-0.42750662088193986,-0.02465474761175665,-0.5912671497120345],[0.5278010916619149,0.8276046941261609,1.1368000848501498,-0.030181877513820243,0.5799029024834899,-0.36076770802654556,0.39812896548175003,0.4292705530033596,0.7729454555870269],[-0.9524151338074384,0.06107173677000923,0.02941128336214614,-1.0734176472423014,-0.08788009644825111,0.2399232984817178,0.43133986492698995,0.23359280284511677,-0.4569062409143648],[-0.14280140830002475,-0.07150096103600942,0.8969229787557726,-0.8786056113694456,-1.5489029464287185,0.3044746047327592,0.5509453205488137,-0.6280085379054555,-0.2575074146674626],[0.2788034556007191,0.11470481663378933,0.4676602934416043,0.05053210073091146,-0.0143737800927954,0.10806075155095732,0.7012770876422924,0.6637849695168802,0.34136147064871386],[0.40594734058085086,-0.341433550433219,0.18115605388161116,-0.3722972865150532,-0.2361593695873778,0.6375826123770806,0.006712045413990185,-0.6435492020253056,0.044635216154512374],[0.18942213599564284,0.5584667486748954,0.1463606222886272,-0.6815876745099153,0.7875179557534454,0.13395126829777043,0.4863311916474013,-0.8935876602627391,-0.6033934070320999],[0.209789490850359,0.19449352697808642,0.21015805741077057,0.19936655285765506,-0.1260491239407285,-0.940628950895982,-0.6556601453479268,-0.6917073393873262,0.20203161321376037],[-0.7181439499908476,0.12479373287136115,0.3621529039063621,0.04736372921568438,-0.8854507346058266,0.5080990154573379,0.3305692064786112,-0.23962533877668693,0.01960882625981455],[-0.517511658804348,-0.9108961586671169,-0.5773462802775953,-0.4624396127825397,0.16766530075021216,-1.4383198842205773,-0.7422370800704661,0.0860275031677927,-0.389729848548353],[-0.09959932314828061,0.4513995444950024,0.10155681131820628,-0.5897900916982806,-0.34450879358863945,0.02913533904526371,-0.4119763382785989,-0.477785499891447,0.8376490161986722],[0.5054157317632908,-0.021867470039624033,-0.13785912050623342,-0.43211220105077236,0.7387296715451785,-0.33929599174348474,-0.3217744049739621,-0.3023619727597104,-0.16100972136321484],[0.2969671840694695,0.4939673855439895,0.8138186200707156,0.3785640268853624,-0.01133345056635466,0.3867379049956314,0.726350134855073,0.9460456474523505,0.23379557818899457],[0.1723543082652811,0.18863969395909247,-1.7543111919672492,-0.5429545627709427,-0.06838143142990552,-0.9949951608239896,-0.16896880055843458,-0.11850753827119816,-0.18643198227519533],[-0.1756108004251412,0.36726148764854505,-0.22709475906582627,0.05485403383874552,0.026275378659310504,-0.8289749272979192,-0.4285203548657804,0.2931495203280492,-0.32246732590871163]],"bias":[-0.10447180082484811,0.0029113641809208313,0.008592301306410323,-0.01410544770771552,0.028640521594543736,0.04551761158533028,-0.032070237897341376,-0.02507022938771446,-0.13243835184474187,-0.09334607777190537,-0.13665876715601288,-0.15380635193069947,-0.16227089219766763,0.0064567702119257084,-0.033082101601260495,0.05128791266498759,-0.07085603396244393,-0.08397262152534243,-0.04773017251814292,0.01598459765264078,0.024188548318518396,0.02210553944564601,0.021446414025498337,0.06000150854319297,0.10665879131612133,-0.062449110761068446,0.0775852681269285,0.16338078614771645,-0.07980944694977758,-0.03296697077652843,0.0059924021092579395,-0.011405131009566093,-0.09242186644521441,0.060472014245319936,0.1784591688318328,-0.002051607044805664,0.07758971091477801,-0.14785452815881106,-0.024419629983764145,-0.06082530711318302,0.023040324207773646,-0.01725173859083132,-0.03572901505995126,-0.11007446189659596,0.07515817340664364,0.0723916343378654,-0.007593301786699301,-0.056761051134932614,0.01731827387278331,0.06472740009851749,-0.07794377814906468,-0.007007852251796709,-0.03360071523858357,0.030390255497621227,-0.11315131234544028,-0.13093376637659046,-0.063140051376967,0.049395115978214624,-0.17369311453620748,-0.05685813725593306,-0.14099736490723228,-0.0553946527052839,-0.07877953102875469,-0.12833337097472136,-0.15825947427313003,-0.02328986622723906,-0.08343594778910111,-0.21838430852871318,-0.020482590178361668,0.012199418677549133,-0.12178639708958008,-0.047742734429970894,0.10759279712404464,-0.12298306575965892,-0.06498792534930649,-0.10335992042033096,-0.07460515787640498,-0.14928792579107936,-0.10054515948621807,0.0021024772939493503,-0.02444761993940158,-0.14421255923836523,-0.031341278689944733,-0.0912798622061966,0.048850474086295496,-0.0867080968708654,-0.029155328794284514,-0.12525546289666814,-0.06927796363252153,-0.04708130788134115,-0.0007377886626291087,-0.022118677991736314,0.01053693331241304,-0.07140063125510243,-0.028721387537876297,-0.05334301752831003,0.1298395651056743,0.2734697640726445,0.055248485521055136,0.033823024800083465,-0.06265371459463646,-0.0638092538372399,-0.052728692119122574,0.19436370958335566,-0.022147879568955208,-0.09033334788005788,0.025213992475964335,-0.020046722786544693,0.006406010276849126,-0.06590378413819689,-0.15635549856499067,-0.13992469707646613,-0.13824356738495672,-0.11226265483482936,-0.09216892765241867,-0.24273586768189187,0.013113034085026547,0.01619851743710242,0.0802983021533843,-0.13520129290647473,0.04265835064956507,-0.12767214937334723,0.09813667202586414,-0.18212416089965777,-0.055206720751820954,0.011360260646380673,-0.055405642754703464,-0.23768809356446152],"neuron_size":128,"input_size":9},{"weights":[[0.21760788239431778,0.010172006655445138,-0.24560757346575746,0.07869976730928203,0.09690144797783524,0.24995042869421474,0.04001858815016794,0.2849388019396482,0.1669363024986204,0.20941720003612546,-0.22146236661953186,0.16042592636874978,0.24543387245873233,0.5658323155292597,-0.003432144239368176,0.24083361021098282,-0.12641489449552543,0.2487826196583127,-0.04081652379536989,0.022875968551131772,-0.15991766227652984,-0.13225484648717487,0.046576118778416706,-0.04551805122589995,0.08751732590756782,0.07284717108340907,0.1865217186306666,0.2536634755668974,-0.04632783049877618,0.12923302657889352,0.11875898510791259,-0.23810189595736528,-0.069341561581961,-0.047361608983820004,0.26342993762516836,-0.2081513906148275,0.16653597177098858,-0.20101937998909078,-0.0016343356270122145,-0.048111118623399104,0.022075812202962064,-0.016361039839168347,0.06947441161944978,0.03380724652188594,0.31615393706540695,-0.14686664432599558,-0.011435040384872436,0.10560169063251522,0.31182974843408695,0.1873699462298752,-0.00816752731598312,-0.11604850273120462,0.17521254452091556,0.13548250538158255,0.15334938889426758,0.39531686367166957,0.007427614221538316,0.1510294354676177,-0.09926686675247894,-0.02083071410799256,0.07010301273289891,0.07090671926654184,0.14952516662310805,0.11652264070009492,0.04808163340623227,0.12242246026873425,-0.015168877290439326,0.07109920171784738,0.048265634821261824,0.19248199573293692,0.24959117097287514,0.12332531181568382,0.10311273161651527,0.24865871340411475,0.10154405342831091,-0.14160691305810383,0.2975471589641961,0.18509441601064916,0.09472008270233344,0.012888015677252942,0.07264655286026243,-0.13784070313601637,0.00517548994349374,-0.02262131617177664,-0.10533542423879008,0.26713855226207145,-0.010110610347553929,-0.11309224957375168,0.22738905874816373,0.005229789989188255,0.3360859232240123,0.08789931983310474,-0.008635135727583109,-0.20347778329387872,0.0002850019221509309,0.021111039047448446,0.1952515842847081,0.22677324334643817,0.1719456468756204,0.31072491953922904,0.10308953322092257,0.1786535554228885,-0.07481420002671336,0.09443568860320556,0.2102753923100273,0.1371398183986618,0.20513224409621578,0.2995835109144619,0.20376289430924968,0.033521184784099343,0.2906582343197565,0.2399969355422468,-0.08165486942726702,-0.14283143883650104,-0.2718920791054578,0.24824242278390243,-0.09777674806012526,0.1409212143238491,0.05699633881559921,-0.06549364614311416,0.02159364145522404,0.1457104255246738,0.16744831785562378,0.13885420882970115,0.0002224936954931481,-0.0919412241329399,0.13600906590709222,0.062412241149293626],[-0.09413510889184866,0.09663452640355967,0.09105303624268178,0.08827514184778702,0.22548262027735735,0.0672983965262899,0.18610193933928598,0.15050908929873313,0.4162888657405223,-0.13788824620973267,0.1529935584514786,0.1237251778212588,0.1195975992583221,0.2295051592109841,0.14744072720044105,0.1267550151519101,0.03621749413217354,0.3395391629442396,0.09732307705562374,0.12012510373630991,0.1427910479513439,-0.02520136942081944,0.09690067604793264,0.04873881902886178,0.26784034301927273,0.023003166568579824,-0.01979873111914168,0.34825762989424996,0.17352714117223805,0.22708642560104106,0.5569823804065992,0.4634791893610978,0.313449209669372,0.3592585983488731,0.1655084083802035,-0.1857760312134554,0.0992459281306624,0.16088876534881172,0.055105571114480674,0.25436727119807945,-0.020029916336805363,0.15980984832477188,-0.0714147672295869,0.10821444736179435,0.3080831959162342,0.28062729277957527,0.058462330459004314,0.15316456996380867,0.16133474368771555,0.2314407330204415,0.11021795460353315,0.07275500531699229,0.2018074536880852,0.15744642384890128,-0.041146591385553447,0.2744950376294747,0.2626131849827006,0.5657814714417932,0.31713825948924296,0.0443166685529702,0.44323091139931836,0.17709114533836737,0.31620331080677716,0.31792815653451234,-0.13918159515513193,0.2648382050775534,0.045410516247404324,0.18229597665590494,0.14517748447463458,0.13711145359781818,0.39016759794250033,-0.18257206721766184,0.29753660601021725,0.08037635244466208,0.32444392210975503,0.3066809496686473,0.1748058942826047,0.28279347610032346,0.207006035236152,0.1855638288751382,0.13476910000110903,0.13118650434144857,0.21091178375568748,0.1516227492135651,0.13904714829878695,0.2252859493111363,-0.051251982866523015,0.2643249472737425,0.25500027979361556,0.1659724787864096,0.23341831152773931,0.2432034999368799,-0.027457326172103398,0.140939218165835,0.24587401402031267,-0.01783212676714709,0.11155920974459313,0.5426115200552682,0.14207842206509544,0.3626589330285068,0.06835882495219447,0.21237310259994213,-0.09178512418512653,0.3385262661257068,0.14580612383863684,0.26706133853710207,0.24995210976613516,0.14597115246539497,0.02631177468146365,0.066250274937935,0.4405028964922096,0.2592429847816732,0.12244392143321782,-0.06071978824756342,0.18949479065634248,0.3754626130986912,0.1535698594076911,0.05964105705800115,0.19107917911120584,0.19642741131373342,0.12521421322473225,0.3660469423014704,0.3204089912870586,-0.00877727501475138,0.24257217824581637,0.1302043698474841,0.00632278006957574,-0.08072247184694566],[0.1693205022664873,0.2627703285615126,0.13677039602404203,-0.17092103008522655,0.08618535516091631,0.33488527127258455,-0.051993042272863936,-0.10587895857487213,-0.08737609840922646,-0.04869688190369849,-0.15798447784447955,-0.2581882307674583,0.0014243170866025416,0.046657553329081614,0.02316726582004025,0.07081664550320096,0.030984975653476188,-0.1986016617969487,-0.10748734377286036,-0.02106424769757354,0.18513578596876012,0.031131218274923166,-0.02114589602162507,0.23968225325106712,0.3425807946029647,-0.09336983407652825,-0.0793229805500918,0.24398925337475189,0.29964334576240065,-0.034726164470838115,-0.11463465103344236,-0.19647506761534128,-0.02517075078345282,0.13784628037411129,-0.2285794816437153,0.08341850621711387,-0.06644816118499648,-0.03682886895560465,0.15371093368251135,0.04876948165288685,-0.24041738580850142,-0.024286655352492907,0.08063673994512532,0.014982848848615784,0.01365280150456963,-0.08235234144271937,-0.04822516352674055,0.3044083823370272,0.13945985366226188,-0.02287629823663579,-0.10396997613492201,0.028898864080168264,0.23592588990532243,0.07092730025457203,0.11085179804534004,0.08049851037176006,-0.18261203347506447,0.18025171311758034,0.2587704176408285,-0.21466817749505107,-0.024986349912626746,0.08133544298943896,-0.3651661253816128,0.18039462788655347,0.041434520588763346,-0.034390098202024634,0.2585268892840759,0.08783557202728853,0.09626717067710593,0.10707007746058378,-0.10651378542085656,-0.06737633823870345,0.04931632153290855,0.19095089417302016,-0.006160727855310457,0.11297533214901695,0.10786107573291125,-0.013076717781766369,-0.1420661667908743,-0.01842620616067304,0.017647077091421805,0.028355826316728113,-0.04377887603229207,-0.007522558988998702,0.04178861736912145,-0.012274831271531669,-0.10114719018636144,-0.13953439507269905,0.06802114388317168,0.014345043629677933,-0.052441116970446774,0.03991071025289302,0.18740694952249948,0.04395523293531254,0.1914409041609147,0.08566775889300997,0.0495902332836036,0.3479389068413355,-0.1458295924131724,-0.24135904047606277,-0.13789642357163948,0.16182637187164284,0.012248152924912065,0.15750372412416005,0.09210257493856612,-0.22393096108750576,0.14946790461599005,0.08134156421994959,0.25036447182388827,0.15217393686518588,-0.043458435072435166,0.006993106559320041,-0.030270302646857615,-0.07104496095155535,-0.11419090930817806,-0.14873644055931748,0.2589393970349684,-0.1251821382087546,-0.017236891023547928,0.2230960775192175,0.024325292268136452,-0.2915663315365522,0.2778708625119121,-0.21764625426521675,0.08053476512581344,0.057214309554893206,0.1426237555979255,-0.10746969491580645],[-0.17800080918852143,-0.16920908669043438,0.06536156393998274,0.0025948162194870043,0.05543074696185201,-0.07553997193055657,-0.06527238288958298,0.13859409023040523,0.10465588188390627,-0.17461723421131511,-0.06542200303847895,-0.0013506963269321183,-0.04156046027227451,0.045927707001794785,-0.18670701579052504,-0.08161771752671375,0.1785372792272356,0.048580903936620096,0.034331037936103974,0.17495565883909145,-0.04991028340878285,0.13049400385615442,0.08674650083241371,-0.3934920871203939,-0.024116043972164207,-0.08354393296048895,-0.17075651731832514,0.08203737468776884,0.12952401657055046,0.023319966770051555,0.001960336090088114,-0.004407949165777127,0.05488942517624003,0.09687207933035649,0.40849858999031885,0.15519344510410024,-0.04905006721346203,-0.02608630491824221,-0.036864218705540554,-0.291431684104699,-0.10777912348854608,0.40947167371809223,-0.02712602646504123,0.004907162260612934,-0.1735156017747707,-0.09681335561796811,0.29915230755883543,-0.16502758943712467,0.07453871766747393,-0.16747542901762646,-0.15118367298335916,-0.10298922276382692,-0.026125536467358133,-0.19897066092928853,0.14892996114709453,0.19274014990206972,-0.08477646348027773,0.04499425984598462,0.01940583623247557,0.04785609807291241,0.04817643818043692,-0.00481559547741021,0.12584506837606735,0.12400147980025804,0.14503882400568543,0.13253245464568794,-0.23625166987906193,-0.07006285350355583,0.0333807082874817,0.10684806362751302,0.028441234113361583,0.009988147106501432,0.10583448741200213,-0.11520176879664476,-0.1854722479488509,-0.1616612887269808,-0.10936903610446236,0.13253182732172583,-0.11503159212744384,0.03799627405836039,0.17218418526304657,0.11220127794891688,0.1569202753379851,0.11416264640612896,-0.0742324651174119,0.01779428841866525,-0.1266107830237539,-0.11903206173071217,0.16289566432539734,0.08196741222442178,0.0652530205303503,0.1700110623803801,0.15518557285062512,-0.11342432963388664,0.16251998118432548,0.12903017620609752,0.1843627995112124,0.24789277754431094,0.11525767771613125,-0.10964299773332417,-0.13795456044543414,0.05028128259179433,-0.21587025313555364,0.1490278357672,-0.10888181077716046,0.001351925677666845,-0.006354790429043347,0.13492183087429882,-0.06073005846413885,0.005425775362497963,0.11364405337581086,0.08975198044894588,0.006704038427839192,0.11951839340173342,0.03452781432953207,0.05799205894138774,-0.04950286338620299,-0.07722866496780717,0.05929772057921639,-0.1209181460079621,-0.15626354141370205,0.17857804251287543,0.027676353570591387,-0.2524589951382562,-0.1637258934880234,-0.04401056734159996,0.0023467682870373014,0.0707042608582155],[-0.02260607521217056,-0.052559132328296114,0.0030927407348441574,0.031325996517351774,-0.015665959970649613,0.16174727747876122,0.13313137007596762,-0.22689143751076055,0.1586291402553583,-0.07653762924174976,-0.05512343459084787,-0.0629664499538145,0.13444766987905724,0.23906709278432925,-0.06870846352697284,0.062328757824677894,0.09257864621346754,-0.16893579840640258,-0.08386729660639719,-0.15593081350311686,0.014610300981721502,-0.04760103696130269,0.20057988316815575,0.033871624070810555,0.0235194824580172,-0.08993876880960312,-0.13415095966374174,0.0564672172270424,0.22465457829808033,-0.049442141196622345,-0.07214859674430324,-0.145062870906799,0.26806620286891303,0.2389174753800763,0.19229852655203053,0.12751830177619491,-0.000018128788420667057,-0.01972667240970447,0.1532756676648395,0.09009090561652844,-0.06023912175774644,0.18625653370756604,0.036296920979865664,0.06941829031653934,0.19319756127101956,0.1422984698017593,-0.03879143658783689,-0.044125471666896454,0.08743613958334866,0.030784723346453637,-0.027798671187433146,-0.09005318106487457,0.04028006896212444,-0.06211219942902679,0.09449244078842896,-0.10179168108252826,-0.17539387516688892,0.18617482993298987,-0.15653361071909005,-0.1510816035202824,-0.04789542409009112,-0.09319729593820769,0.18490712170570303,0.17950249712648889,0.047763430945170465,0.05782328904260085,-0.02734314117379936,-0.09414021657519775,0.08828190102747542,0.019997531913577518,-0.009514021544635645,0.04669870742437822,-0.1641557330040062,-0.056367146757243775,-0.26077353755552557,-0.06611799663210169,0.12400418174028986,-0.11521896084515221,0.03222688982135884,-0.3418192117763464,-0.1364699943071195,0.10263115682814575,-0.18992611404369544,0.10735646254410855,-0.12112863799319436,0.08067219099707991,0.015448485223016006,-0.15973828729134007,0.34210976628650397,0.1492482206977402,0.03515226710653023,-0.11192406223216406,-0.05336327881851494,0.01550486306015596,0.1164236282415958,0.09349241912589025,-0.2385276541606835,0.3153115846465867,0.12046483353191645,-0.055015708510603924,-0.014841477534515682,-0.1248078555468019,-0.12444460971424352,0.2234339470417966,0.018264638010209867,-0.15847844742223244,0.03888920244465357,0.00539304720107093,-0.1350789520716947,-0.007237288325964767,-0.0331491749308683,-0.06327649855466347,-0.11698413520545331,-0.19971121891186527,-0.05583333972459917,-0.10366080228075517,-0.03490156166195294,-0.09409164492410953,0.07975808364203679,-0.048315744345830025,0.10236657443811564,0.06520131507079883,0.20635946641486302,-0.23767405720499074,0.1145306607261115,-0.182590966306373,-0.16773550902729598,0.09555341813167202],[-0.15596053984956623,-0.1622088166990226,0.12958442592390887,-0.07526012474711558,0.2620183899886491,0.0539688192418497,-0.22854695249051907,-0.23783073997306545,0.061568165375278254,-0.18228929348689962,0.003148269441224735,0.044439280119306104,0.30476239332681027,-0.061160336803153116,0.022887727035808082,0.1279385682163509,-0.011584687355076931,-0.051895078495855285,-0.03618367140263256,-0.11596339540341327,0.1009657409361377,-0.27029899248594763,-0.08301194948155254,-0.054404372530850564,-0.0014358884812140297,0.18951971463075565,0.0010004688812934456,0.06291459288242801,-0.03576388501273993,-0.3281425161375801,0.15159930278628625,-0.11903507215103887,0.008128539918547993,-0.19929036243333176,-0.1623317486418736,0.011801680595373178,0.023166465314948818,0.13099497276443772,0.1926748479564107,-0.01292483095507729,0.07874182649227879,0.060283434997205204,-0.037622617841066505,0.001711959823249906,-0.1531493241760572,-0.24722770400224414,0.0648090373571112,0.02125935886289297,-0.08452252714955273,0.39167560864957146,-0.20250173489276618,-0.15906565758922783,0.09891850424829085,-0.12146577217787327,-0.13605396731693165,-0.052593049731217534,-0.0019243524775936684,0.07080634049417608,0.015682430389540616,-0.18911419096593868,0.005043288252310515,-0.10405086358805195,-0.02620135801395171,0.12470425620277038,0.416951560662749,-0.0087448667447335,-0.09691508572325908,0.030084041830796934,-0.10814034332813403,0.19718216553590895,-0.04706519338355515,0.04418441747969919,-0.147736699866202,-0.02835313407881329,-0.14144635688745855,-0.3017774806607284,0.019668867366924893,0.017029961434776333,-0.13587473035329484,0.12334909841703018,-0.23846178710227536,0.038863537655533645,0.02538656515589554,-0.05833835921452679,-0.11606743476805514,-0.09968310198674146,0.10274876078712734,-0.13406902717171948,-0.27355785387371934,0.08807661140719843,0.03602640197663402,-0.08868732333061938,0.2101208695837769,0.0012559159423011935,-0.2958241719753087,-0.19740041386722887,0.0898855697407117,0.2715132321261669,-0.021223966868388722,-0.03759603635793625,-0.0005923678536366198,0.038800423397696585,0.06946721593904454,-0.0595117195887968,-0.01247202166899379,-0.08044238270005875,0.2981364747186218,-0.040253322125030105,-0.2595388062274735,0.015323532828362721,-0.0816882605884027,0.03208879962001506,0.2306930836337329,0.4085357442457341,0.09499865131577338,0.2156998454332595,0.1665408533922541,0.00769966464042857,-0.03327619010575297,0.11050958466331694,-0.23799777286060214,-0.20043875232664912,0.38483679997890247,-0.12737210827837303,-0.07890775093258622,0.11343548407538437,-0.053758625188003735,0.1924959219836711],[-0.1859268872187935,0.13837238071350502,0.0009022041183459818,0.06603557768982317,0.10127470679245994,0.22303876990967403,0.09774254303670286,0.04783397176280391,0.11567292483669504,-0.015558800200364388,0.034399654317311915,-0.03184257267203169,-0.2758419836950925,-0.13543436574464854,0.15407218622705307,-0.06015807583276892,0.06477564717639848,0.06669774229773545,0.08029193646266272,-0.026928577820964843,-0.03365427574898516,-0.057142379375313634,-0.06857679906034948,0.25598969664870774,0.007892740721401961,-0.04858540094898612,-0.05654208443653479,-0.004021778814484084,0.10472855421726485,0.14846478885729456,-0.032928773858531456,-0.022133375662405568,0.04122180442759172,-0.06944172258489452,0.017343101201526125,-0.03193316670526121,-0.10475424164809084,0.22220744409441948,0.22700316658782502,-0.004156876297150411,0.13787338722690073,0.19485886988367357,0.025634830379066137,-0.04849553469093051,0.2325710021173076,-0.07384764797389103,-0.015282608215272978,0.1099487621914056,-0.12204860849257042,-0.283801186662534,0.1796504711421281,-0.12097907034492195,0.06116290908117193,0.10500985671591498,-0.04960385794755926,-0.04868618589177835,0.01202220663753565,-0.06492738357128115,0.10705064305183006,-0.2566023635858476,-0.10564191404006926,-0.144564270116414,0.1958279926663427,-0.033752069482416866,0.18321054024126432,-0.11961261164988585,-0.05288403953816102,-0.11436149428669033,-0.03342376320311472,0.08156299154206417,0.08738341152197539,-0.039048139996207126,-0.15619005236220768,-0.12153722757631533,0.16949912487788313,-0.1695416897072043,-0.034248915417070085,-0.17431203665613962,0.14319906900019239,-0.049716031664759144,0.09888007795672846,-0.0567098342913753,-0.00544485140687531,-0.06079209278587908,-0.09071381412376013,-0.260903698547176,0.009213684005736127,0.07308567081578964,-0.03158794436281296,-0.04642801779254843,0.22291527291498148,-0.33796730304664835,0.46595872171178976,-0.058955071721957505,-0.1417280959506995,0.06973251134810712,0.04002744170946566,-0.10604471530544098,-0.05401606499324161,-0.044817211968913306,-0.051869627237152424,0.008220977649077133,-0.03676172668582827,0.07232225446925195,0.07875523082209784,-0.2151495647617509,0.1683057620467907,-0.03297720449691377,-0.07426116972382046,0.009727802250585265,-0.19519122684769039,-0.20959360848657016,-0.13417468629505158,-0.0589052970219114,-0.224870608271847,-0.040183998467743044,0.021611197306889995,-0.10062298993459169,-0.08784033946661692,-0.15965682400485853,0.01943867136925568,-0.1459441091019499,0.13506607275736351,-0.019911065957228097,-0.15569381020045533,-0.01824941393653101,-0.11726794333032282,-0.1176491574044913],[0.19678792789981633,0.11713949140024854,0.07168121700554873,-0.19690779205423897,0.14337182345702398,0.1433656907297486,0.14238897923120958,0.044204928782737865,-0.09507966769676299,0.07467007352465985,-0.045799124396743995,-0.117060592879167,0.08140347865384351,0.11553936303479904,-0.28567638303214415,-0.06593854443384341,0.11404510317491082,0.12872117829470245,-0.10315286008440123,-0.054539770642190906,-0.16493360118303535,0.16777806882881588,-0.11400682088514996,0.020568331720948116,-0.2560786125100396,-0.1029427145536425,-0.21160323616012028,-0.12121651390145202,-0.1489734221506804,-0.08359332808971216,0.2031219090480253,-0.0711676452021278,0.12007419707102977,0.22719239287022638,0.0776121722721331,0.05890067190798501,0.17560299408053806,-0.08746018910431468,0.016072204704354234,-0.09304528992936215,-0.125832611778337,-0.07248861954690107,0.026411485145434548,0.12026124314018324,-0.19223346989227977,0.04996486197458363,0.008192434742439069,0.24200925313318325,-0.02217483174546533,-0.009763361170983337,-0.1610401037386247,-0.21498408951000003,-0.17177903826768215,-0.042005064998698424,0.27113118271888664,0.07222414664933786,-0.020191128380101883,-0.09318469091502514,-0.1808817302022739,0.05248423334918236,-0.16699236062744136,0.34550998732288335,0.07041089720363611,-0.06923223672763143,-0.11152310839264536,-0.08151157594767967,-0.03901093582865417,-0.004657541768180293,0.06161426474203204,-0.011378786769541,0.05520012439851708,0.1516295884575449,0.0679555071256843,-0.08880749808642459,-0.09379488672980289,0.048894448335120515,-0.2973263902222235,-0.08798550202062755,0.09805998814753462,-0.07960848529251538,-0.08113810196982506,0.17658151357049748,-0.022181003576111136,0.04523076451982227,-0.22985294228629152,-0.09463720388913519,0.04655546445454397,-0.13743757396999218,-0.09804963937418804,-0.1632840579577906,-0.26235551156725806,-0.06065938471532135,-0.05850589136884762,-0.25062118160504077,0.16261045391769147,0.0023799852240329157,0.18005755558244557,0.1193310379371105,0.14556413238477572,0.12695737508343802,-0.002024986448521227,-0.26272460576798934,-0.13602518704772362,0.02900262489365068,-0.13288672387856867,-0.26622042973982735,-0.015629828671394796,0.039023376669609915,0.11509733095565723,0.09185645498324471,0.008942257119974678,0.04022997288374126,-0.10473632917158857,-0.048911924441573974,-0.001786383251788439,-0.2666592174079105,-0.11049747723549647,-0.0938756634921351,0.3175107211848601,0.03595199089462235,0.19453059406485695,-0.06615580423817366,-0.030923790464712476,-0.03631986278137315,0.024883888395279795,-0.15266265917678412,-0.1090748588445512,0.013258085963221582],[0.022432271509635927,0.25138374281235254,-0.20888600968939958,0.2539126924788881,0.055921889644379476,-0.05186171111723347,0.010268721691851977,-0.04114725892358164,-0.2788617257878795,0.02088493823190987,-0.04272886020963593,-0.07295982589054593,0.19687076549987673,-0.44575333291571706,0.39308263466133686,0.2370416106032288,0.1616576023351925,-0.10348018835612237,0.08378028449898114,0.31238771495545564,-0.019963854256053397,-0.0019004655320971086,-0.29097471663105084,0.09139542969883332,-0.20431935292027556,-0.28090549839929485,-0.04525878364288519,-0.05031804096154672,-0.03052400586614714,0.4542212670219504,0.3732592683635705,0.347059842778779,-0.19758820425175708,0.25096342331058036,-0.13394322299267927,0.10194761547061106,0.24008368990356618,0.21683291687331974,-0.3762199542596356,0.12972283893137737,-0.08175419316472722,0.27015684511271787,0.0250173456986355,0.17614447625357188,0.035284274745376924,-0.04159330769861206,0.03163997836211183,0.21322836946180607,-0.042410897226738,-0.14032350987261868,0.1872168587899886,0.14082820104593238,-0.3261454971031246,0.22699703558260007,0.18769332537748853,0.0019078398520582737,0.0805799883847542,0.20059367434518208,-0.35886846137986494,0.2560360903966893,0.13221262211115062,-0.1023725791084214,0.04144299855161499,0.19372801723520378,-0.2632599311856304,0.13069810221926195,0.20281771223124884,0.03500883324350321,0.25678932339153737,0.13917688394473282,0.4863102982874137,0.03900100412246478,0.03157577837009969,0.24157275555970753,-0.02552565456154761,0.09406420038185527,-0.44781664832472445,0.2751925947682363,-0.21395755298314273,-0.2337149011324258,-0.05659053301244099,0.2509619000125489,-0.04764517307417107,0.18859972920153872,0.10352119580188754,-0.43007691484079524,0.33997739656783743,0.20026544905528815,-0.2398423869042268,0.014504550993967483,-0.5086721073515972,0.09050159061049659,-0.16417431107812946,-0.19189570237844641,0.22409644520441077,0.021175166952311534,0.1422390803321817,-0.004122460809482807,0.0010149761310208128,0.19099068614064768,-0.3152024169462873,0.037015599577532206,0.24982996247578584,0.08697813632134872,-0.34167655176776607,0.1594777893477869,0.3043654242226985,0.02717259829215971,-0.10362549484913068,-0.19707483279250831,-0.10285471665285721,0.17684938264094904,-0.2601938863042275,0.19101103543426462,0.24984445187837262,0.33542744384536627,-0.13743848513602624,-0.3043521459562285,0.2238238358020436,-0.10022928964497645,-0.3004723225186671,0.013652228365022128,-0.06023689727809083,-0.008234938023310705,0.2958980830283562,0.21814469932060923,-0.004901969380760198,-0.07312327763253498],[0.1133203163039942,0.05800594247737366,-0.029701424266175003,-0.36301411833856617,-0.02151350023722808,0.17882511887372712,-0.01807975977794469,-0.0333815404064777,0.027502747365098865,-0.17969709413475066,0.023010490897278277,0.0030827702519003186,0.04334767880459407,-0.18345092123454435,-0.10646390374079656,-0.10767793052921702,-0.2409340020681364,0.03324020633292894,0.015536009140565922,-0.03403405397244947,0.014760705951156583,0.19537342418209536,0.019538992808382488,0.1421569650427637,0.056754668592906454,0.16465163996408586,0.23925133493191394,0.2459258768767155,-0.34968661044007165,0.08348726291091343,-0.026498934894295164,-0.11571022406367269,-0.22445657018079074,0.03406858856899474,0.17162752007000928,-0.044191155566592664,0.04244492358878183,0.06284772649712954,-0.05879006919094072,0.05432846402952259,-0.2195250940964925,-0.05527226465055731,-0.05100936405566347,0.008068250087765115,0.08193622217141505,0.0623618831304667,-0.40309396348553295,0.1743752680270174,-0.08182561925632553,-0.07194485949909717,0.15522096108996958,-0.09323956424988769,-0.07474478480044382,0.08705009086405918,-0.11968012077194067,0.07612135886568444,0.06507484427122426,-0.06116477578164099,0.12706731465425294,-0.2218676939206781,0.08079405015213202,-0.09641714461873131,-0.06649976755888265,-0.06792032082697105,-0.17542050796042608,-0.041473666706836596,-0.09849706956535899,-0.11180859632913955,-0.1175090210328659,0.15296355925366492,-0.15084149627788943,-0.05875897801502236,0.003078046344295673,0.2003185789067706,0.049624893664109826,0.029856235709058154,-0.17007902075982465,-0.312998040193541,-0.07481303771597093,-0.015108746888641528,0.10186579243756415,0.1072707495208919,-0.0865970079171022,0.15862328851234753,-0.061413632020458554,-0.05108563444960932,0.08866065942016188,-0.023521590211467318,0.13991565774446235,0.05563107659037447,0.08217364222409007,0.14705228587653052,0.14503622534284127,-0.12934042649437755,0.09488975794977325,0.20067918252414832,0.07680639347601576,0.1934098211935828,0.15121673719025822,0.08089977913195022,-0.18057405566417412,-0.04374990830695309,0.08153224219893927,0.17255845921993704,-0.055951539340261106,0.08556958193294419,0.2162463422186775,-0.24070689718033764,-0.03683933104085704,-0.027812959682987328,-0.1809044010799818,-0.0830000466357487,0.16870724840734425,-0.028968866736091156,0.16691617091075928,-0.03230679792455282,-0.2600696278918288,-0.06827949369982798,0.09700856503253455,-0.08731260750685588,-0.12167969198932616,-0.0015892105141359209,0.40367848522271105,0.13185589815612933,-0.09627829512146294,-0.07091886653554588,-0.0809130256499934,0.06080756635898463],[-0.0073534745931283455,0.09127772746765735,0.04738062191879931,-0.04083869535584386,0.04907894420918125,-0.199116698719013,-0.02178568730151763,0.3825624036112169,-0.11787038867671959,-0.19787812696998178,-0.09966995567111162,0.037484978045014654,0.02894278841838054,0.0645203638936487,0.1588245393864104,0.16262991997015208,-0.02916053602083555,-0.5063043667947587,-0.1382020399342132,0.01833406001945539,-0.10282877013478997,-0.10607939192230993,-0.010754876789072495,-0.058782942377001816,0.10469232243554862,-0.09633479791021113,0.15349272970382521,0.07948179638400545,-0.2370245200113688,0.019500211703401913,0.1949358890470867,0.03690034403495761,-0.012902767054603335,0.21649156804628508,-0.0062511580914114745,0.028212005949798214,-0.09980522921074465,-0.08375858323251414,-0.08335666099989066,-0.0029787266256853222,-0.17748468151571292,-0.011731625416921979,0.012017166444805334,-0.12169247068644083,-0.11900608196507441,0.059174438219972196,-0.06031305686414798,0.1434663050699492,-0.14839705004943407,-0.24357134550698392,-0.04330529677357904,-0.11214695625327356,-0.31545842288844644,-0.2733854293723855,0.03089893307849558,0.17124177245792913,-0.13602189197092412,0.21945846737076577,-0.21740517393285133,-0.07537536483585648,0.044988363717224505,-0.06058291943732268,-0.00011775473538577347,0.25214613995914936,-0.10377927910469374,0.09883480580373862,0.04691455036401977,-0.1436823287828049,0.04585453726536241,0.03160613097976614,0.19303003769411475,0.020729657171553728,-0.007920613885854475,-0.016000633039169387,-0.03677737661970642,0.025379304191297684,-0.0565191269992806,-0.04307911637954993,-0.08794368196316862,-0.10382587353751685,-0.034350664434872,-0.0442468654162215,-0.06687839943101057,-0.17793268120350572,0.051789520136602124,-0.09354372037174276,0.03776968214272512,0.10758812271868508,0.21491391154724163,0.023523619967201436,0.11046091344864718,0.1895380647621831,0.07652860188684112,0.03844553875279281,-0.250656280627069,-0.04035902199347027,0.07117517403448756,-0.14433838489691872,0.27208606348009856,0.14624973952101522,0.08394400739766998,-0.05143762601323072,-0.16577550004224076,-0.29835662363440213,-0.2824432238831144,-0.15590697353077246,0.10687484590258325,-0.06098458893089144,0.19663591827604907,-0.17375192689513538,-0.03831646721008905,0.00043305309954120024,-0.01603354983901084,0.035383928267113514,-0.04992647319909107,-0.11300612248410971,-0.013216119931998942,0.05205327064933853,-0.045009885759786185,0.021362110518770464,-0.20588338935935566,-0.03243097524054455,0.09110242038326197,0.11142883253084858,0.016581311289038815,-0.27128609052040187,0.08513847132709604,-0.10600707921880317],[-0.0699085579303398,-0.1427627937133232,0.030800177420515624,-0.2523343435162381,-0.030837121108347715,0.10328716736980967,-0.15118544360010636,0.18875053867548486,-0.17010292309097183,0.04922025764042962,0.06771051874358727,-0.05452754850040232,-0.12836940704614444,0.04477025214879928,-0.08443441891426351,-0.10596824514085182,-0.2269539856057202,-0.09562789294038149,0.1281755918374109,0.007502711795565031,-0.09826044267338307,-0.05695958818920006,-0.07919484831144331,0.14360271098821675,0.23129844783805703,-0.07486024206100426,-0.018282490869253442,-0.08218882013127793,0.14964076786713887,-0.06912469143521614,-0.0758433162372527,-0.1436250813441941,-0.1347863637110595,0.06043210717698628,0.15547682827413606,0.13762755210031088,-0.09865593078847419,0.046880631741264736,-0.18934397208155568,0.28956171329408015,-0.04612102160324933,0.07676007803908612,0.00972528670532236,-0.05464062259846989,0.3003831133093288,-0.027261509264084077,-0.2153204385707768,-0.19942071975680425,-0.01324799007934908,-0.0017635674336010786,-0.03954240317943613,-0.10201095124566789,0.019830234561630265,-0.0393160809590398,-0.05546858195357814,-0.0001380323050765973,-0.21563852976807896,-0.04934421971252808,0.05994712816679712,0.06549416422700957,-0.016754361361367938,0.01975772483655835,0.0707837549260688,-0.05809625108295879,0.1200711920020464,-0.002483744230742221,-0.09356941894231682,0.0560813607772482,0.06095169337621061,-0.0683795062872689,-0.21212164596705507,-0.016696116200089067,-0.06918031175230614,0.1243273745658829,0.19204962136621026,0.09591491822869114,0.19545294038534985,0.008636848238421023,-0.13070222055639402,-0.02137811551952455,0.20580533551865224,0.0720106932196619,0.2192458543779747,-0.1088166509194735,-0.24314829202448765,0.02519242449914995,-0.10952327189997613,-0.07268550450375806,0.21828023240641206,-0.16575296984845017,-0.24275900838679684,0.33796126491978756,0.14494830029772682,-0.20572402708963314,0.13083583381794336,-0.10233584036097534,0.06537286045127054,-0.13918464380902212,0.03428000540609034,-0.1153021796076753,0.038255998821364094,-0.06570383803474494,-0.1292172466169506,-0.001963421582882355,0.012360539831399162,-0.010237839186491477,-0.028228273226618566,-0.07525792262051868,-0.024542988502694776,-0.07889387500758113,-0.0019125158009835005,0.11294868009181229,-0.17539013014992164,0.035409546908201195,0.01173852886327191,0.14099667550592718,0.0722394242377048,-0.022618403513003846,0.27009766602025237,-0.08845888784137076,0.06317115660730935,0.217264243626249,-0.10247312737470479,-0.13235351483400093,-0.20079822810838727,-0.13370891083810002,-0.052877993442167794,0.1007367521553198],[0.2553187355417697,0.09285054982074205,0.08130454485646353,0.08658660170374778,0.034027069921043644,-0.061943020417737645,-0.09474115285887903,-0.27198989821331415,0.1434499116699988,0.021388209461347275,0.11790007940897124,-0.004243841701649007,-0.10598029639956444,-0.043209618048460734,-0.10075728447370152,-0.050953711113147886,-0.021702631413102795,0.0032239766554355773,-0.21634662634403207,0.02794012181193585,0.07624905332903105,0.016066877916079043,-0.16452509006792795,-0.01269142823353609,-0.1415322656153044,-0.15236104298854758,0.20576415216760746,-0.027537056436780706,-0.06947927789380692,0.011786386973707819,-0.1763031424674673,-0.08595127459897761,-0.24074120356792797,0.10469604745487676,0.05622724261273086,0.045942435436545845,-0.18259209187220235,-0.2422712120394884,0.03995650049053266,-0.11286599199424957,-0.1606956647361158,0.017277711407243174,0.02668500916842704,-0.0011947196654343395,0.00198408810744602,-0.1989911654965113,-0.26135568534519343,-0.14460358886063074,-0.10137938471578727,-0.06303270632273002,0.02332694811231907,0.1043433736086372,-0.12411944133445403,0.19484753292026852,0.013464463384361422,-0.09249119609218608,-0.0805377423368454,0.08966235789555631,0.07700597933760474,-0.11399483700356502,-0.2686609249468639,-0.19137722846920693,-0.0491141368442212,-0.05768549266288379,-0.3612978097729227,-0.042014073174572515,0.1538491976303853,0.1357474105223703,0.2228859674139088,-0.049181452825160156,0.05299559184463039,0.0721587260352878,-0.03793452700907563,0.02043691747677781,-0.027037539867444747,-0.02510750942519697,-0.05579090175093065,0.027978950797201394,0.10572026365339482,-0.08052872541587379,-0.08227092660071805,0.0038438657600631874,0.1156231022771007,-0.14864179450769727,0.06688366236843629,-0.19575234916505443,0.06095788778524654,0.039329049159006015,-0.21640601021831593,0.21086559497573037,0.034660045769954115,-0.019170416351090912,-0.005750606703100308,-0.33602962292313326,-0.1830781966756279,-0.03657609433032423,0.11637499311668012,0.09238417895451943,-0.11823530066020585,0.05228249628849822,-0.0026375139848411164,0.32364961714866597,-0.05548445826947549,-0.05933299513437815,0.07018166927537563,-0.16233250276073383,-0.1831119555854058,-0.07204084206000422,0.21052178612227074,-0.05143905387719616,-0.04019001449409098,-0.1866765505256949,-0.41686631493389126,-0.1266223612504404,-0.1952859746282855,0.1872108767086794,-0.15386224203520507,0.2518551080505325,-0.17339241212242168,-0.013283623893408088,-0.11277624468152772,-0.010791740880778418,-0.035725547556158456,0.030401047900028264,-0.15218459904201437,0.19582005921516954,0.11023140449689621,0.015406955559804071],[-0.04462477417406586,-0.05916550006135438,0.05005805769965125,0.3233512699904841,0.017239991922970672,0.09814109588356176,-0.1602501155378502,0.25622376574129496,-0.2778193122221126,-0.09429589330932454,-0.11246088249997972,0.1842034391656351,-0.2989417073114373,0.07364095558383163,0.016019729037653398,0.013962003543831928,-0.015330407341053474,-0.012505277175076214,0.15280309322488295,0.30482180353436583,0.0734762243490395,-0.203067176785465,-0.11587652986504239,-0.18839434251384243,0.21680418673943372,-0.06083847544801846,-0.22045289489250544,-0.059723476503972646,-0.24639395107038475,0.0552017863105159,0.21022294023180563,-0.11555391773400972,-0.23460194591956557,-0.10213851136891959,-0.2058987800491659,-0.02489859946220579,-0.12596639269442264,0.08117122064459405,0.11472752929429175,-0.06414439817629543,-0.16333120847582636,0.17398002308223728,0.18787528070563136,0.035861799193729296,-0.022019750006573822,-0.055711610345724034,-0.04799070188944964,-0.14581117558777631,-0.26901931541623925,0.05071314534668947,-0.01826754388583278,-0.12687373095311588,0.0599981125322457,0.38030175347321526,-0.06102950620840399,-0.2655423402706338,-0.15159398107549585,0.34405094063544117,-0.20410073055579966,-0.17398125640697193,-0.10283978148864559,-0.09825803525319537,0.23119510328591164,0.0010484876497918896,-0.058953637639074824,-0.09936488766493878,-0.23596960298496936,-0.021360848010024917,0.03249387311365778,-0.05909040044095411,-0.045194671178982265,-0.1637763234598057,0.11837380763370003,-0.01699694304619109,0.09154010341400153,0.20936285959514264,-0.043515137269041874,0.28161715287100175,-0.041268360054398615,0.2170184196604661,0.052678005501700896,0.050311758862211925,-0.0014478426109539285,0.1431287757819079,-0.033833407323706245,-0.24784662256877127,-0.024443731651948245,0.05196306453747056,-0.06577376053132042,0.053505600227400175,-0.20113449421745613,0.25215427622319614,-0.14080094810977126,-0.07152178049481889,-0.13664956994223518,0.03280883826256963,0.13930193942883612,0.3160857995816354,-0.2158749097205864,0.2035205102897039,-0.08099347983988132,0.2941473434030089,0.10015328329174886,-0.03132664871310117,-0.05947186071581113,-0.12177045861922471,-0.16063213874564058,0.1321556455017549,-0.31072692636210764,-0.014915957891332864,-0.10129757181712427,-0.21440364970561382,0.20182786685131132,-0.07706219395582069,0.043249928125667664,-0.026530912017928614,0.2778500171763802,-0.09161331751326386,-0.24775157929776243,-0.04428414485380565,0.13809712262870105,-0.27023295194820335,-0.2353041472163472,-0.1476259538804774,0.17725150325309316,-0.2435051932589248,0.0713615979706794,0.08534804776856232],[-0.10331072309499584,0.2894027615319327,0.22858621258076547,0.03702938504820015,0.0037187838592436166,-0.039271656354372755,-0.02938971952844283,0.04048561539834921,-0.024626285281408283,-0.030039790231775918,0.18762815207833974,-0.12575469526725747,-0.15328486509270464,0.053269140996688946,0.12697256478822277,0.0075537474946765605,-0.015722964153591052,-0.27265072517611416,-0.04542512537278132,-0.16787790690482063,-0.2203036023156493,-0.10757525177617103,0.2063368141774021,0.1369169588392378,0.032389156555523595,0.2443003893268951,0.21722719361537854,0.26974619534312544,-0.11692430062925915,0.19842795753213532,-0.016322294689500732,0.06471066072164387,0.013683158516347273,-0.07774730408063889,-0.010357173276439226,0.49039547192626565,-0.04873199486455214,0.012788823758627051,0.08195440700976263,-0.25379555830250644,-0.17693304432144838,0.06259284813889221,0.07389882452077362,0.06660232127360824,0.047642049759107526,0.08015212046078277,0.01125531380157049,0.11134002391718739,-0.023935967878490484,-0.059227934853527044,-0.07887819849636872,0.02534511106953921,0.18606280385931834,0.13546639794311802,-0.001265117515906367,0.24923126983785848,-0.0009998574346335115,-0.08980144848640578,-0.019157368582681113,-0.04031193615229684,-0.19237192014604512,0.04016526611664315,0.10595926490582415,0.0344323565502393,0.1388973041953102,0.06412395018777246,-0.10137479139885827,-0.09041312327753112,0.07264982677815696,-0.2515033374075223,-0.06994811946660752,-0.21051372180973915,-0.08966416121167936,0.04869649123895394,0.05272911291112802,-0.2586090287073957,-0.12595809835724386,0.06131667112077713,-0.046576176486094696,0.13626169899849577,-0.04172076337649285,0.08345085153845398,-0.18811281013677428,-0.09522786453618692,-0.2760357016345767,-0.31457974530238586,-0.08350594159046029,-0.04086693291224702,-0.2977867694096668,0.0029221782550715026,-0.07578370982950787,-0.16119065483706219,0.06838839702191474,-0.14198224766873033,0.010608339450003364,-0.17681666202667645,-0.143603268647685,0.01951350165672828,-0.14386816423399507,0.08785201621605869,-0.02160192588575738,-0.20764993323786984,0.1635107939122588,0.21489685020368504,-0.334003532648838,0.1853880060621832,0.02354455777484579,-0.03182077136839076,0.1493236977585301,-0.1834615723140287,0.03252422834062592,0.17687433673927574,-0.10314288345971975,0.16473160084957203,0.003670881669957471,0.035933118031934566,-0.12326376506476017,-0.06221831278358194,0.013702519414726003,-0.06429916262049981,0.2309005702906864,-0.06634266678819248,0.068065438754801,-0.07594413842476211,0.05818022782579055,-0.10565951701685364,0.00021247010952738144,-0.11466164187987683],[-0.020878290983398384,0.024039256446897018,0.22274805461852706,0.006875166067287047,-0.26010126857404964,0.043722520881800224,-0.03718250523827229,-0.09106555173817724,0.05252948072435065,0.03481751138690563,0.023423055839446788,-0.008164262356966961,0.11117426240902002,-0.1750380688208273,-0.10197837654448039,-0.15271473694235135,0.07139319887278446,0.0009963681357731922,-0.09986378942555907,-0.10307760004402111,0.17831641973113982,0.12424905734648234,0.11540463764278251,0.16581509384750354,0.9686318299389965,0.11111543831759056,0.23180376207355696,0.13081751071739728,-0.3301989249479337,-0.19400503196536922,-0.24550054415870035,-0.0980875951625967,-0.00004597760623693459,0.09356856480697698,0.2507696368966039,-0.03181670958899571,0.06183283764020624,-0.0061601737193286024,-0.2708620433220336,-0.03954389504197436,-0.16656187922697002,-0.046871233250598374,0.11646526643437238,-0.008130873866036016,-0.05279677287340625,-0.04081369529176096,-0.09076602420384025,0.08257958454790408,0.14374687067494646,0.03950388212664102,0.046481027120611855,0.0396248054036228,-0.2858002101575485,0.04566422083478143,-0.13319733406976392,-0.2196370975600429,0.1254458439445142,0.048819731944649024,-0.1315045665469252,-0.03744841526615419,-0.028159195222724937,-0.08615340341251736,0.005460663171316833,-0.19735282766115084,0.12866759673279796,-0.04884551160032242,0.0625440653464301,-0.04601823127631453,-0.23775474949624537,-0.044726700572259435,-0.013196718071330339,0.09581996799765584,0.031165711287802652,0.12971396851624217,-0.19967041772687164,-0.08690908117999076,-0.006700568039793134,-0.059520509577692136,-0.04055617394982641,-0.23585172282295655,0.059091636216034533,-0.17102397814608694,0.11027102662484846,-0.17505112819981755,-0.06969886301162705,-0.07923933322073905,0.14796550486920218,0.09603915236632424,0.05834918764823742,-0.17383019697169896,-0.019584535596219428,0.01981249046351694,-0.09287153307261525,-0.05563624726172783,-0.08849599219447933,0.12413121998694024,-0.13020815472042072,0.5738652251437102,0.19448045122184204,0.03473201026050334,-0.14476552310616372,0.03030851426856779,-0.011921248021186513,0.41697786861074326,0.007125886179692881,0.09150140531447201,0.08808084936479471,0.02516343811323285,-0.24845475571860254,0.06345135818578058,0.05802790551974294,-0.014607790302786836,-0.013319768189994897,0.06273876639211276,0.10550691377251689,0.07195725147801565,0.14572940987542396,0.05043799316985673,0.01241736338110273,-0.020824927657772583,0.001479624548566766,-0.1515468437116906,0.8681829775717724,-0.13212426211680478,-0.02988673835128283,0.012963301145032819,-0.058559528068056206,0.007357706202386758],[-0.11657913592149713,-0.1322532523577414,0.22675009109805394,-0.0062265759569310915,-0.10461814156516702,0.024533442971202413,0.19458615430060058,-0.12785404189110047,0.07486994456490406,0.07658487288577488,0.049401352192888284,-0.23745795564877314,-0.228211761126852,-0.04027931976583324,-0.12649755924356135,-0.07875791734924145,0.060657550552857306,-0.1186789341778576,-0.1333159432036984,-0.0033269673615909045,-0.009109237867340839,-0.01850989640371721,-0.11729695226244352,0.030828675281212373,0.01330794919841756,0.05356043999604486,0.12694108487644104,-0.15913886936792826,0.03915446932748447,-0.20606337962644886,0.002338047441598858,-0.16548352291218585,0.08414603136131649,0.06650533863445027,-0.037757851548320176,-0.1539086080546635,0.12474401231274268,0.123432382439956,0.1532289105970935,-0.06552644694813359,-0.08264696624067383,0.10121748659830387,-0.07897873171141638,-0.008415823664220062,-0.0004306633410493286,-0.09905662805340082,-0.05870618940015121,0.04754734761046278,-0.1033643855065913,0.20353432505920988,-0.11511210496324879,-0.0902696492021599,0.16602777272146985,0.06628742600370754,-0.16020707631115957,0.09977379955989589,0.22123820152858278,0.21048159757344714,-0.03399256329741407,0.008814869516675167,0.2061498607795995,0.14980316972396002,-0.11828784521509521,0.08664562315724286,0.01682535528478812,0.045079535131016445,-0.00006737371253026113,-0.1025938646533809,-0.1903105281529022,-0.219486977377793,0.14502105798229434,-0.26214089759574616,0.06319744108803133,0.006960095028962814,-0.22009800769987253,-0.12235966027727187,-0.10119116339018058,-0.20101868836113995,-0.02162147543109031,-0.18499623646518631,-0.1378747086489105,-0.09801124533037898,0.23181912048464887,0.09781173181050984,-0.14503782155870845,-0.007956881053260617,0.02577888551606572,-0.08771277855282882,-0.06452900012854777,0.030561240499916733,-0.18926174216887584,-0.01239571144147858,0.08778700777038415,0.10951703223592091,0.10196753225840956,-0.0581212234513583,-0.2571069114005847,-0.10986978643821457,-0.08086133231909062,0.1988844208339624,-0.011400528659548916,-0.053829182979538974,-0.15041019148212892,-0.01638181743799836,0.004181081121086223,-0.030250095171702827,-0.20775798087406971,0.07616759245637782,0.13463118378804217,0.11307094261557438,-0.13134333276486207,0.1384646560684082,-0.258045433982799,0.02345599632910229,-0.11801178420682781,-0.033796236284266756,0.07845281327896622,-0.11823876824104965,-0.0656207413555037,-0.11143583521178001,0.011111533059505865,-0.0110208846127255,-0.1335742984309564,-0.09025253868472256,-0.050174014210967136,-0.0279824940092864,-0.15540361742684805,0.20616960466478862],[0.02342487994030047,0.4684534027145731,0.051172864231534165,0.08415807671378626,0.07556708685889552,-0.030598275818078224,-0.4410691959361217,0.19704525507866177,-0.09110387870082995,-0.23105567055318726,0.11859203164604842,-0.07933620881126793,-0.06703425791687179,-0.33403436784668267,0.018467399126442647,0.04161801566617279,-0.2844840297735086,-0.1208084326972203,-0.04773952229166305,0.21789135189697445,0.14164297823656163,0.0798552514413172,-0.0924822577806462,-0.26948711539665043,0.2588656153218823,-0.3225629929330014,0.2561599858598573,0.1140607744030503,-0.3503500860287242,0.18697750207168184,0.07974584025573145,-0.24811672376921534,-0.19127919052153053,0.08959980053253942,-0.02319822925550601,0.28807068262497,-0.05921376127827637,0.06938258788144071,0.15000371899286657,0.0823926654748897,-0.13631937503580588,0.09709167222155837,0.15627892375658595,0.10599726274260142,0.16601279118997617,-0.2597589662317314,-0.04887862906185748,0.08010342044272369,0.21839213751125755,0.20464347376312744,-0.16001781271040538,-0.1713134629535083,-0.1980710545085553,-0.09141443755107768,-0.11705979953657036,-0.16551130204298606,-0.14850240293930822,-0.04630849582877117,0.04557830261045404,-0.061944061921102564,-0.010103148458008651,-0.14605104956738105,0.07533224376652498,0.10009694716646804,-0.2056514371084584,-0.02305151536691683,-0.10489519848809069,-0.09290509018978428,-0.07738637897034847,0.20609356186487698,-0.19024593572818016,-0.22104960501993942,0.34298157878988206,-0.0748588624242516,-0.10527741304643835,-0.12240829264892707,0.11190956519266432,0.1816724333306287,0.0259126624672219,-0.042071148135144926,-0.005836165226176441,0.04404714288069501,-0.09584583977599495,-0.007914568604451824,-0.2526716670030711,-0.23643374702355147,0.09155138672862108,-0.13429568205428913,-0.009185993035736492,-0.032271469302815665,0.03657408607811541,0.0928071797951842,-0.027721083092856716,0.31988203601553095,0.004506671931313687,-0.17676791406306291,0.30662666670408345,-0.030995126961539478,0.19318815663859618,0.0899386526654058,-0.174181567823406,-0.028050078058081386,0.10079482043632056,0.010247892392020836,0.05707835556002982,-0.09590789782861005,0.14015504964229458,0.027341862430308766,0.25906343465530257,-0.005189111320690993,-0.012352900632274066,-0.06813711351031579,-0.31224206412619404,-0.030243296365600202,-0.02390272878481829,-0.2966160254202946,0.2880554822416967,0.006972662036801538,-0.02765855699107465,0.003030876028543818,0.11517497420141193,0.08697364462847697,-0.15896040907281273,-0.15020315081562033,-0.08206294967696828,-0.17029240642979096,0.18420483474136784,-0.11205442692541757],[-0.3075223783936829,-0.1992739898368253,-0.17744613960199754,0.13319510128641585,-0.09604327642872301,-0.04789161238955221,0.05343737743854588,-0.0653040194497116,0.016861653167784204,-0.3688969157433966,0.08365232854439891,0.1820879027474979,-0.1632326226496855,-0.03527492270316787,0.03568099077474236,0.016984384909547214,-0.019678046210934875,-0.16210586124824575,-0.24364724049536318,-0.1019193104643659,0.26476211817467404,0.058801003324973976,-0.20408360367019152,0.19042290127662398,0.2296205656373013,-0.32163267216430047,-0.025707697165517546,-0.2979649623990406,0.2291651226312217,0.041252422328199506,-0.10018237637970923,0.045457454752002996,0.15968784811905182,-0.039223324544537135,0.11146360043350884,0.21940068349045547,-0.1973453250453314,0.006542889835961704,-0.040903787529721534,0.16308070168596395,-0.12855600225949113,0.14033213221687008,-0.15719706949808968,0.06785710828471851,0.1757281504993557,0.03221685152028178,-0.28990432011814754,0.08569183155203891,0.018422122557401277,0.16849692061335111,-0.0008370886242191323,-0.08231741099692685,0.17379380244149298,0.18440545261357016,0.05242398432725827,0.050731619695734136,-0.00956000395236728,0.014259656616752443,0.04788330230005163,-0.032767449620807,-0.154753686223033,0.2503821376959067,0.06378246213076477,-0.019719159320975576,-0.13310292298411913,-0.3419878616427897,-0.0015637322749054558,-0.029521579813191014,0.051692782377966005,0.045920983854860466,0.030757938321390118,-0.11026499014704248,-0.006041523400852978,-0.24491349754237918,0.14882073531496476,-0.10912485191139251,-0.29264587527923613,-0.16093730738434184,0.07802475097666983,0.024830532140995183,-0.046853759051424235,-0.1131621224306471,0.08273638835884119,0.08053908521944969,0.0410010956034987,0.09501181101636008,-0.11809491465658316,0.03888312769730523,0.1071473206234508,0.06524975361632679,0.05237322653965349,0.008246446117538778,0.0013402431361658799,0.31446686745867286,-0.20076575738906863,0.008546391855529559,-0.18850577778273514,0.322683450206467,-0.0022377867478549636,0.07766829065018198,0.012304530752110297,0.21764103634754872,0.08546871433616537,-0.34036897381862835,0.017676489529514474,-0.02151096848100021,0.014755360646526225,0.08823840244645914,-0.16848436364408703,0.03610854431489265,0.07558879455629498,-0.13190810151753002,-0.009352394762814903,0.04627916433007992,0.12851913858850977,-0.09856122861384135,0.18234946700484006,-0.10625325468824648,0.1500483288401859,-0.04284915762033137,-0.0964084026345674,0.005765964359075331,0.0422470211559016,0.13209553675286423,0.13101178676273678,0.14192876691108539,-0.1118305586203315,-0.0021300655769795037],[0.026837186955507842,-0.031977993610042554,0.13700617597061793,-0.2388758660376497,0.265981968339203,0.05660774784570504,-0.05887517903231674,-0.12107703578066394,-0.23620473968926697,-0.06493597455752942,0.09003589420672457,-0.05633453241956766,0.018677076220814885,-0.07436185046301341,-0.0019554443422784627,0.031945236578828876,0.035411637761379934,-0.14090909543308336,-0.21404978653539913,0.1760909479619521,0.4406505015284771,-0.08682947125203849,0.04319616250438572,-0.03286048527915353,-0.04856975796736179,0.29866624816502574,0.031739359098685714,0.18208787821004777,0.11098903453069124,-0.2290007797579601,-0.2815474353620109,-0.21867385380039808,-0.029291377106715973,-0.09102205807685369,0.015768669053647277,-0.12061984387917937,0.3181145762368703,0.0039053558657582872,0.13661170902852457,0.04391741498290727,-0.08953870246491162,-0.05145755395617597,-0.23621293713712987,-0.13100220965444898,0.3113529415344583,0.05827947741998198,0.270923898872712,0.17976962437704794,-0.019470947600608496,0.1789935652120324,-0.3365116157523073,0.05172574754582329,0.06647223658403961,0.074829748089331,0.0026858381455535235,0.21341233996683878,-0.009346341816468581,-0.038970373825675836,-0.025123556600294288,0.2120284669951643,0.08260547091681832,-0.058664814752797265,-0.030972373069081825,-0.12616069380918551,0.15750990979474583,0.08068663278523741,-0.16088260030424284,0.17510045315787948,0.033941842360243064,0.07660040597705518,0.005369140822676117,-0.13156254327519182,0.14240750745685643,0.09059172578473319,-0.22096417175466274,-0.16774042503317096,0.391915928515629,0.02738033142964991,-0.036534369642808755,-0.10889387597071844,0.0789962041621505,0.23707693463575782,0.12560468784327541,0.0801488439654012,-0.07957194196064285,-0.09150152057789931,0.1385162573801402,0.042868099879263086,-0.20763782691624458,-0.27222171152705366,0.04075491627814536,-0.39650666236753274,0.05950401830177815,0.03502734563469856,-0.20361489560535292,-0.22416865321773063,-0.057811034898618635,0.23655663970077048,0.12534564497393152,-0.015306646441327338,0.3745474778891332,0.04615275924192115,-0.11142743804275315,0.16162061643837705,-0.10921054755567215,-0.3728120370125185,0.0987179491089519,0.07297089967230219,0.10618311892398566,-0.0006633878525683377,0.03532217121650223,-0.3261197204796524,0.03559243081796757,-0.17518959753599023,0.06174816584212389,-0.13624414456285588,0.3307979080221043,-0.0706965933165684,0.22700641139345723,-0.3019258527402143,0.22284388329679128,0.03890891462494113,-0.2459190408634684,0.06160579713781171,-0.10296849980288467,0.08916853101666285,0.14297152808354707,-0.053572886038125926],[0.3131498703244706,-0.2135511627461425,0.10583225335577692,0.0702392475422035,0.03139382087955725,0.057207420203048434,0.04260308665018079,-0.08688330665427339,-0.24343644913862186,0.16670507076223282,0.18050538377147976,0.012835515423829236,0.15980446378309973,-0.026221944637867433,-0.07260265802675621,0.1753361059194753,0.017775806767284363,0.28823570759362604,0.0461922131153248,0.060183261431543046,0.31994833132230016,-0.06172961396088146,0.11125663435010799,0.22922972115324555,0.01775233324131347,-0.03683764023489713,0.0934515168130028,-0.0671148394064539,0.145612484310103,-0.034185215977718626,0.08518556840227204,0.140522399606601,0.06763530788754075,0.28026400308859134,-0.04945506658085438,-0.23869246730254648,0.23442120076813514,0.09580203886118178,-0.09713659358844698,-0.08853754694299996,-0.030367201928993136,-0.22320111156885347,-0.06200694232974199,0.1219034371693311,0.02921444523512842,0.04985291615874598,0.2501199845819066,0.0104702859104751,0.16653983674000541,-0.03196273290502752,0.24002906748942038,0.06926148942287257,0.2588921621380548,0.09873967350516208,0.034647961386590646,0.16274198064972487,0.045108483706549754,-0.1757755850810005,-0.01416500581587211,0.049419449435392705,0.14755953396666366,0.09029752846131517,-0.026384372432685724,-0.04748491145029723,0.1886878219354808,0.19584470170589804,0.24252357464633084,0.0015161843715560403,-0.11472467635501564,0.14590773008220323,-0.017473077279140367,0.18979362002673367,0.012209499996131436,-0.03943340090048393,0.006419349896863852,0.046400770597774726,0.2644082712446041,0.23610674091303313,-0.014241555866758883,-0.03129127649132997,0.08459407294419881,0.06567591813842205,-0.12344390546109388,0.12008043761499539,0.2342589445303562,-0.13621749677227185,-0.09069082235552749,-0.1417467740804278,-0.25120652681219974,0.13065625499405487,0.06540344837868886,-0.056068571162961905,-0.21497412275228142,0.06818176714832858,0.048759329891251126,0.10156073540031568,-0.034299232343933624,0.04252079724882971,0.017641898046275948,-0.011705475646859977,-0.002663393880524937,0.3200492099022508,0.018608403365339723,-0.007034954267033658,-0.04140591889516014,-0.02090623332497736,0.027666186027741176,0.03924428896633699,-0.3043766703783501,0.17403552125449934,0.13619900937245322,0.11611384594603905,0.25767849993048564,-0.04729088451953332,-0.041995352313544086,0.002642273686200733,0.06595660211241765,0.19390005162826238,0.11165469829506511,-0.09570111802204012,0.05774528880887129,0.022316407024143822,0.2319272825970661,0.011605780651148395,0.11803481068651797,0.12271344311675325,-0.16009741664539293,0.08996247471261694],[0.04875022537085392,0.19050566123175688,-0.05515513884293592,0.109230223891681,0.15893419866965508,-0.03975196228725103,-0.08144280215232534,0.3272200766183611,0.22519832656926067,-0.06263911165253194,0.19003956236328942,-0.279895075284834,0.3073684315326648,0.0943267122031328,0.06577843261194635,0.2361199067062709,0.23885542167681734,-0.04599459272552644,0.14930175548028451,-0.07270282149932415,0.3149075598790444,0.34319196428271564,0.08524635543731073,0.1176985613049426,0.07703127280292228,-0.05405424671333856,0.14178671848801197,0.3422386570843498,0.16913485678121495,0.1976314098160323,0.25881407974992776,0.13125853742695967,0.16149517066305305,0.3528677815793493,0.05538059900008057,0.03605139440318205,0.3650317895314276,0.2185033020022091,0.04739817886278036,-0.02606754760460217,0.13083323092086693,0.19634946449243398,-0.05984938445631356,0.27875682497331744,0.08166614992066812,0.32355302223332266,0.05702559203299662,0.2899873804194997,-0.008251638358288139,0.06680959691595711,0.230189177018459,-0.08096904268358235,0.025290090260927732,0.18272044460295145,0.17136391962744993,0.02552211145606061,0.07929324307060301,0.11750711075895447,0.007374407912166655,0.26939848201826383,0.1614026397053133,-0.020969705465996483,0.10166053173211441,0.16475609707520505,0.005394577771165266,0.16580706850440668,0.05138480840296568,-0.03510037989912506,0.29511344679891977,0.2044167826555883,0.36747104302245365,0.19050847702499366,0.16881386762424247,0.04418227241431707,0.3203044739424623,0.004911475078775028,-0.30437359380601675,0.26672605475513456,0.2326619432036906,0.25241303763882494,-0.16034549285034655,0.12111183704351629,-0.12043430954826322,0.38953917982137787,0.03545625021908513,0.07461310386090315,-0.04487341205775981,-0.07685471542149891,0.18178219442563562,0.06074236087502538,0.30824588515370543,0.04673555422695408,0.0872567321555043,-0.11058387816519828,0.14649171261443167,0.11701185631295527,-0.003582742209760183,0.4351719341694282,0.2739638679014266,0.0727832266520197,0.040722014472346316,-0.05580162495710753,-0.023502503236111316,0.3814446178343045,0.11786583412539664,0.21096027528224373,0.01963070117350316,-0.12022056841565172,0.015224466199826599,-0.00890043370775439,-0.3914919235610179,0.10823663801096298,0.1245933174675149,0.2678186666448633,0.13376924487768005,0.25377140564131734,0.09980720240523278,-0.18322368981149129,0.4375395305829962,0.10393700161075214,0.415591006335232,-0.06310466581158752,0.1584768640074049,0.19491063857360105,0.2276832816359178,0.008207039104178068,-0.06646321053940095,0.3234115462360202],[0.11592029870591376,0.03139235716402855,-0.3292968303398475,-0.30184809268090174,-0.013849851400464627,0.19565599101465647,0.0644042765528675,0.10688498309777969,0.029724846328489797,-0.04702803558909016,-0.037650212101315576,-0.1001410392682512,-0.1544846492746232,-0.040074840053670936,0.14505051601440005,0.136442604488591,0.33786232993587745,-0.0332878571726067,0.1297424241196722,-0.08664188708039358,0.20003995112838147,0.17599943346843397,0.15614485481781717,0.04791833275870507,-0.17523154684210301,-0.09880795845446895,0.1217512507342035,0.39697578622337,0.16581453274547153,0.13652191594103683,0.11427685807540347,-0.1983840547110949,-0.0920946224600183,0.11587243215717166,0.05309330577727402,0.06009040564728942,0.11595632089642578,0.04747805919246989,-0.02646839265230906,-0.22006533457875407,-0.14099869532215406,-0.39436400606137906,0.231943089723208,-0.20514347574508623,0.133964006448222,0.161592487906637,0.06582013165323021,0.06693579577672527,-0.03290803509409224,-0.05624698841057178,-0.20069805319036615,-0.15907570040562388,-0.05361150710232506,0.04436369859717194,-0.23136752211239997,0.1386525023339583,0.10301707009419553,0.07818482801577394,0.24031509840443183,-0.07784982955842334,-0.19059864664261572,0.18459053495440714,0.015403441527611143,-0.02710198526437696,0.04516450024839083,0.00018849931881102065,-0.05973598054106111,0.0032739126130355845,0.02464586037894516,-0.007285830569573316,-0.2014912840125233,0.07571173280171418,0.08694165366485777,-0.02103665951899843,0.01841370932351548,0.04569128986391797,0.17444671110773227,0.02143212335496497,0.22258437789040128,0.09984365473122851,-0.0740005643384041,0.009504376360119606,-0.015435833807382443,-0.03809492320722776,-0.07716100460563781,0.004566514389887103,-0.17638978694012758,0.23639669163879234,0.25387792131909753,-0.014501921582268842,0.1024673459732998,-0.17302911158147477,-0.08315282207597074,-0.3017157310708767,0.09063280219849719,0.0044605355780380175,-0.26370985772945754,0.14987690564296213,0.08045586713784526,0.056852544905209544,0.022407845190107665,-0.024229517454935994,0.02447859011975434,0.12844612882918746,0.014061670122256481,0.04296781796510603,0.05675252497226721,0.1036270207416459,-0.045644814930088304,-0.24003839505702584,-0.06537301692862471,-0.13010581391405382,0.04209371191826766,-0.25591463830362116,-0.10167847263144382,0.11089992879582568,0.21483885339847772,-0.017592799000206605,0.2272437499608738,-0.020052202926265045,0.0075098634215372065,0.17042851772893275,0.12236249606262263,0.20532407579093076,-0.022182829637066356,-0.050372134803281225,0.06262966453789048,0.11222101855307486],[0.033944737173805056,0.018918361380925532,0.09120496535901096,-0.08547391577162268,0.11645065016003674,0.24106369653947873,0.00523138032770983,-0.018821808946863243,-0.10231330230281815,0.10003842540343312,-0.21265620733293392,-0.08300722723460356,0.24036183721648047,-0.08727921704894456,0.011817338625994205,0.007262012198760839,0.008055335204373676,0.12238132416648059,0.010024754767300532,-0.01816214394077212,-0.023542473785340835,0.11588986986094872,0.00559580072530491,0.34712732060841145,0.8481553681078536,-0.23599833225635047,0.12648730459683913,0.3647294287672035,0.04462640252881005,-0.06431879024695036,-0.030652570192299444,-0.06501172706903116,0.1679645561063525,0.1517183714384342,0.6055287477267818,0.106886918147384,-0.04005860495336422,-0.03960945015207121,0.03586101009929168,-0.05489036587902237,0.02257518353176733,-0.08205340548199294,0.12880481281017003,0.09110509112844738,-0.11796692926138005,-0.12135686489875154,-0.09154338608441083,-0.10067880896972756,-0.04390456604698289,-0.1708798130470349,-0.02432977168111261,-0.04042039096463206,-0.23844133462050449,0.2334063691090964,-0.0027067374336126947,-0.025509187003833284,-0.00899527026580359,-0.19396731222577412,-0.0644002087804023,-0.0770796952835728,-0.024135265756725633,-0.19182951418790087,-0.07867482443451389,-0.12757836045744536,0.08116554035222943,0.01796899879505944,-0.08427086733668997,-0.18265347758665673,-0.13794896303969295,0.02395150687837894,-0.06209731920593923,-0.03764019235216586,0.06201530471238849,-0.04484807706055506,-0.0689403272256789,-0.02190612161431829,-0.044941631846150194,-0.17146945079809398,-0.23407108305877464,-0.08524492925560422,-0.1784168611466333,-0.251943136411815,0.11976649235189411,-0.09135847501127793,-0.16118537574487726,-0.27675270621888076,0.20191469511813792,-0.054661674550295046,0.051017377454456087,-0.0757552580926457,-0.09112619601227738,0.05045939160811836,-0.07061239609931615,0.00024584562684883295,-0.10055398328394162,-0.03659722660339947,-0.06742260159336873,0.5402902069414783,0.15111792987221076,-0.13089832579255814,-0.18727396346300557,0.1622166745631841,-0.12810545574795432,0.043619993663204515,0.2009144125321058,-0.17680131805193627,-0.0072117117414697935,-0.035529997256821676,0.1305556635167343,0.0550799167037611,-0.06134824453863936,-0.013654699442565667,-0.02470524227001571,-0.154914785845218,0.1196753949967026,0.052809303714695284,0.12767886736566836,-0.1434815539398078,-0.14206650310110303,0.03335181942648698,0.07442670052780452,-0.16222710819360617,0.506076467342622,-0.0485691727400856,-0.10661294310722423,0.051611745837341065,0.017835967112603008,0.22382838276456046],[0.015028279923615332,0.1608005998431796,-0.05672158107508406,-0.1278182439289912,-0.10622026380713419,0.00907806080990494,0.08195874117647178,0.14510476990223126,-0.15790304401379518,-0.004713466988576569,0.19532561477020985,0.09442531976673299,0.06520506959753743,0.04683743735481387,0.050782206209484475,0.09531978743308288,-0.023815662577169258,-0.30022090645011984,-0.2152448224102773,-0.05920371423292528,0.1840217006852133,-0.010077846994273453,-0.32718512822774637,-0.09289450935431949,-0.03697327479162618,-0.061993572762589516,0.05840756526179826,-0.10889151046270346,0.1477759667154176,-0.06397296656596478,-0.18284324876189395,-0.07947987349228515,-0.054282802388071226,-0.14962551594479132,0.10688596514538781,0.01615479275581631,-0.1340781919308455,0.02534138628166515,-0.1913015118356983,0.12038457143315824,-0.17768537038008808,-0.07722419199464002,-0.1406677732152609,-0.10048959787018084,0.11208086446936477,0.12337480669962692,-0.3688099372097663,-0.1546346981209588,-0.11945947549939366,-0.08725353163828174,-0.012672307835030356,-0.21874208731583958,0.08346662663464663,-0.15405671328821444,0.11057311427480736,-0.09251107699760899,0.10851179035766603,-0.06556312308915979,0.06988384964764621,-0.13108800179632504,-0.013245418566736738,-0.008453056413188838,0.01995127362485366,0.06597303901063582,0.10860836465314017,-0.27870334203796787,-0.043519862992688806,-0.01130521314404538,0.0004933028312994212,-0.1759367126665678,-0.02863343877181532,0.04325229300970239,-0.05724415443723797,-0.12833199175307639,0.10937837237226485,-0.16863914591043933,0.03266405133457388,-0.4402982932280291,-0.03803775137832504,0.139431347482849,0.09161365862775248,0.1458645008889076,0.014764141912961154,-0.19785551365571938,0.12928402652765034,-0.08620971853996041,-0.03150841648043099,-0.022153347337703473,0.145975971630179,0.12819014732215314,0.13883852545999875,0.13090187081227478,0.1894854077898416,0.10761936404644837,-0.18014900452872007,-0.082919963137015,-0.02607987588734093,0.033817000701006225,-0.07148357564011147,-0.052416916718132575,-0.053502987157081426,0.04118315658216585,-0.08322108005494548,-0.004291239319149821,0.15978713948867357,0.11367275362564393,0.1378956468782411,-0.0015668430708180535,0.17296107529828328,-0.0028969223076888437,-0.12372734667212786,0.12607433109417404,-0.11108978881651645,-0.05780239626165268,0.11760305587393535,-0.01780828452978137,0.07414804974395668,-0.3447440586808616,0.032714906079928,0.08603996531771178,0.1158416361098856,-0.1585509169504094,0.09438769440815484,-0.12971973044550308,-0.09386999983557423,0.1396843636412655,-0.27610264525858363,-0.07156742215189663],[0.026021903602412255,-0.2055313998853034,-0.06591475640632466,-0.12284805054852149,-0.1388893516879875,0.05814624671115396,0.04536891469552982,-0.10385412702264146,-0.19346966342121805,-0.176297970382347,0.05179029879820419,0.1856903377876214,0.019570078224748738,-0.1080518086966786,-0.07754813918430029,0.2222671989578059,0.07869922737147882,0.024958482054058807,0.07475421871274511,0.03346123071330853,-0.13453502314510674,0.05258476479779951,0.03749592114003845,-0.1303865578683784,0.11673066623416775,-0.027095306983912073,-0.3382198947363477,0.13267513455570654,0.008897583051849726,0.28271594110711984,-0.10099814594011816,-0.04364556978320906,0.17372413976020085,-0.07671025110289144,-0.22262812319972747,-0.045125928546791164,0.05458431846118756,-0.21105409797116884,-0.043402266753012356,-0.15071109392312715,-0.1654307839395019,-0.23449136543573657,0.04915251539470433,-0.10301715423858483,0.017640940251000253,0.1493866425345584,-0.09114750016701398,-0.1900951218821955,0.10224360032538259,-0.14318439017852644,-0.07146319060112054,0.00998533462036959,0.06519161792752476,-0.12599803222027367,-0.14903788858077457,-0.16445242048115305,0.09263513331561027,0.0470979679952529,-0.049368495828160615,-0.06750027300653186,-0.13071124978248314,0.05082065256401955,-0.005850889555889492,-0.13397012091321842,-0.02363376804824324,-0.16415657963859034,-0.01962094469900923,-0.15536222826638763,-0.09283583179837877,-0.04180551851823251,-0.05910485509825956,0.12593679683333187,-0.16631989118394544,0.24377766154285646,-0.22753005899231882,-0.030601393979206894,0.1467856944190939,-0.08836521009109521,0.08949304127192627,-0.018909918691727628,0.11653660112449685,-0.16670514641149609,0.15782926964560806,-0.19847228494353716,0.10688014352733852,0.3151226823225155,0.024759393701886123,-0.10427251055205053,-0.011971045871299959,0.09140496688114141,0.1362554667371531,0.15055145495268163,-0.0499506103724471,0.07626711143659565,0.08603972863809883,-0.24311805358505634,0.10597073151872911,-0.10334141947020044,0.010930966847219557,0.11971647923504108,-0.229376087164468,-0.052946168096161136,0.03688247087143233,0.05757924494388027,0.10630201669354042,-0.038887990006925,-0.12348216572163032,0.13560092244379124,0.06089049143151934,-0.2245294891605372,-0.01428565466213789,0.04325154415913439,-0.042826293346342914,-0.13610320429870368,-0.021117894218903848,0.2201356302181806,0.05516005420294073,0.01546593369187557,0.18661529043484004,-0.0847976422291948,0.12843054148188282,-0.1387757177659184,-0.3077925494687131,-0.17951319882498984,-0.04283166202293272,-0.13258201827434768,-0.0781468159295689,0.20362979020119282],[-0.04178553760920245,0.029203151248887838,-0.06498241470905278,-0.29816743416853986,0.2094632478304839,0.18236932288571772,0.013838076380538713,0.18536476299124552,-0.003967764024840727,-0.18016831842501105,0.11215896423822985,-0.12722061711195615,0.2155608828799783,0.146532019538421,0.15150658711737386,0.10060423767940761,-0.04219501973836783,0.17769523408520677,0.182909984501544,0.2524533759489144,-0.06908608876438281,-0.01727133102644595,0.1496081728571352,0.029740117639862826,0.30772747198029016,0.06378730874223741,0.40155833831922916,0.29435304390974426,-0.07844015349368769,0.35512785773904804,0.5794953802767846,-0.05828237315115302,-0.24869191281258374,0.18845042362183703,0.12532809980297033,0.1885241803510744,0.20943336060588166,0.24826440324554197,0.13206117938321923,-0.0009663931074019463,0.07591724543220563,-0.2099014718585628,-0.02348217490490568,-0.0047470557825391585,0.060226441504557644,0.24915246984583608,0.1955718384176076,-0.02400089966534599,0.12934272806366687,0.08392393030449885,0.1566154815609835,-0.043516789953557754,-0.08304989422218928,0.2687812027720799,-0.19447421896155723,0.10655871458824931,-0.12924231042943574,0.1230745360282055,0.21656878597703536,0.14128753111529063,0.39255597744869836,-0.1480553127143792,0.21843090260721185,0.10830620551285086,0.2693053968225424,-0.007980401686055618,0.32965967258184714,-0.12969341361774817,0.28417512658798577,-0.05507205097080508,-0.0858892364510747,0.002684052139836345,0.06574916198633776,0.09484324746286135,0.07397539982956582,-0.11999149881448275,0.08162159053599179,0.2422848962038221,-0.14454075556081455,0.18345665646582882,0.03320411858899165,0.054945372840961945,0.11734046702165828,0.28688003933679884,-0.0667305302943776,-0.1254008339071988,-0.17379565924576612,0.11331883348663177,0.11467195931787703,-0.06213048038452537,0.014257805454665644,-0.11306576705726674,-0.09946024354573463,0.009730820866359825,0.16836355443029916,-0.14490540753059097,0.14205609592865595,0.3506508919922486,0.13195913990139507,0.13071817063331687,-0.041855587686950795,0.15277023268283083,0.2980679508525481,0.26211322102794643,-0.06485895478216444,0.148949209579864,0.1680882531410814,0.2847244188093354,-0.025064377047269108,-0.015982495436544487,0.05310053853284731,0.043110527263095416,0.11573716107662145,0.034150877507914575,0.0035197202729566413,0.08194637081582369,-0.1402944402920387,-0.13975667839421,0.18372609584736263,0.0634694370514257,0.17477394874935662,0.08831009086866985,0.03231791766228737,0.16692555162575276,0.10828451564412012,0.06920149534663879,0.1283466104241488,0.011601430214979782],[-0.0010767053409983067,0.033238250950499704,0.09696021465168611,-0.1976426661951391,0.1288984922347292,0.1059816409144751,-0.19796399569941597,0.20285617570393252,-0.07922438567077927,0.0734023094651335,-0.09257830724065919,0.03138025634666121,0.09750953734324735,0.025084668027435288,-0.086895505707222,0.08101167066320865,-0.11470182088487574,-0.06848971340329679,-0.19872666649111334,-0.05462496237440472,0.0099349203064239,-0.16684537690669893,-0.29311076374271056,-0.11778391825741444,-0.18770265840409803,0.008983495012999387,-0.2790841276638411,-0.012434687554366303,0.06140292574015048,0.07765728919761998,0.2269587313097023,-0.23074765602667555,0.0866487314125311,0.02600087531594836,-0.13513117318405254,-0.030145643755608444,0.25869909407678493,-0.06501968417638718,0.06777825951507899,0.07463987568293269,-0.30688101876478724,0.02206748392724283,0.2881831675226705,-0.041416712843002,-0.057202243782368205,-0.0960467840292683,-0.009747874613804821,-0.11023468495306508,-0.17592228472735627,-0.035681679371967076,-0.004589756719780257,-0.24127336915832567,0.06823877490309005,0.07368691723560258,0.15009563661064157,-0.029504602150188727,-0.0885003262331456,0.02730221299975487,-0.056329801697743605,-0.06955872862948961,-0.15105866577294416,0.08184035240774011,-0.04480783707947166,0.08566471014754146,-0.012973482459802455,-0.03388021367723306,0.08124428282481541,-0.0027219641215000256,-0.16537045006762247,-0.057393724089064624,-0.1764327255240771,0.2342051974455968,0.12206978011695177,-0.16212500248271366,-0.007065473696210259,-0.01642809446202216,0.03696739237558133,-0.2534836170463506,-0.11698018964229029,-0.005264942298481687,0.028752727789759236,-0.111402439621444,-0.1332240418301386,-0.04664773752080123,-0.1528605938546559,0.03665095870421595,-0.04114526595389467,-0.007813310861191053,0.10573984097071516,0.10831352955485608,-0.003311231910754872,0.248715751261948,-0.19627455663293825,-0.057559106120108366,0.04527203998409599,-0.02615129935149307,0.03427652793920026,0.024630514664014672,0.07970152742304706,-0.40114615807157034,0.14876672648736855,0.08823210000903813,-0.1515449967457852,0.1291348351934806,0.08447079263617746,-0.19319161670591417,-0.043512703703105865,0.043656382985536105,0.20319895322027753,-0.21795429622515794,0.09772794280935353,-0.1243428430340136,0.032132105221987686,-0.09755613689221261,-0.025104963729821406,-0.16551370320681297,-0.062399502609808935,-0.0486422296327593,-0.18897788529666942,0.06120831580480635,0.08894609969377201,0.09708047333596379,0.15575446732526926,0.027492044292089166,-0.05670639885973111,-0.06773332596988399,0.012771223877706371,-0.07310295471210572],[0.05176421401177402,-0.12767356166836802,-0.15631873172452374,0.016358822967079144,0.13328516068630938,-0.19523045554266616,0.12552347516197646,-0.2967175382788903,0.10902021671402047,0.04132902548015121,-0.04849211918447376,-0.14402493543002237,0.22831387247400942,0.19653817865851364,0.06011211255511128,-0.007781061430795729,0.05577233710563863,-0.19263884425040628,-0.09612068540952103,-0.1563963178322174,0.06462079990375136,-0.006118220288432928,0.037291268388646666,-0.01573391007339741,-0.23541967594232235,-0.14375760158528336,-0.005551606521841587,